svm_type c_svc
kernel_type rbf
gamma 0.015625
nr_class 2
total_sv 3609
rho -1.18039
label 0 1
nr_sv 1821 1788
SV
1 1:-1 2:-1 3:1 5:1 7:-1 8:1 9:-1 10:-1 11:-0.8 13:1 14:-0.333333 15:-0.142857 16:-0.333333 17:-0.3 18:0.166667 19:0.3 21:0.3 22:-1 23:-0.3 24:0.25 29:-0.384615 30:-0.3 32:0.166667 33:0.444444 34:0.166667 39:0.3 40:-1 41:1 42:1 43:0.384615 44:0.384615 45:-0.3 46:-0.230769 47:-1 48:-0.3 49:0.555556 50:0.4 52:-1 53:-0.3 54:-0.222222 55:0.5 56:0.428571 57:1 58:-0.222222 59:0.111111 60:-0.3 61:1 62:0.111111 63:0.666667 64:0.25 
1 1:-1 2:-1 3:1 5:1 7:-1 8:1 9:-1 10:-1 11:-0.8 13:1 14:-0.333333 15:-0.142857 16:-0.333333 17:-0.3 18:0.166667 19:0.3 21:0.3 22:-1 23:-0.3 24:0.25 29:-0.384615 30:-0.3 32:0.166667 33:0.444444 34:0.166667 40:-1 41:1 42:1 43:0.384615 44:1 45:-0.3 46:-1 47:-1 48:-0.3 49:0.555556 50:0.4 51:0.384615 52:-1 53:-0.3 54:-0.222222 55:0.5 56:0.428571 57:1 58:-0.222222 59:0.111111 60:-0.3 61:1 62:0.111111 63:0.666667 64:0.25 
1 1:-1 2:-1 3:1 5:1 7:-1 8:1 9:-1 10:-1 11:-0.8 13:1 14:-0.333333 15:-0.142857 16:-0.333333 17:-0.3 18:0.166667 19:0.3 21:0.3 22:-1 23:-0.3 24:0.25 29:-0.384615 30:-0.3 32:0.166667 33:0.444444 34:0.166667 40:-1 41:1 42:1 43:0.384615 44:1 45:-0.3 47:-0.230769 48:-0.3 49:0.555556 50:0.4 51:0.384615 52:-1 53:-0.3 54:0.333333 55:0.0833333 56:0.428571 57:1 58:-0.222222 59:0.111111 60:-0.3 61:1 62:0.111111 63:0.666667 64:-1 
1 1:-1 2:-1 3:1 5:1 7:-1 8:1 9:-1 10:-1 11:-0.8 13:1 14:-0.333333 15:-0.142857 16:-0.555556 17:-0.3 18:0.166667 19:0.3 21:0.3 22:0.166667 23:-0.3 24:0.25 29:-0.384615 30:-0.3 32:0.166667 33:0.444444 34:0.166667 40:-1 41:1 42:1 43:0.384615 45:-0.3 47:-0.230769 48:-0.3 49:0.555556 50:0.4 51:0.384615 52:-1 53:-0.3 54:0.333333 55:0.0833333 56:0.428571 57:1 58:-0.222222 59:0.111111 60:-0.3 61:1 62:0.111111 63:0.666667 64:-1 
1 1:-1 2:-1 3:1 5:1 7:-1 8:1 9:-1 10:-1 11:-0.8 13:1 14:-0.333333 15:-0.142857 16:-0.333333 17:-0.3 18:0.166667 19:0.3 21:0.3 22:-1 23:-0.3 24:0.25 29:-0.384615 30:-0.3 32:0.166667 33:1 34:0.166667 40:-1 41:0.444444 42:1 43:0.384615 44:0.384615 45:-0.3 47:-1 48:-0.3 49:0.555556 50:0.4 52:-1 53:-0.3 54:0.333333 55:0.5 56:0.428571 57:1 58:-0.222222 59:0.111111 60:-0.3 61:1 62:0.111111 63:0.666667 64:0.25 
1 1:-1 2:-1 3:1 5:1 7:-1 8:1 9:-1 10:-1 11:-0.8 13:1 14:-0.333333 15:-0.142857 16:-0.333333 17:-0.3 18:0.166667 19:0.3 21:0.3 22:-1 23:-0.3 24:0.25 29:-0.384615 30:-0.3 32:0.166667 33:1 34:0.166667 40:-1 41:0.444444 42:1 43:0.384615 44:1 45:-0.3 47:-1 48:-0.3 49:0.555556 50:0.4 51:0.384615 52:-1 53:-0.3 54:0.333333 55:-1 56:0.428571 57:1 58:-0.222222 59:0.111111 60:-0.3 61:1 62:0.111111 63:0.666667 64:0.25 
1 1:-1 2:-1 3:1 5:1 7:-1 8:1 9:-1 10:-1 11:-0.8 13:1 14:-0.333333 15:-0.142857 16:-0.333333 17:-0.3 18:0.166667 19:0.3 21:0.3 22:-1 23:-0.3 24:0.25 29:-0.384615 30:-0.3 32:0.166667 33:0.444444 34:0.166667 35:-1 40:-1 41:1 42:1 44:1 45:-0.3 47:-1 48:-0.3 49:0.555556 50:0.4 51:0.384615 52:-1 53:-0.3 54:0.333333 55:0.5 56:0.428571 57:1 58:-0.222222 59:0.111111 60:-0.3 61:1 62:0.111111 63:0.666667 64:0.25 
1 1:-1 2:-1 3:1 5:1 7:-1 8:1 9:-1 10:-1 11:-0.8 13:1 14:-0.333333 15:-0.142857 16:-0.333333 17:-0.3 18:0.166667 19:0.3 21:0.3 22:-1 23:-0.3 24:0.25 25:-1 29:-0.384615 30:-0.3 32:0.166667 33:0.444444 34:0.166667 35:0.384615 40:-1 41:1 42:1 43:0.384615 44:1 45:-0.3 47:-1 48:-0.3 49:0.555556 50:0.4 52:-1 53:-0.3 54:0.333333 55:0.5 56:0.428571 57:1 58:-0.222222 59:0.111111 60:-0.3 61:1 62:0.111111 63:0.666667 64:0.25 
1 1:-1 2:-1 3:1 5:1 7:-1 8:1 9:-1 10:-1 11:-0.8 13:1 14:-0.333333 15:-0.142857 16:-0.333333 17:-0.3 18:0.166667 19:0.3 21:0.3 22:-1 23:-0.3 24:0.25 29:-0.384615 30:-0.3 32:0.166667 33:0.444444 34:0.166667 35:0.384615 40:-1 41:-1 42:1 43:0.384615 44:1 45:-0.3 47:-1 48:-0.3 49:0.555556 50:0.4 52:-1 53:-0.3 54:0.333333 55:0.5 56:0.428571 57:1 58:-0.222222 59:0.111111 60:-0.3 61:1 62:0.111111 63:0.666667 64:0.25 
1 1:-1 2:-1 3:1 5:1 7:-1 8:1 9:-1 10:-1 11:-0.8 13:1 14:-0.333333 15:-0.142857 16:-0.333333 17:-0.3 18:0.166667 19:0.3 21:0.3 22:-1 23:-0.3 24:0.25 29:-0.384615 30:-0.3 32:0.166667 33:0.444444 34:0.166667 38:0.714286 40:-1 41:1 42:1 43:0.384615 44:0.384615 45:-0.3 47:-1 48:-0.3 49:0.555556 50:0.4 52:-1 53:-0.3 54:-0.222222 55:0.5 56:0.428571 57:1 58:-0.222222 59:0.111111 60:-0.3 61:1 62:0.111111 63:0.666667 64:0.25 
1 1:-1 2:-1 3:1 5:1 7:-1 8:1 9:-1 10:-1 11:-0.8 13:1 14:-0.333333 15:-0.142857 16:-0.333333 17:-0.3 18:0.166667 19:0.3 21:0.3 22:-1 23:-0.3 24:0.25 30:-0.3 32:0.166667 33:0.444444 34:0.166667 38:-0.714286 40:-1 41:1 42:1 43:0.384615 44:0.384615 45:-0.3 47:-1 48:-0.3 49:0.555556 50:0.4 52:-1 53:-0.3 54:-0.222222 55:0.5 56:0.428571 57:1 58:-0.222222 59:0.111111 60:-0.3 61:1 62:0.111111 63:0.666667 64:0.25 
1 1:-1 2:-1 3:1 5:1 7:-1 8:1 9:-1 10:-1 11:-0.8 13:1 14:-0.333333 15:-0.142857 16:-0.333333 17:-0.3 18:0.166667 19:0.3 21:0.3 22:-1 23:-0.3 24:0.25 29:-0.384615 30:-0.3 32:0.166667 33:0.444444 34:0.166667 38:0.714286 40:-1 41:1 42:1 43:0.384615 44:1 45:-0.3 47:-1 48:-0.3 49:0.555556 50:0.4 51:0.384615 52:-1 53:-0.3 54:-0.222222 55:-1 56:0.428571 57:1 58:-0.222222 59:0.111111 60:-0.3 61:1 62:0.111111 63:0.666667 64:0.25 
1 1:-1 2:-1 3:1 5:1 7:-1 8:1 9:-1 10:-1 11:-0.8 13:1 14:-0.333333 15:-0.142857 16:-0.333333 17:-0.3 18:0.166667 19:0.3 21:0.3 22:0.166667 23:-0.3 24:0.25 29:-0.384615 30:-0.3 32:0.166667 33:0.444444 34:0.166667 37:-0.538462 38:0.714286 40:-1 41:1 42:1 43:0.384615 45:-0.3 47:-1 48:-0.3 49:0.555556 50:0.4 51:0.384615 52:-1 53:-0.3 54:-0.222222 55:0.5 56:0.428571 57:1 58:-0.222222 59:0.111111 60:-0.3 61:1 62:0.111111 63:0.666667 64:0.25 
1 1:-1 2:-1 3:1 5:1 7:-1 8:1 9:-1 10:-1 11:-0.8 13:1 14:-0.333333 15:-0.142857 16:-0.333333 17:-0.3 18:0.166667 19:0.3 21:0.3 22:-1 23:-0.3 24:0.25 29:-0.384615 30:-0.3 32:0.166667 33:0.444444 34:0.166667 40:-1 41:1 42:1 43:0.384615 44:0.384615 45:-0.3 47:-1 48:-0.3 49:0.555556 50:0.4 52:-1 53:0.4 54:0.333333 55:0.5 56:0.428571 57:1 58:-0.222222 59:0.111111 60:-0.3 61:1 62:0.111111 63:0.0833333 64:0.25 
1 1:-1 2:-1 3:1 5:1 7:-1 8:1 9:-1 10:-1 11:-0.8 13:1 14:-0.333333 15:-0.142857 16:-0.333333 17:-0.3 18:0.166667 19:0.3 21:0.3 22:-1 23:-0.3 24:0.25 29:-0.384615 30:-0.3 32:0.166667 33:0.444444 34:0.166667 39:0.3 40:-1 41:1 42:1 43:0.384615 44:0.384615 45:-0.3 47:-1 48:-0.3 49:0.555556 50:0.4 52:-1 53:-0.6 54:0.333333 55:0.5 56:0.428571 57:1 58:-0.222222 59:0.111111 60:-0.3 61:1 62:0.111111 63:0.0833333 64:0.25 
0.1534734125282627 1:-1 2:-1 3:1 5:1 7:-1 8:1 9:-1 10:-1 11:-0.8 13:1 14:-0.333333 15:-0.142857 16:-0.333333 17:-0.3 18:0.166667 19:0.3 21:0.3 22:-1 23:-0.3 24:0.25 29:-0.384615 30:-0.3 32:0.166667 33:0.444444 34:0.166667 40:-1 41:1 42:1 43:0.384615 44:1 45:-0.3 47:-1 48:-0.3 49:0.555556 50:0.4 51:0.384615 52:-1 53:0.4 54:0.333333 55:-1 56:0.428571 57:1 58:-0.222222 59:0.111111 60:-0.3 61:1 62:0.111111 63:0.0833333 64:0.25 
1 1:-1 2:-1 3:1 5:1 7:-1 8:1 9:-1 10:-1 11:-0.8 13:1 14:-0.333333 15:-0.142857 16:-0.333333 17:-0.3 18:0.166667 19:0.3 21:0.3 22:-1 23:-0.3 24:0.25 29:-0.384615 30:-0.3 32:0.166667 33:0.444444 34:0.166667 40:-1 41:1 42:1 43:0.384615 44:0.384615 45:-0.3 46:0.538462 47:-1 48:-0.3 49:0.555556 50:0.4 52:-1 53:-0.3 54:0.333333 55:0.5 56:0.428571 57:1 58:-0.222222 59:0.111111 60:-0.3 61:1 62:0.111111 63:0.0833333 64:0.25 
1 1:-1 2:-1 3:1 5:1 7:-1 8:1 9:-1 10:-1 11:-0.8 13:1 14:-0.333333 15:-0.142857 16:-0.333333 17:-0.3 18:0.166667 19:0.3 21:0.3 22:-1 23:-0.3 24:0.25 29:-0.384615 30:-0.3 32:0.166667 33:0.444444 34:0.166667 39:0.3 40:-1 41:1 42:1 43:0.384615 44:0.384615 45:-0.3 46:-0.230769 47:-1 48:-0.3 49:0.555556 50:0.4 52:-1 53:-0.3 54:0.333333 55:0.5 56:0.428571 57:1 58:-0.222222 59:0.111111 60:-0.3 61:1 62:0.111111 63:0.0833333 64:0.25 
1 1:-1 2:-1 3:1 5:1 7:-1 8:1 9:-1 10:-1 11:-0.8 13:1 14:-0.333333 15:-0.142857 16:-0.333333 17:-0.3 18:0.166667 19:0.3 21:0.3 22:0.166667 23:-0.3 24:0.25 29:-0.384615 30:-0.3 32:0.166667 33:0.444444 34:0.166667 39:0.3 40:-1 41:1 42:1 43:-0.538462 45:-0.3 46:0.384615 47:-1 48:-0.3 49:0.555556 50:0.4 51:0.384615 52:-1 53:-0.3 54:0.333333 55:0.0833333 56:0.428571 57:1 58:-0.222222 59:0.111111 60:-0.3 61:1 62:0.111111 63:0.0833333 64:0.25 
1 1:-1 2:-1 3:1 5:1 7:-1 8:1 9:-1 10:-1 11:-0.8 13:1 14:-0.333333 15:-0.142857 16:-0.333333 17:-0.3 18:0.166667 19:0.3 21:0.3 22:-1 23:-0.3 24:0.25 29:-0.384615 30:-0.3 32:0.166667 33:0.444444 34:0.166667 39:0.3 40:-1 41:1 42:1 43:0.384615 44:1 45:-0.3 46:-1 47:-1 48:-0.3 49:0.555556 50:0.4 51:0.384615 52:-1 53:-0.3 54:0.333333 55:0.0833333 56:0.428571 57:1 58:-0.222222 59:0.111111 60:-0.3 61:1 62:0.111111 63:0.0833333 64:0.25 
1 1:-1 2:-1 3:1 5:1 7:-1 8:1 9:-1 10:-1 11:-0.8 13:1 14:-0.333333 15:-0.142857 16:-0.333333 17:-0.3 18:0.166667 19:0.3 21:0.3 22:-1 23:-0.3 24:0.25 29:-0.384615 30:-0.3 32:0.166667 33:0.444444 34:0.166667 40:-1 41:1 42:1 43:0.384615 44:1 45:-0.3 46:-1 47:-1 48:-0.3 49:0.555556 50:0.4 51:0.384615 52:-1 53:-0.3 54:0.333333 55:0.5 56:0.428571 57:1 58:-0.222222 59:0.111111 60:-0.3 61:1 62:0.111111 63:0.0833333 64:0.25 
1 1:-1 2:-1 3:1 5:1 7:-1 8:1 9:-1 10:-1 11:-0.8 13:1 14:-0.333333 15:-0.142857 16:-0.333333 17:-0.3 18:0.166667 19:0.3 21:0.3 22:0.166667 23:-0.3 24:0.25 29:-0.384615 30:-0.3 32:0.166667 33:0.444444 34:0.166667 37:-0.538462 40:-1 41:1 42:1 43:0.384615 45:-0.3 46:0.538462 47:-1 48:-0.3 49:0.555556 50:0.4 51:0.384615 52:-1 53:-0.3 54:0.333333 55:0.5 56:0.428571 57:1 58:-0.222222 59:0.111111 60:-0.3 61:1 62:0.111111 63:0.0833333 64:0.25 
1 1:-1 2:-1 3:1 5:1 7:-1 8:1 9:-1 10:-1 11:-0.8 13:1 14:-0.333333 15:-0.142857 16:-0.333333 17:-0.3 18:0.166667 19:0.3 21:0.3 22:-1 23:-0.3 24:0.25 29:-0.384615 30:-0.3 32:0.166667 33:0.444444 34:0.166667 39:0.3 40:-1 41:1 42:1 43:0.384615 44:0.384615 45:-0.3 47:-1 48:0.2 49:0.555556 50:0.4 52:-1 53:-0.3 54:0.333333 55:0.0833333 56:0.428571 57:1 58:-0.222222 59:0.111111 60:-0.3 61:1 62:0.111111 63:0.0833333 64:0.25 
1 1:-1 2:-1 3:1 5:1 7:-1 8:1 9:-1 10:-1 11:-0.8 13:1 14:-0.333333 15:-0.142857 16:-0.333333 17:-0.3 18:0.166667 19:0.3 21:0.3 22:0.166667 23:-0.3 24:0.25 28:-0.538462 29:-0.384615 30:-0.3 32:0.166667 33:0.444444 34:0.166667 39:0.3 40:-1 41:1 42:1 43:0.384615 45:-0.3 47:-1 48:-0.6 49:0.555556 50:0.4 51:0.384615 52:-1 53:-0.3 54:0.333333 55:0.5 56:0.428571 57:1 58:-0.222222 59:0.111111 60:-0.3 61:1 62:0.111111 63:0.0833333 64:0.25 
1 1:-1 2:-1 3:1 5:1 7:-1 8:1 9:-1 10:-1 11:-0.8 13:1 14:-0.333333 15:-0.142857 16:-0.333333 17:-0.3 18:0.166667 19:0.3 21:0.3 22:-1 23:-0.3 24:0.25 29:-0.384615 30:-0.3 32:0.166667 33:0.444444 34:0.166667 40:-1 41:1 42:1 43:0.384615 44:0.384615 45:-0.3 47:-1 48:-0.3 49:0.555556 50:0.4 52:-0.538462 53:-0.3 54:0.333333 55:0.5 56:0.428571 57:1 58:-0.222222 59:-0.222222 60:-0.3 61:1 62:0.111111 63:0.666667 64:0.25 
1 1:-1 2:-1 3:1 5:1 7:-1 8:1 9:-1 10:-1 11:-0.8 13:1 14:-0.333333 15:-0.142857 16:-0.333333 17:-0.3 18:0.166667 19:0.3 21:0.3 22:-1 23:-0.3 24:0.25 29:-0.384615 30:-0.3 32:0.166667 33:0.444444 34:0.166667 38:0.428571 40:-1 41:1 42:1 43:0.384615 44:0.384615 45:-0.3 47:-1 48:-0.3 49:0.555556 50:0.4 52:-1 53:-0.3 54:0.333333 55:0.5 56:0.428571 57:1 58:-0.222222 59:-0.222222 60:-0.3 61:1 62:0.111111 63:0.666667 64:0.25 
1 1:-1 2:-1 3:1 5:1 7:-1 8:1 9:-1 10:-1 11:-0.8 13:1 14:-0.333333 15:-0.142857 16:-0.333333 17:-0.3 18:0.166667 19:0.3 21:0.3 22:-1 23:-0.3 24:0.25 29:-0.384615 30:-0.3 32:0.166667 33:0.444444 34:0.166667 38:0.428571 40:-1 41:1 42:1 43:0.384615 44:0.230769 45:-0.3 47:-1 48:-0.3 49:0.555556 50:0.4 51:0.384615 52:-1 53:-0.3 54:0.333333 55:0.5 56:0.428571 57:1 58:-0.222222 59:-0.222222 60:-0.3 61:1 62:-0.222222 63:0.666667 64:0.25 
1 1:-1 2:-1 3:1 5:1 7:-1 8:1 9:-1 10:-1 11:-0.8 13:1 14:-0.333333 15:-0.142857 16:-0.333333 17:-0.3 18:0.166667 19:0.3 21:0.3 22:-1 23:-0.3 24:0.25 29:0.230769 30:-0.3 32:0.166667 33:0.444444 34:0.166667 40:-1 41:1 42:1 43:0.384615 44:-1 45:-0.3 47:-1 48:-0.3 49:0.555556 50:0.4 51:0.384615 52:-1 53:-0.3 54:0.333333 55:0.5 56:0.428571 57:1 58:-0.222222 59:-0.222222 60:-0.3 61:1 62:0.111111 63:0.666667 64:0.25 
1 1:-1 2:-1 3:1 5:1 7:-1 8:1 9:-1 10:-1 11:-0.8 13:1 14:-0.333333 15:-0.142857 16:-0.333333 17:-0.3 18:0.166667 19:0.3 21:0.3 22:-1 23:-0.3 24:0.25 29:-0.384615 30:-0.3 32:0.166667 33:0.444444 34:0.166667 38:0.428571 40:-1 41:1 42:1 43:0.384615 44:1 45:-0.3 47:-1 48:-0.3 49:0.555556 50:0.4 51:0.384615 52:-1 53:-0.3 54:0.333333 55:-1 56:0.428571 57:1 58:-0.222222 59:-0.222222 60:-0.3 61:1 62:0.111111 63:0.666667 64:0.25 
1 1:-1 2:-1 3:1 5:1 7:-1 8:1 9:-1 10:-1 11:-0.8 13:1 14:-0.333333 15:-0.142857 16:-0.333333 17:-0.3 18:0.166667 19:0.3 21:0.3 22:0.166667 23:-0.3 24:0.25 29:-0.384615 30:-0.3 32:0.166667 33:0.444444 34:0.166667 37:-0.538462 38:0.428571 40:-1 41:1 42:1 43:0.384615 45:-0.3 47:-1 48:-0.3 49:0.555556 50:0.4 51:0.384615 52:-1 53:-0.3 54:0.333333 55:0.5 56:0.428571 57:1 58:-0.222222 59:-0.222222 60:-0.3 61:1 62:0.111111 63:0.666667 64:0.25 
1 1:-1 2:-1 3:1 5:1 7:-1 8:1 9:-1 10:-1 11:-0.8 13:1 14:-0.333333 15:0.571429 16:-0.333333 17:-0.3 18:0.166667 19:0.3 21:0.3 22:-1 23:-0.3 24:-1 29:-0.384615 30:-0.3 32:0.166667 33:0.444444 34:0.166667 40:-1 41:1 42:1 43:0.384615 44:0.384615 45:-0.3 47:-1 48:-0.3 49:0.555556 50:0.4 52:-1 53:-0.3 54:0.333333 55:0.5 56:0.428571 57:1 58:-0.222222 59:-0.222222 60:-0.3 61:1 62:0.111111 63:0.666667 64:0.25 
1 1:-1 2:-1 3:1 5:1 7:-1 8:1 9:-1 10:-1 11:-0.8 13:1 14:-0.333333 15:-0.142857 16:-0.333333 17:-0.3 18:0.166667 19:0.3 21:0.3 22:-1 23:-0.3 24:0.25 29:-0.384615 30:-0.3 32:0.166667 33:0.444444 34:0.166667 39:0.3 40:-1 41:1 42:1 43:0.384615 44:0.384615 45:-0.3 47:-1 48:-0.3 49:0.555556 50:0.4 52:-1 53:-0.6 54:0.333333 55:0.5 56:0.428571 57:1 58:-0.222222 59:0.111111 60:-0.3 61:1 62:-0.222222 63:0.666667 64:0.25 
1 1:-1 2:-1 3:1 5:1 7:-1 8:1 9:-1 10:-1 11:-0.8 13:1 14:-0.333333 15:-0.142857 16:-0.333333 17:-0.3 18:0.166667 19:0.3 21:0.3 22:-1 23:-0.3 24:0.25 29:-0.384615 30:-0.3 32:0.166667 33:0.444444 34:0.166667 39:0.3 40:-1 41:1 42:1 43:0.384615 44:0.384615 45:-0.3 47:-1 48:-0.3 49:0.555556 50:0.4 52:-1 53:0.4 54:0.333333 55:0.5 56:0.428571 57:1 58:-0.222222 59:0.111111 60:-0.3 61:1 62:-0.222222 63:0.0833333 64:0.25 
1 1:-1 2:-1 3:1 5:1 7:-1 8:1 9:-1 10:-1 11:-0.8 13:1 14:-0.333333 15:-0.142857 16:-0.333333 17:-0.3 18:0.166667 19:0.3 21:0.3 22:-1 23:-0.3 24:0.25 29:-0.384615 30:-0.3 32:0.166667 33:0.444444 34:0.166667 39:0.6 40:-1 41:1 42:1 43:0.384615 44:1 45:-0.3 47:-1 48:-0.3 49:0.555556 50:0.4 51:0.384615 52:-1 53:-0.3 54:0.333333 55:0.0833333 56:0.428571 57:1 58:-0.222222 59:0.111111 60:-0.3 61:1 62:-0.222222 63:0.666667 64:-1 
1 1:-1 2:-1 3:1 5:1 7:-1 8:1 9:-1 10:-1 11:-0.8 13:1 14:-0.333333 15:-0.142857 16:-0.555556 17:-0.3 18:0.166667 19:0.3 21:0.3 22:0.166667 23:-0.3 24:0.25 29:-0.384615 30:-0.3 32:0.166667 33:0.444444 34:0.166667 39:0.6 40:-1 41:1 42:1 43:0.384615 45:-0.3 47:-1 48:-0.3 49:0.555556 50:0.4 51:0.384615 52:-1 53:-0.3 54:0.333333 55:0.0833333 56:0.428571 57:1 58:-0.222222 59:0.111111 60:-0.3 61:1 62:-0.222222 63:0.666667 64:-1 
1 1:-1 2:-1 3:1 5:1 7:-1 8:1 9:-1 10:-1 11:-0.8 13:1 14:-0.333333 15:-0.142857 16:-0.555556 17:-0.3 18:0.166667 19:0.3 21:0.3 22:0.166667 23:-0.3 24:0.25 29:-0.384615 30:-0.3 32:0.166667 33:0.444444 34:0.166667 39:0.6 40:-1 41:1 42:1 43:0.384615 45:-0.3 47:-1 48:-0.3 49:0.555556 50:0.4 51:0.384615 52:-1 53:-0.3 54:0.333333 55:-1 56:0.428571 57:1 58:-0.222222 59:0.111111 60:-0.3 61:1 62:-0.222222 63:0.666667 64:0.25 
1 1:-1 2:-1 3:1 5:1 7:-1 8:1 9:-1 10:-1 11:-0.8 13:1 14:-0.333333 15:-0.142857 16:-0.333333 17:-0.3 18:0.166667 19:0.3 21:0.3 22:-1 23:-0.3 24:0.25 29:-0.384615 30:-0.3 32:0.166667 33:0.444444 34:0.166667 40:-1 41:1 42:1 43:0.384615 44:0.384615 45:-0.3 47:-1 48:-0.3 49:0.555556 50:0.4 52:-1 53:-0.3 54:0.333333 55:0.5 56:0.428571 57:0.555556 59:0.111111 60:-0.3 61:1 62:0.111111 63:0.666667 64:0.25 
1 1:-1 2:-1 3:1 5:1 7:-1 8:1 9:-1 10:-1 11:-0.8 13:1 14:-0.333333 15:-0.142857 16:-0.333333 17:-0.3 18:0.166667 19:0.3 21:0.3 22:0.166667 23:-0.3 24:0.25 29:-0.384615 30:-0.3 32:0.166667 33:0.444444 34:0.166667 37:-0.538462 40:-1 41:1 42:1 43:0.384615 45:-0.3 47:-1 48:-0.3 49:0.555556 50:0.4 51:0.384615 52:-1 53:-0.3 54:0.333333 55:0.5 56:0.428571 57:0.555556 59:0.111111 60:-0.3 61:1 62:0.111111 63:0.666667 64:0.25 
1 1:-1 2:-1 3:1 5:1 7:-1 8:1 9:-1 10:-1 11:-0.8 13:1 14:-0.333333 15:-0.142857 16:-0.333333 17:-0.3 18:0.166667 19:0.3 21:0.3 22:0.166667 23:-0.3 24:0.25 29:-0.384615 30:-0.3 32:0.166667 33:0.444444 34:0.166667 37:-0.538462 40:-1 41:1 42:1 43:0.384615 45:-0.3 47:-1 48:-0.3 49:1 50:0.4 51:0.384615 52:-1 53:-0.3 54:0.333333 55:0.5 56:0.428571 57:0.555556 58:-0.222222 59:0.111111 60:-0.3 61:1 62:0.111111 63:0.666667 64:0.25 
1 1:-1 2:-1 3:1 5:1 7:-1 8:1 9:-1 10:-1 11:-0.8 13:1 14:-0.333333 15:-0.142857 16:-0.333333 17:-0.3 18:0.166667 19:0.3 21:0.3 22:-1 23:-0.3 24:0.25 29:-0.384615 30:-0.3 32:0.166667 33:0.444444 34:0.166667 39:0.3 40:-1 41:1 42:1 43:0.384615 45:-0.3 47:-1 48:-0.3 49:0.555556 50:0.4 51:0.384615 52:-0.538462 53:-0.3 54:0.333333 55:0.5 56:0.428571 57:1 58:-0.222222 59:-0.222222 60:-0.6 61:1 62:0.111111 63:0.666667 64:0.25 
1 1:-1 2:-1 3:1 5:1 7:-1 8:1 9:-1 10:-1 11:-0.8 13:1 14:-0.333333 15:-0.142857 16:-0.333333 17:-0.3 18:0.166667 19:0.3 21:0.3 22:-1 23:-0.3 24:0.25 29:-0.384615 30:-0.3 32:0.166667 33:0.444444 34:0.166667 39:0.3 40:-1 41:1 42:1 43:0.384615 45:-0.3 47:-1 48:-0.3 49:0.555556 50:0.4 51:0.384615 52:-1 53:-0.3 54:0.333333 55:0.5 56:0.428571 57:1 58:-0.222222 59:0.111111 60:-0.6 61:1 62:0.111111 63:0.666667 64:0.25 
1 1:-1 2:-1 3:1 5:1 7:-1 8:1 9:-1 10:-1 11:-0.8 13:1 14:-0.333333 15:-0.142857 16:-0.333333 17:-0.3 18:0.166667 19:0.3 21:0.3 22:-1 23:-0.3 24:0.25 29:-0.384615 30:-0.3 32:0.166667 33:0.444444 34:0.166667 39:0.3 40:-1 41:1 42:1 43:0.384615 45:-0.3 47:-1 48:-0.3 49:0.555556 50:0.4 51:0.384615 52:-0.538462 53:-0.6 54:0.333333 55:0.5 56:0.428571 57:1 58:-0.222222 59:-0.222222 60:-0.3 61:1 62:0.111111 63:0.666667 64:0.25 
1 1:-1 2:-1 3:1 5:1 7:-1 8:1 9:-1 10:-1 11:-0.8 13:1 14:-0.333333 15:-0.142857 16:-0.333333 17:-0.3 18:0.166667 19:0.3 21:0.3 22:-1 23:-0.3 24:0.25 29:-0.384615 30:-0.3 32:0.166667 33:0.444444 34:0.166667 39:0.3 40:-1 41:1 42:1 43:0.384615 45:-0.3 46:-1 47:-1 48:-0.3 49:0.555556 50:0.4 51:0.384615 52:-1 53:-0.3 54:0.333333 55:0.0833333 56:0.428571 57:1 58:-0.222222 59:0.111111 60:-0.3 61:1 62:0.111111 63:0.666667 64:0.25 
1 1:-1 2:-1 3:1 5:1 7:-1 8:1 9:-1 10:-1 11:-0.8 13:1 14:-0.333333 15:-0.142857 16:-0.333333 17:-0.3 18:0.166667 19:0.3 21:0.3 22:-1 23:-0.3 24:0.25 29:-0.384615 30:-0.3 32:0.166667 33:0.444444 34:0.166667 39:0.3 40:-1 41:1 42:1 43:0.384615 45:-0.3 46:-1 47:-1 48:-0.3 49:0.555556 50:0.4 51:0.384615 52:-1 53:-0.3 54:0.333333 55:0.5 56:0.428571 57:1 58:-0.222222 59:0.111111 60:-0.3 61:1 62:0.111111 63:0.0833333 64:0.25 
1 1:-1 2:-1 3:1 5:1 7:-1 8:1 9:-1 10:-1 11:-0.8 13:1 14:-0.333333 15:-0.142857 16:-0.333333 17:-0.3 18:0.166667 19:0.3 21:0.3 22:-1 23:-0.3 24:0.25 29:-0.384615 30:-0.3 32:0.166667 33:0.444444 34:0.166667 39:0.3 40:-1 41:1 42:1 43:0.384615 45:-0.3 46:0.384615 47:-1 48:-0.3 49:0.555556 50:0.4 51:0.384615 52:-1 53:-0.3 54:0.333333 55:0.0833333 56:0.428571 57:1 58:-0.222222 59:0.111111 60:-0.3 61:1 62:0.111111 63:0.0833333 64:0.25 
1 1:-1 2:-1 3:1 5:1 7:-1 8:1 9:-1 10:-1 11:-0.8 13:1 14:-0.333333 15:-0.142857 16:-0.333333 17:-0.3 18:0.166667 19:0.3 21:0.3 22:0.166667 23:-0.3 24:0.25 29:-0.384615 30:-0.3 32:0.166667 33:0.444444 34:0.166667 37:-0.538462 40:-1 41:1 42:1 43:0.384615 45:-0.3 47:-1 48:-0.3 49:0.555556 50:0.4 51:0.384615 52:-1 53:-0.3 54:0.333333 55:0.5 56:0.428571 57:1 58:-0.222222 59:0.111111 60:-0.3 61:1 62:0.111111 63:0.666667 64:0.25 
1 1:-1 2:-1 3:1 5:1 7:-1 8:1 9:-1 10:-1 11:-0.8 13:1 14:-0.333333 15:-0.142857 16:-0.333333 17:-0.3 18:0.166667 19:0.3 21:0.3 22:-1 23:-0.3 24:0.25 29:-0.384615 30:-0.3 32:0.166667 33:0.444444 34:0.166667 39:0.3 40:-1 41:1 42:1 43:0.384615 45:-0.3 47:-1 48:-0.6 49:0.555556 50:0.4 51:0.846154 52:-1 53:-0.3 54:0.333333 55:0.5 56:0.428571 57:1 58:-0.222222 59:0.111111 60:-0.3 61:-1 62:0.111111 63:0.666667 64:0.25 
1 1:-1 2:-1 3:1 5:1 7:-1 8:1 9:-1 10:-1 11:-0.8 13:1 14:-0.333333 15:-0.142857 16:-0.333333 17:-0.3 18:0.166667 19:0.3 21:0.3 22:-1 23:-0.3 24:0.25 30:-0.3 32:0.166667 33:0.444444 34:0.166667 36:0.384615 40:-1 41:1 42:1 45:-0.3 47:-1 48:-0.3 49:0.555556 50:0.4 51:0.384615 52:-1 53:-0.3 54:0.333333 55:0.333333 56:0.428571 57:1 58:-0.222222 59:0.111111 60:-0.3 61:1 62:-0.222222 63:0.666667 64:0.25 
1 1:-1 2:-1 3:1 5:1 7:-1 8:1 9:-1 10:-1 11:-0.8 13:1 14:-0.333333 15:-0.142857 16:-0.333333 17:-0.3 18:0.166667 19:0.3 21:0.3 22:-1 23:-0.3 24:0.25 30:-0.3 32:0.166667 33:0.444444 34:0.166667 36:0.384615 40:-1 41:1 42:1 45:-0.3 47:-1 48:-0.3 49:0.555556 50:0.4 52:-1 53:-0.3 54:0.333333 55:0.5 56:0.428571 57:1 58:-0.222222 59:0.111111 60:-0.3 61:1 62:0.111111 63:0.666667 64:0.25 
1 1:-1 2:-1 3:1 5:1 7:-1 8:1 9:-1 10:-1 11:-0.8 13:1 14:-0.333333 15:-0.142857 16:-0.333333 17:-0.3 18:0.166667 19:0.3 21:0.3 22:-1 23:-0.3 24:0.25 30:-0.3 32:0.166667 33:0.444444 34:0.166667 36:-1 40:-1 41:1 42:1 45:-0.3 47:-1 48:-0.3 49:0.555556 50:0.4 51:0.384615 52:-1 53:-0.3 54:0.333333 55:0.5 56:0.428571 57:1 58:-0.222222 59:0.111111 60:-0.3 61:1 62:0.111111 63:0.666667 64:0.25 
1 1:-1 2:-1 3:1 5:1 7:-1 8:1 9:-1 10:-1 11:-0.8 13:1 14:-0.333333 15:-0.142857 16:-0.333333 17:-0.3 18:0.166667 19:0.3 21:0.3 22:-1 23:-0.3 24:0.25 29:-0.384615 30:-0.3 32:0.166667 33:0.444444 34:0.166667 36:-1 40:-1 41:1 42:1 43:0.384615 45:-0.3 47:-1 48:-0.3 49:0.555556 50:0.4 51:0.384615 52:-1 53:-0.3 54:0.333333 55:0.5 56:0.428571 57:1 58:-0.222222 59:0.111111 60:-0.3 61:1 62:0.111111 63:0.666667 64:0.25 
1 1:-1 2:-1 3:1 5:1 7:-1 8:1 9:-1 10:-1 11:-0.8 13:1 14:-0.333333 15:-0.142857 16:-0.333333 17:-0.3 18:0.166667 19:0.3 21:0.3 22:-1 23:-0.3 24:0.25 30:-0.3 32:0.166667 33:0.444444 34:0.166667 36:-0.384615 40:-1 41:1 42:1 45:-0.3 47:-1 48:-0.3 49:0.555556 50:0.4 51:0.384615 52:-1 53:-0.3 54:0.333333 55:0.5 56:0.428571 57:1 58:-0.222222 59:0.111111 60:-0.3 61:1 62:0.111111 63:0.666667 64:0.25 
1 1:-1 2:-1 3:1 5:1 7:-1 8:1 9:-1 10:-1 11:-0.8 13:1 14:-0.333333 15:-0.142857 16:-0.333333 17:-0.3 18:0.166667 19:0.3 21:0.3 22:-1 23:-0.3 24:0.25 29:-0.384615 30:-0.3 32:0.166667 33:0.444444 34:0.166667 37:1 40:-1 41:1 42:-1 43:0.384615 45:-0.3 47:-1 48:-0.3 49:0.555556 50:0.4 51:0.384615 52:-1 53:-0.3 54:0.333333 55:0.5 56:0.428571 57:1 58:-0.222222 59:0.111111 60:-0.3 61:1 62:0.111111 63:0.666667 64:0.25 
1 1:-1 2:-1 3:1 5:1 7:-1 8:1 9:-1 10:-1 11:-0.8 13:1 14:-0.333333 15:-0.142857 16:-0.333333 17:-0.3 18:0.166667 19:0.3 21:0.3 22:-1 23:-0.3 24:0.25 29:-0.384615 30:-0.6 32:0.166667 33:0.444444 34:0.166667 39:0.3 40:-1 41:1 42:1 43:0.384615 45:-0.3 47:-1 48:-0.3 49:0.555556 50:0.4 51:0.384615 52:-0.538462 53:-0.3 54:0.333333 55:0.5 56:0.428571 57:1 58:-0.222222 59:-0.222222 60:-0.3 61:1 62:0.111111 63:0.666667 64:0.25 
1 1:-1 2:-1 3:1 5:1 7:-1 8:1 9:-1 10:-0.444444 11:-0.8 13:1 14:-0.333333 15:-0.142857 16:-0.333333 17:-0.8 18:0.166667 19:0.3 21:0.3 22:-1 23:-0.3 24:0.25 29:-0.384615 30:-0.3 32:0.166667 33:0.444444 34:0.166667 40:-1 41:1 42:1 43:0.384615 45:-0.3 47:-1 48:-0.3 49:0.555556 50:0.4 51:0.384615 52:-0.538462 53:-0.3 54:0.333333 55:0.5 56:0.428571 57:1 58:-0.222222 59:-0.222222 60:-0.3 61:1 62:0.111111 63:0.666667 64:0.25 
1 1:-1 2:-1 3:1 5:1 7:-1 8:1 9:-1 10:-0.444444 11:-0.8 13:1 14:-0.333333 15:-0.142857 16:-0.333333 17:-0.8 18:0.166667 19:0.3 21:0.3 22:-1 23:-0.3 24:0.25 29:-0.384615 30:-0.3 32:0.166667 33:0.444444 34:0.166667 40:-1 41:1 42:1 43:0.384615 45:-0.3 47:-1 48:-0.3 49:0.555556 50:0.4 51:0.846154 52:-1 53:-0.3 54:0.333333 55:0.5 56:0.428571 57:1 58:-0.222222 59:0.111111 60:-0.3 61:-1 62:0.111111 63:0.666667 64:0.25 
1 1:-1 2:0.4 3:1 5:1 7:-1 8:1 9:-1 10:-1 11:-0.8 13:1 14:-0.333333 15:-0.142857 16:-0.333333 17:-1 18:0.166667 19:0.3 21:0.3 22:-1 23:-0.3 24:0.25 29:-0.384615 30:-0.3 32:0.166667 33:0.444444 34:0.166667 40:-1 41:1 42:1 43:0.384615 45:-0.3 47:-1 48:-0.3 49:0.555556 50:0.4 51:0.846154 52:-1 53:-0.3 54:0.333333 55:0.5 56:0.428571 57:1 58:-0.222222 59:0.111111 60:-0.3 61:-1 62:0.111111 63:0.666667 64:0.25 
1 1:-1 2:-1 3:1 5:1 7:-1 8:1 9:-1 10:-1 11:-0.8 13:1 14:0.222222 15:-0.142857 16:-0.333333 17:-0.3 18:0.166667 19:0.3 21:0.3 22:-1 23:-0.8 24:0.25 29:-0.384615 30:-0.3 32:0.166667 33:0.444444 34:0.166667 40:-1 41:1 42:1 43:0.384615 45:-0.3 47:-1 48:-0.3 49:0.555556 50:0.4 51:0.384615 52:-0.538462 53:-0.3 54:0.333333 55:0.5 56:0.428571 57:1 58:-0.222222 59:-0.222222 60:-0.3 61:1 62:0.111111 63:0.666667 64:0.25 
1 1:-1 2:-1 3:1 5:1 7:-1 8:1 9:-1 10:-1 11:-0.8 13:1 14:-0.333333 15:-0.142857 16:-0.333333 17:-0.3 18:0.166667 19:0.3 21:0.3 22:0.166667 23:-0.3 24:0.25 29:-0.384615 30:-0.3 32:0.166667 33:0.444444 34:0.166667 40:-1 41:1 42:1 43:0.384615 44:0.384615 45:-0.3 47:-1 48:-0.3 49:0.555556 50:0.4 52:-1 53:-0.3 54:-1 55:0.5 56:0.428571 57:1 58:-0.222222 59:0.111111 60:-0.3 61:1 62:0.111111 63:0.666667 64:0.25 
1 1:-1 2:-1 3:1 5:1 7:-1 8:1 9:-1 10:-1 11:-0.8 13:1 14:-0.333333 15:-0.142857 16:-0.333333 17:-0.3 18:0.166667 19:0.3 21:0.3 22:0.166667 23:-0.3 24:0.25 28:-0.538462 29:-0.384615 30:-0.3 32:0.166667 33:0.444444 34:0.166667 39:0.3 40:-1 41:1 42:1 43:0.384615 45:-0.3 47:-1 48:-0.6 49:0.555556 50:0.4 51:0.384615 52:-1 53:-0.3 54:0.333333 55:0.5 56:-1 57:1 58:-0.222222 59:0.111111 60:-0.3 61:1 62:0.111111 63:0.666667 64:0.25 
1 1:-1 2:-1 3:1 5:1 7:-1 8:1 9:-1 10:-1 11:-0.8 13:1 14:-0.333333 15:-0.142857 16:-0.333333 17:-0.3 18:0.166667 19:0.3 21:0.3 22:0.166667 23:-0.3 24:0.25 28:-0.538462 29:-0.384615 30:-0.3 32:0.166667 33:0.444444 34:0.166667 38:0.714286 40:-1 41:1 42:1 43:0.384615 45:-0.3 47:-1 48:-0.3 49:0.555556 50:0.4 51:0.384615 52:-1 53:-0.3 54:-0.222222 55:0.5 56:0.428571 57:1 58:-0.222222 59:0.111111 60:-0.3 61:1 62:0.111111 63:0.666667 64:0.25 
1 1:-1 2:-1 3:1 5:1 7:-1 8:1 9:-1 10:-1 11:-0.8 13:1 14:-0.333333 15:-0.142857 16:-0.333333 17:-0.3 18:0.166667 19:0.3 21:0.3 22:0.166667 23:-0.3 24:0.25 29:-0.384615 30:-0.3 32:0.166667 33:0.444444 34:0.166667 40:-1 41:1 42:1 43:0.384615 45:0.2 47:-1 48:-0.3 49:0.555556 50:0.4 51:0.384615 52:-1 53:-0.3 54:-0.222222 55:0.5 56:0.428571 57:1 58:-0.222222 59:-0.222222 60:-0.3 61:1 62:0.111111 63:0.666667 64:0.25 
1 1:-1 2:-1 3:1 5:1 7:-1 8:1 9:-1 10:-1 11:-0.8 13:1 14:-0.333333 15:-0.142857 16:-0.333333 17:-0.3 18:0.166667 19:0.3 21:0.3 22:-1 23:-0.3 24:0.25 29:-0.384615 30:-0.3 32:0.166667 33:0.444444 34:0.166667 39:0.3 40:-1 41:1 42:1 43:0.384615 44:0.230769 45:-0.3 46:-0.230769 47:-1 48:-0.3 49:0.555556 50:0.4 51:0.384615 52:-1 53:-0.3 54:-0.222222 55:0.5 56:0.428571 57:1 58:-0.222222 59:0.111111 60:-0.3 61:1 62:-0.222222 63:0.666667 64:0.25 
1 1:-1 2:-1 3:1 5:1 7:-1 8:1 9:-1 10:-1 11:-0.8 13:1 14:-0.333333 15:-0.142857 16:-0.333333 17:-0.3 18:0.166667 19:0.3 21:0.3 22:-1 23:-0.3 24:0.25 29:-0.384615 30:-0.3 32:0.166667 33:0.444444 34:0.166667 39:0.8 40:-1 41:1 42:1 43:0.384615 44:-1 45:-0.3 47:-1 48:-0.3 49:0.555556 50:0.4 51:0.384615 52:-1 53:-0.3 54:-0.222222 55:0.5 56:0.428571 57:1 58:-0.222222 59:0.111111 60:-0.3 61:1 62:0.111111 63:0.666667 64:0.25 
1 1:-1 2:-1 3:1 5:1 7:-1 8:1 9:-1 10:-1 11:-0.8 13:1 14:-0.333333 15:-0.142857 16:-0.333333 17:-0.3 18:0.166667 19:0.3 21:0.3 22:-1 23:-0.3 24:0.25 28:-0.230769 29:-0.384615 30:-0.3 32:0.166667 33:0.444444 34:0.166667 39:0.3 40:-1 41:1 42:1 43:0.384615 47:-1 48:-0.3 49:0.555556 50:0.4 51:0.384615 52:-1 53:-0.3 54:0.333333 55:0.5 56:0.428571 57:1 58:-0.222222 59:-0.222222 60:-0.3 61:1 62:0.111111 63:0.666667 64:0.25 
1 1:-1 2:-1 3:1 5:1 7:-1 8:1 9:-1 10:-1 11:-0.8 13:1 14:-0.333333 15:-0.142857 16:-0.333333 17:-0.3 18:0.166667 19:0.3 21:0.3 22:-1 23:-0.3 24:0.25 29:-0.384615 30:-0.3 32:0.166667 33:0.444444 34:0.166667 39:0.3 40:-1 41:1 42:1 43:0.384615 44:0.230769 45:-0.3 47:-1 48:-0.6 49:0.555556 50:0.4 51:0.384615 52:-1 53:-0.3 54:0.333333 55:0.5 56:-1 57:1 58:-0.222222 59:0.111111 60:-0.3 61:1 62:-0.222222 63:0.666667 64:0.25 
1 1:-1 2:-1 3:1 5:1 7:-1 8:1 9:-1 10:-1 11:-0.8 13:1 14:-0.333333 15:-0.142857 16:-0.333333 17:-0.3 18:0.166667 19:0.3 21:0.3 22:-1 23:-0.3 24:0.25 29:-0.384615 30:-0.3 32:0.166667 33:0.444444 34:0.166667 39:0.8 40:-1 41:1 42:1 43:0.384615 44:-1 45:-0.3 47:-1 48:-0.3 49:0.555556 50:0.4 51:0.384615 52:-1 53:-0.3 54:0.333333 55:0.5 56:-1 57:1 58:-0.222222 59:0.111111 60:-0.3 61:1 62:0.111111 63:0.666667 64:0.25 
1 1:-1 2:-1 3:1 5:1 7:-1 8:1 9:-1 10:-1 11:-0.8 13:1 14:-0.333333 15:-0.142857 16:-0.333333 17:-0.3 18:0.166667 19:0.3 21:0.3 22:-1 23:-0.3 24:0.25 29:-0.384615 30:-0.3 32:0.166667 33:0.444444 34:0.166667 40:-1 41:1 42:1 43:0.384615 44:1 45:-0.3 46:-1 47:-1 48:0.2 49:0.555556 50:0.4 51:0.384615 52:-1 53:-0.3 54:0.333333 55:0.5 56:-1 57:1 58:-0.222222 59:0.111111 60:-0.3 61:1 62:0.111111 63:0.666667 64:0.25 
1 1:-1 2:-1 3:1 5:1 7:-1 8:1 9:-1 10:-1 11:-0.8 13:1 14:-0.333333 15:-0.142857 16:-0.333333 17:-0.3 18:0.166667 19:0.3 21:0.3 22:-1 23:-0.3 24:0.25 29:-0.384615 30:-0.3 32:0.166667 33:0.444444 34:0.166667 35:-1 40:-1 41:1 42:1 43:0.384615 44:1 45:-0.3 47:-1 48:0.2 49:0.555556 50:0.4 51:0.384615 52:-1 53:-0.3 54:0.333333 55:0.5 56:-1 57:1 58:-0.222222 59:0.111111 60:-0.3 61:1 62:0.111111 63:0.666667 64:0.25 
1 1:-1 2:-1 3:1 5:1 7:-1 8:1 9:-1 10:-1 11:-0.8 13:1 14:-0.333333 15:-0.142857 16:-0.333333 17:-0.3 18:0.166667 19:0.3 21:0.3 22:-1 23:-0.3 24:0.25 26:-1 29:-0.384615 30:-0.3 32:0.166667 33:0.444444 34:0.166667 40:-1 41:1 42:1 43:0.384615 44:1 45:-0.3 47:-1 48:0.2 49:0.555556 50:0.4 51:0.384615 52:-1 53:-0.3 54:0.333333 55:0.5 56:-1 57:1 58:-0.222222 59:0.111111 60:-0.3 61:1 62:0.111111 63:0.666667 64:0.25 
1 1:-1 2:-1 3:1 5:1 7:-1 8:1 9:-1 10:-1 11:-0.8 13:1 14:-0.333333 15:-0.142857 16:-0.333333 17:-0.3 18:0.166667 19:0.3 20:-1 21:0.3 22:-1 23:-0.3 24:0.25 29:-0.384615 30:-0.3 32:0.166667 33:0.444444 34:0.166667 40:-1 41:1 42:1 43:0.384615 44:1 45:-0.3 47:-1 48:0.2 49:0.555556 50:0.4 51:0.384615 52:-1 53:-0.3 54:0.333333 55:0.5 56:-1 57:1 58:-0.222222 59:0.111111 60:-0.3 61:1 62:0.111111 63:0.666667 64:0.25 
1 1:-1 2:-1 3:1 5:1 7:-1 8:1 9:-1 10:-1 11:-0.8 12:-1 13:1 14:-0.333333 15:-0.142857 16:-0.333333 17:-0.3 18:0.166667 19:0.3 21:0.3 22:-1 23:-0.3 24:0.25 29:-0.384615 30:-0.3 32:0.166667 33:0.444444 34:0.166667 40:-1 41:1 42:1 43:0.384615 44:1 45:-0.3 47:-1 48:0.2 49:0.555556 50:0.4 51:0.384615 52:-1 53:-0.3 54:0.333333 55:0.5 56:-1 57:1 58:-0.222222 59:0.111111 60:-0.3 61:1 62:0.111111 63:0.666667 64:0.25 
1 1:-1 2:-1 3:1 5:1 7:-1 8:1 9:-1 10:-1 11:-0.8 12:-0.538462 13:1 14:-0.333333 15:-0.142857 16:-0.333333 17:-0.3 18:0.166667 19:0.3 21:0.3 22:0.166667 23:-0.3 24:0.25 29:-0.384615 30:-0.3 32:0.166667 33:0.444444 34:0.166667 40:-1 41:1 42:1 43:0.384615 45:-0.3 47:-1 48:0.2 49:0.555556 50:0.4 51:0.384615 52:-1 53:-0.3 54:0.333333 55:0.5 56:-1 57:1 58:-0.222222 59:0.111111 60:-0.3 61:1 62:0.111111 63:0.666667 64:0.25 
1 1:-1 2:-1 3:1 5:1 7:-1 8:1 9:-1 10:-1 11:-0.8 12:-0.230769 13:1 14:-0.333333 15:-0.142857 16:-0.333333 17:-0.3 18:0.166667 19:0.3 21:0.3 22:-1 23:-0.3 24:0.25 29:-0.384615 30:-0.3 32:0.166667 33:0.444444 34:0.166667 39:0.3 40:-1 41:1 42:1 43:0.384615 45:-0.3 47:-1 48:0.2 49:0.555556 50:0.4 51:0.384615 52:-1 53:-0.3 54:0.333333 55:0.5 56:-1 57:1 58:-0.222222 59:0.111111 60:-0.3 61:1 62:0.111111 63:0.666667 64:0.25 
1 1:-1 2:-1 3:1 4:-1 5:1 7:-1 8:1 9:-1 10:-1 11:-0.8 13:1 14:-0.333333 15:-0.142857 16:-0.333333 17:-0.3 18:0.166667 19:0.3 21:0.3 22:-1 23:-0.3 24:0.25 29:-0.384615 30:-0.3 32:0.166667 33:0.444444 34:0.166667 40:-1 41:1 42:1 43:0.384615 44:1 45:-0.3 47:-1 48:0.2 49:0.555556 50:0.4 51:0.384615 52:-1 53:-0.3 54:0.333333 55:0.5 56:-1 57:1 58:-0.222222 59:0.111111 60:-0.3 61:1 62:0.111111 63:0.666667 64:0.25 
1 1:-1 2:-1 3:1 5:1 7:-1 8:1 9:-1 10:-1 11:-0.8 12:-0.230769 13:1 14:-0.333333 15:-0.142857 16:-0.333333 17:-0.3 18:0.166667 19:0.3 21:0.3 22:0.166667 23:-0.3 24:0.25 28:-0.538462 29:-0.384615 30:-0.3 32:0.166667 33:0.444444 34:0.166667 39:0.3 40:-1 41:1 42:1 43:0.384615 45:-0.3 47:-1 48:-0.3 49:0.555556 50:0.4 51:0.384615 52:-1 53:0.4 54:0.333333 55:0.5 56:0.428571 57:1 58:-0.222222 59:0.111111 60:-0.3 61:1 62:0.111111 63:0.0833333 64:0.25 
1 1:-1 2:-1 3:1 5:1 7:-1 8:1 9:-1 10:-1 11:-0.8 13:1 14:-0.333333 15:-0.142857 16:-0.333333 17:-0.3 18:0.166667 19:0.3 21:0.3 22:0.166667 23:-0.3 24:0.25 29:-0.384615 30:-0.3 32:0.166667 33:0.444444 34:0.166667 39:0.8 40:-1 41:1 42:1 43:0.384615 45:-0.3 47:-1 48:-0.3 49:0.555556 50:0.4 51:0.384615 52:-1 53:-0.3 54:0.333333 55:0.5 56:-1 57:1 58:-0.222222 59:0.111111 60:-0.3 61:1 62:-1 63:0.666667 64:0.25 
1 1:-1 2:-1 3:1 5:1 7:-1 8:1 9:-1 10:-1 11:-0.8 13:1 14:-0.333333 15:-0.142857 16:-0.333333 17:-0.3 18:0.166667 19:0.3 21:0.3 22:0.166667 23:-0.3 24:0.25 29:-0.384615 30:-0.3 32:0.166667 33:0.444444 34:0.166667 39:0.8 40:-1 41:1 42:1 43:0.384615 45:-0.3 47:-1 48:-0.3 49:0.555556 50:0.4 52:0.692308 53:-0.3 54:0.333333 55:0.5 56:-1 57:-1 58:-0.222222 59:0.111111 60:-0.3 61:-1 62:0.111111 63:0.666667 64:0.25 
1 1:-1 2:-1 3:1 5:1 7:-1 8:1 9:-1 10:-1 11:-0.8 13:1 14:-0.333333 15:-0.142857 16:-0.333333 17:-0.3 18:0.166667 19:0.3 21:0.3 22:0.166667 23:-0.3 24:0.25 29:-0.384615 30:-0.3 32:0.166667 33:0.444444 34:0.166667 39:0.8 40:-1 41:1 42:1 43:0.384615 45:-0.3 47:-1 48:-0.3 49:0.555556 50:0.4 52:-1 53:0.8 54:0.333333 55:0.5 56:-1 57:-1 58:-0.222222 59:0.111111 60:-0.3 61:-1 62:0.111111 63:0.666667 64:0.25 
1 1:-1 2:-1 3:1 5:1 7:-1 8:1 9:-1 10:-1 11:-0.8 13:1 14:-0.333333 15:-0.142857 16:-0.333333 17:-0.3 18:0.166667 19:0.3 21:0.3 22:0.166667 23:-0.3 24:0.25 29:-0.384615 30:-0.3 32:0.166667 33:0.444444 34:-1 40:-1 41:1 42:1 43:0.384615 45:-0.3 47:-1 48:0.2 49:0.555556 50:0.4 51:0.384615 52:-1 53:-0.3 54:0.333333 55:0.5 56:-1 57:1 58:-0.222222 59:0.111111 60:-0.3 61:1 62:0.111111 63:0.666667 64:0.25 
1 1:-1 2:-1 3:0.142857 5:1 7:-1 8:1 9:-1 10:-1 11:-0.8 13:1 14:-0.333333 15:-0.142857 16:-0.333333 17:-0.3 18:0.166667 19:0.3 21:0.3 22:0.166667 23:-0.3 24:0.25 28:-0.538462 29:-0.384615 30:-0.3 32:0.166667 33:0.444444 34:0.166667 39:0.3 40:-1 41:1 42:1 43:0.384615 45:-0.3 47:-1 48:0.2 49:0.555556 50:0.4 51:0.384615 52:-1 53:-0.3 54:0.333333 55:0.5 56:-1 57:1 58:-0.222222 59:0.111111 60:-0.3 61:1 62:0.111111 63:0.666667 64:0.25 
1 1:-1 2:-1 3:1 5:1 7:1 8:-1 9:-1 10:-1 11:-0.8 13:1 14:-0.333333 15:-0.142857 16:-0.333333 17:-0.3 18:0.166667 19:0.3 21:0.3 22:0.166667 23:-0.3 24:0.25 28:-0.538462 29:-0.384615 30:-0.3 32:0.166667 33:0.444444 34:0.166667 40:-1 41:1 42:1 43:0.384615 45:-0.3 47:-1 48:0.2 49:0.555556 50:0.4 51:0.384615 52:-1 53:-0.3 54:0.333333 55:0.5 56:-1 57:1 58:-0.222222 59:0.111111 60:-0.3 61:1 62:0.111111 63:0.666667 64:0.25 
1 1:-1 2:-1 3:1 5:1 7:-1 8:1 9:-1 10:-1 11:-0.8 13:1 14:-0.333333 15:-0.142857 16:-0.333333 17:-0.3 18:0.166667 19:0.3 21:0.3 22:0.166667 23:-0.3 24:0.25 29:-0.384615 30:-0.3 32:0.166667 33:0.444444 34:0.166667 40:-1 41:1 42:1 43:0.384615 45:-1 46:0.538462 47:-1 48:-0.3 49:0.555556 50:0.4 51:0.384615 52:-1 53:-0.3 54:0.333333 55:0.5 56:0.428571 57:1 58:-0.222222 59:0.111111 60:-0.3 61:1 62:0.111111 63:0.0833333 64:0.25 
1 1:-1 2:-1 3:1 5:1 7:-1 8:1 9:-1 10:-1 11:-0.8 13:1 14:-0.333333 15:-0.142857 16:-0.333333 17:-0.3 18:0.166667 19:0.3 21:0.3 22:-1 23:-0.3 24:0.25 29:-0.384615 30:-0.3 32:0.166667 33:0.444444 34:0.166667 40:-1 41:1 42:1 43:0.384615 45:-0.3 46:0.538462 47:-1 48:-0.3 49:0.555556 50:0.4 51:0.384615 52:-1 53:-0.3 54:0.333333 55:0.5 56:0.428571 57:1 58:-0.222222 59:0.111111 60:-0.3 61:1 62:0.111111 63:0.0833333 64:0.25 
1 1:-1 2:-1 3:1 5:1 7:-1 8:1 9:-1 10:-1 11:-0.8 13:-1 14:-0.333333 15:-0.142857 16:-0.333333 17:-0.3 18:0.166667 19:0.3 21:0.3 22:0.166667 23:-0.3 24:0.25 29:-0.384615 30:-0.3 32:0.166667 33:0.444444 34:0.166667 40:-1 41:1 42:1 43:0.384615 45:-0.3 46:0.538462 47:-1 48:-0.3 49:0.555556 50:0.4 51:0.384615 52:-1 53:-0.3 54:0.333333 55:0.5 56:0.428571 57:1 58:-0.222222 59:0.111111 60:-0.3 61:1 62:0.111111 63:0.0833333 64:0.25 
1 1:-1 2:-1 3:1 5:1 7:-1 8:1 9:-1 10:-1 11:-0.8 13:1 14:-0.333333 15:-0.142857 16:-0.333333 17:-0.3 18:0.166667 19:0.3 21:0.3 22:0.166667 23:-0.3 24:0.25 28:-0.538462 29:-0.384615 30:-0.3 32:0.166667 33:0.444444 34:0.166667 39:0.3 40:-1 41:1 42:1 43:0.384615 45:-0.3 46:0.538462 47:-1 48:-0.6 49:0.555556 50:0.4 51:0.384615 52:-1 53:-0.3 54:0.333333 55:0.5 56:0.428571 57:1 58:-0.222222 59:0.111111 60:-0.3 61:1 62:0.111111 63:0.0833333 64:0.25 
1 1:-1 2:-1 3:0.142857 5:1 7:-1 8:1 9:-1 10:-1 11:-0.8 13:1 14:-0.333333 15:-0.142857 16:-0.333333 17:-0.3 18:0.166667 19:0.3 21:0.3 22:0.166667 23:-0.3 24:0.25 28:-0.538462 29:-0.384615 30:-0.3 32:0.166667 33:0.444444 34:0.166667 39:0.3 40:-1 41:1 42:1 43:0.384615 45:-0.3 46:0.538462 47:-1 48:-0.3 49:0.555556 50:0.4 51:0.384615 52:-1 53:-0.3 54:0.333333 55:0.5 56:0.428571 57:1 58:-0.222222 59:0.111111 60:-0.3 61:1 62:0.111111 63:0.0833333 64:0.25 
1 1:-1 2:-1 3:1 5:1 7:1 8:-1 9:-1 10:-1 11:-0.8 13:1 14:-0.333333 15:-0.142857 16:-0.333333 17:-0.3 18:0.166667 19:0.3 21:0.3 22:0.166667 23:-0.3 24:0.25 28:-0.538462 29:-0.384615 30:-0.3 32:0.166667 33:0.444444 34:0.166667 40:-1 41:1 42:1 43:0.384615 45:-0.3 46:0.538462 47:-1 48:-0.3 49:0.555556 50:0.4 51:0.384615 52:-1 53:-0.3 54:0.333333 55:0.5 56:0.428571 57:1 58:-0.222222 59:0.111111 60:-0.3 61:1 62:0.111111 63:0.0833333 64:0.25 
1 1:-1 2:-1 3:1 5:1 7:-1 8:1 9:-1 10:-1 11:-0.8 13:1 14:-0.333333 15:-0.142857 16:-0.333333 17:-0.3 18:0.166667 19:0.3 21:0.3 22:0.166667 23:-0.3 24:0.25 28:-0.538462 29:-0.384615 30:-0.3 32:-0.333333 33:0.444444 34:0.166667 39:0.3 40:-1 41:1 42:1 43:0.384615 45:-0.3 46:0.538462 47:-1 48:-0.3 49:0.555556 50:0.4 51:0.384615 52:-1 53:-0.3 54:0.333333 55:0.5 56:0.428571 57:1 58:-0.222222 59:0.111111 60:-0.3 61:1 62:0.111111 63:0.0833333 64:0.25 
1 1:-1 2:-1 3:1 5:1 7:-1 8:1 9:-1 10:-1 11:-0.8 13:1 14:-0.333333 15:-0.142857 16:-0.333333 17:-0.3 18:0.166667 19:0.3 21:0.3 22:0.166667 23:-0.3 24:0.25 29:-0.384615 30:-0.3 32:0.166667 33:0.444444 34:0.166667 40:-1 41:1 42:1 43:0.384615 45:-1 47:-1 48:-0.3 49:0.555556 50:0.4 51:0.384615 52:-1 54:0.333333 55:0.5 56:0.428571 57:1 58:-0.222222 59:0.111111 60:-0.3 61:1 62:-0.222222 63:0.666667 64:0.25 
1 1:-1 2:-1 3:1 5:1 7:-1 8:1 9:-1 10:-1 11:-0.8 13:1 14:-0.333333 15:-0.142857 16:-0.333333 17:-0.3 18:0.166667 19:0.3 21:0.3 22:0.166667 23:-0.3 24:0.25 29:-0.384615 30:-0.3 32:0.166667 33:0.444444 34:-1 40:-1 41:1 42:1 43:0.384615 45:-0.3 47:-1 48:-0.3 49:0.555556 50:0.4 51:0.384615 52:-1 54:0.333333 55:0.5 56:0.428571 57:1 58:-0.222222 59:0.111111 60:-0.3 61:1 62:-0.222222 63:0.666667 64:0.25 
1 1:-1 2:-1 3:1 5:1 7:-1 8:1 9:-1 10:-1 11:-0.8 13:1 14:-0.333333 15:-0.142857 16:-0.333333 17:-0.3 18:0.166667 19:0.3 21:0.3 22:0.166667 23:-0.3 24:0.25 28:-0.538462 29:-0.384615 30:-0.3 32:0.166667 33:0.444444 34:0.166667 39:0.3 40:-1 41:1 42:1 43:0.384615 45:-0.3 47:-1 48:-0.6 49:0.555556 50:0.4 51:0.384615 52:-1 54:0.333333 55:0.5 56:0.428571 57:1 58:-0.222222 59:0.111111 60:-0.3 61:1 62:-0.222222 63:0.666667 64:0.25 
1 1:-1 2:-1 3:1 5:1 7:-1 8:1 9:-1 10:-1 11:-0.8 13:1 14:-0.333333 15:-0.142857 16:-0.333333 17:-0.3 18:0.166667 19:0.3 21:0.3 22:0.166667 23:-0.3 24:0.25 28:-0.538462 29:-0.384615 30:-0.3 32:0.166667 33:0.444444 34:0.166667 39:0.3 40:-1 41:1 42:1 43:0.384615 45:-0.3 46:-0.230769 47:-1 48:-0.3 49:0.555556 50:0.4 51:0.384615 52:-1 54:0.333333 55:0.5 56:0.428571 57:1 58:-0.222222 59:0.111111 60:-0.3 61:1 62:-0.222222 63:0.666667 64:0.25 
1 1:-1 2:-1 3:0.142857 5:1 7:-1 8:1 9:-1 10:-1 11:-0.8 13:1 14:-0.333333 15:-0.142857 16:-0.333333 17:-0.3 18:0.166667 19:0.3 21:0.3 22:0.166667 23:-0.3 24:0.25 28:-0.538462 29:-0.384615 30:-0.3 32:0.166667 33:0.444444 34:0.166667 39:0.3 40:-1 41:1 42:1 43:0.384615 45:-0.3 47:-1 48:-0.3 49:0.555556 50:0.4 51:0.384615 52:-1 54:0.333333 55:0.5 56:0.428571 57:1 58:-0.222222 59:0.111111 60:-0.3 61:1 62:-0.222222 63:0.666667 64:0.25 
1 1:-1 2:-1 3:1 5:1 7:1 8:-1 9:-1 10:-1 11:-0.8 13:1 14:-0.333333 15:-0.142857 16:-0.333333 17:-0.3 18:0.166667 19:0.3 21:0.3 22:0.166667 23:-0.3 24:0.25 28:-0.538462 29:-0.384615 30:-0.3 32:0.166667 33:0.444444 34:0.166667 40:-1 41:1 42:1 43:0.384615 45:-0.3 47:-1 48:-0.3 49:0.555556 50:0.4 51:0.384615 52:-1 54:0.333333 55:0.5 56:0.428571 57:1 58:-0.222222 59:0.111111 60:-0.3 61:1 62:-0.222222 63:0.666667 64:0.25 
1 1:-1 2:-1 3:1 5:1 7:-1 8:1 9:-1 10:-1 11:-0.8 13:1 14:-0.333333 15:-0.142857 16:-0.333333 17:-0.3 18:0.166667 19:0.3 21:0.3 22:0.166667 23:-0.3 24:0.25 28:-0.538462 29:-0.384615 30:-0.3 32:-0.333333 33:0.444444 34:0.166667 39:0.3 40:-1 41:1 42:1 43:0.384615 45:-0.3 47:-1 48:-0.3 49:0.555556 50:0.4 51:0.384615 52:-1 54:0.333333 55:0.5 56:0.428571 57:1 58:-0.222222 59:0.111111 60:-0.3 61:1 62:-0.222222 63:0.666667 64:0.25 
1 1:-1 2:0.4 3:1 5:1 7:-1 8:1 9:-1 10:-1 11:-0.8 13:1 14:-0.333333 15:-0.142857 16:-0.333333 17:-0.3 18:0.166667 19:0.3 21:0.3 22:-1 23:-0.3 24:0.25 29:-0.538462 30:-0.3 32:0.166667 33:0.444444 34:0.166667 40:-1 41:1 42:1 43:0.384615 44:0.384615 45:-0.3 47:-1 48:-0.3 49:0.555556 50:0.4 52:-1 53:-0.3 54:0.333333 55:0.5 56:0.428571 57:1 58:-0.222222 59:0.111111 60:-0.3 61:1 62:0.111111 63:0.0833333 64:0.25 
1 1:-1 2:0.4 3:1 5:1 7:-1 8:1 9:-1 10:-1 11:-0.8 13:1 14:-0.333333 15:-0.142857 16:-0.333333 17:-0.3 18:0.166667 19:-0.4 21:0.3 22:-1 23:-0.3 24:0.25 30:-0.3 32:0.166667 33:0.444444 34:0.166667 40:-1 41:1 42:1 43:0.384615 44:0.538462 45:-0.3 47:-1 48:-0.3 49:0.555556 50:0.4 51:0.384615 52:-1 53:-0.3 54:0.333333 55:0.5 56:0.428571 57:1 58:-0.222222 59:0.111111 60:-0.3 61:1 62:0.111111 63:0.0833333 64:0.25 
1 1:-1 2:-1 3:1 5:1 7:-1 8:1 9:-1 10:-1 11:-0.8 13:1 14:-0.333333 15:-0.142857 16:-0.333333 17:-0.3 18:0.166667 19:0.3 21:0.3 22:-1 23:-0.3 24:0.25 29:-0.384615 30:-0.3 32:0.166667 33:0.444444 34:0.166667 39:0.3 40:-1 41:1 42:1 43:0.384615 44:0.384615 45:-0.3 46:0.538462 47:-1 48:-0.6 49:0.555556 50:0.4 52:-1 53:-0.3 54:0.333333 55:0.5 56:-1 57:1 58:-0.222222 59:0.111111 60:-0.3 61:1 62:0.111111 63:0.0833333 64:0.25 
1 1:-1 2:-1 3:1 5:1 7:-1 8:1 9:-1 10:-1 11:-0.8 12:-0.230769 13:1 14:-0.333333 15:-0.142857 16:-0.333333 17:-0.3 18:0.166667 19:0.3 21:0.3 22:0.166667 23:-0.3 24:0.25 29:-0.384615 30:-0.3 32:0.166667 33:0.444444 34:0.166667 37:-0.538462 39:0.3 40:-1 41:1 42:1 43:0.384615 45:-0.3 46:0.538462 47:-1 48:0.2 49:0.555556 50:0.4 51:0.384615 52:-1 53:-0.3 54:0.333333 55:0.5 56:-1 57:1 58:-0.222222 59:0.111111 60:-0.3 61:1 62:0.111111 63:0.0833333 64:0.25 
1 1:-1 2:-1 3:1 5:1 7:-1 8:1 9:-1 10:-1 11:-0.8 13:1 14:-0.333333 15:-0.142857 16:-0.333333 17:-0.3 18:0.166667 19:0.3 21:0.3 22:0.166667 23:-0.3 24:0.25 28:-0.538462 29:-0.384615 30:-0.3 32:0.166667 33:0.444444 34:0.166667 38:0.714286 40:-1 41:1 42:1 43:0.384615 45:-0.3 47:-1 48:-0.3 49:0.555556 50:0.4 51:0.384615 52:-1 53:-0.3 54:-0.222222 55:0.5 56:0.428571 57:1 58:-0.222222 59:0.111111 60:-0.3 61:1 62:0.111111 63:0.666667 64:0.25 
1 1:-1 2:-1 3:1 5:1 7:-1 8:1 9:-1 10:-1 11:-0.8 13:1 14:-0.333333 15:-0.142857 16:-0.333333 17:-0.3 18:0.166667 19:0.3 21:0.3 22:0.166667 23:-0.3 24:0.25 29:0.384615 30:-0.3 32:0.166667 33:0.444444 34:0.166667 40:-1 41:1 42:1 43:-0.538462 45:-0.3 47:-1 48:-0.3 49:0.555556 50:0.4 51:0.384615 52:-1 53:-0.3 54:-0.222222 55:0.5 56:0.428571 57:1 58:-0.222222 59:0.111111 60:-0.3 61:1 62:0.111111 63:0.666667 64:0.25 
1 1:-1 2:-1 3:1 5:1 7:-1 8:1 9:-1 10:-1 11:-0.8 13:1 14:-0.333333 15:-0.142857 16:-0.333333 17:-0.3 18:0.166667 19:0.3 21:0.3 22:-1 23:-0.3 24:0.25 29:-0.384615 30:-0.3 32:0.166667 33:0.444444 34:0.166667 38:0.714286 40:-1 41:1 42:1 43:0.384615 44:0.230769 45:-0.3 47:-1 48:-0.3 49:0.555556 50:0.4 51:0.384615 52:-1 53:-0.3 54:-0.222222 55:0.5 56:0.428571 57:1 58:-0.222222 59:0.111111 60:-0.3 61:1 62:-0.222222 63:0.666667 64:0.25 
1 1:-1 2:0.4 3:1 5:1 7:-1 8:1 9:-1 10:-1 11:-0.8 12:-0.230769 13:1 14:-0.333333 15:-0.142857 16:-0.333333 17:-0.3 18:0.166667 19:0.3 21:0.3 22:-1 23:-0.3 24:0.25 29:-0.538462 30:-0.3 32:0.166667 33:0.444444 34:0.166667 39:0.3 40:-1 41:1 42:1 43:0.384615 44:0.384615 45:-0.3 47:-1 48:0.2 49:0.555556 50:0.4 52:-1 53:-0.3 54:0.333333 55:0.5 56:-1 57:1 58:-0.222222 59:0.111111 60:-0.3 61:1 62:0.111111 63:0.0833333 64:0.25 
1 1:-1 2:0.4 3:1 5:1 7:-1 8:1 9:-1 10:-1 11:-0.8 13:1 14:-0.333333 15:-0.142857 16:-0.333333 17:-0.3 18:0.166667 19:-0.4 21:0.3 22:-1 23:-0.3 24:0.25 30:-0.3 32:0.166667 33:0.444444 34:0.166667 39:0.3 40:-1 41:1 42:1 43:0.384615 44:0.538462 45:-0.3 47:-1 48:-0.6 49:0.555556 50:0.4 51:0.384615 52:-1 53:-0.3 54:0.333333 55:0.5 56:-1 57:1 58:-0.222222 59:0.111111 60:-0.3 61:1 62:0.111111 63:0.0833333 64:0.25 
1 1:-1 2:-1 3:1 5:1 7:-1 8:1 9:-1 10:-1 11:-0.8 12:-0.230769 13:1 14:-0.333333 15:-0.142857 16:-0.333333 17:-0.3 18:0.166667 19:0.3 21:0.3 22:-1 23:-0.3 24:0.25 27:-1 29:-0.384615 30:-0.3 32:0.166667 33:0.444444 34:0.166667 39:0.3 40:-1 41:1 42:1 43:0.384615 44:1 45:-0.3 46:0.538462 47:-1 48:0.2 49:0.555556 50:0.4 51:0.384615 52:-1 53:-0.3 54:0.333333 55:0.5 56:-1 57:1 58:-0.222222 59:0.111111 60:-0.3 61:1 62:0.111111 63:0.0833333 64:0.25 
1 1:-1 2:0.4 3:1 5:1 7:-1 8:1 9:-1 10:-1 11:-0.8 12:-0.230769 13:1 14:-0.333333 15:-0.142857 16:-0.333333 17:-1 18:0.166667 19:0.3 21:0.3 22:0.166667 23:-0.3 24:0.25 28:-0.538462 29:-0.384615 30:-0.3 32:0.166667 33:0.444444 34:0.166667 39:0.3 40:-1 41:1 42:1 43:0.384615 45:-0.3 46:0.538462 47:-1 48:0.2 49:0.555556 50:0.4 51:0.384615 52:-1 53:-0.3 54:0.333333 55:0.5 56:-1 57:1 58:-0.222222 59:0.111111 60:-0.3 61:1 62:0.111111 63:0.0833333 64:0.25 
1 1:-1 2:-1 3:1 5:1 7:-1 8:1 9:-1 10:-1 11:-0.8 12:-0.230769 13:1 14:-0.333333 15:-0.142857 16:-0.333333 17:-0.3 18:0.166667 19:0.3 21:0.3 22:-1 23:-0.3 24:0.25 29:-0.384615 30:-0.3 32:0.166667 33:0.444444 34:0.166667 35:-1 39:0.3 40:-1 41:1 42:1 43:0.384615 44:1 45:-0.3 46:0.538462 47:-1 48:0.2 49:0.555556 50:0.4 51:0.384615 52:-1 53:-0.3 54:0.333333 55:0.5 56:-1 57:1 58:-0.222222 59:0.111111 60:-0.3 61:1 62:0.111111 63:0.0833333 64:0.25 
1 1:-1 2:-1 3:1 5:1 7:-1 8:1 9:-1 10:-1 11:-0.8 12:-0.230769 13:1 14:-0.333333 15:-0.142857 16:-0.333333 17:-0.3 18:0.166667 19:0.3 21:0.3 22:-1 23:-0.3 24:0.25 29:-0.384615 30:-0.3 32:0.166667 33:0.444444 34:0.166667 36:-1 39:0.3 40:-1 41:1 42:1 43:0.384615 44:1 45:-0.3 46:0.538462 47:-1 48:0.2 49:0.555556 50:0.4 51:0.384615 52:-1 53:-0.3 54:0.333333 55:0.5 56:-1 57:1 58:-0.222222 59:0.111111 60:-0.3 61:1 62:0.111111 63:0.0833333 64:0.25 
1 1:-1 2:-1 3:1 5:1 7:-1 8:1 9:-1 10:-1 11:-0.8 12:-0.230769 13:1 14:-0.333333 15:-0.142857 16:-0.333333 17:-0.3 18:0.166667 19:0.3 21:0.3 22:-1 23:-0.3 24:0.25 26:-1 29:-0.384615 30:-0.3 32:0.166667 33:0.444444 34:0.166667 39:0.3 40:-1 41:1 42:1 43:0.384615 44:1 45:-0.3 46:0.538462 47:-1 48:0.2 49:0.555556 50:0.4 51:0.384615 52:-1 53:-0.3 54:0.333333 55:0.5 56:-1 57:1 58:-0.222222 59:0.111111 60:-0.3 61:1 62:0.111111 63:0.0833333 64:0.25 
1 1:-1 2:-1 3:1 5:1 7:-1 8:1 9:-1 10:-1 11:-0.8 12:-0.230769 13:1 14:-0.333333 15:-0.142857 16:-0.333333 17:-0.3 18:0.166667 19:0.3 20:-1 21:0.3 22:-1 23:-0.3 24:0.25 29:-0.384615 30:-0.3 32:0.166667 33:0.444444 34:0.166667 39:0.3 40:-1 41:1 42:1 43:0.384615 44:1 45:-0.3 46:0.538462 47:-1 48:0.2 49:0.555556 50:0.4 51:0.384615 52:-1 53:-0.3 54:0.333333 55:0.5 56:-1 57:1 58:-0.222222 59:0.111111 60:-0.3 61:1 62:0.111111 63:0.0833333 64:0.25 
1 1:-1 2:-1 3:1 5:1 7:-1 8:1 9:-1 10:-1 11:-0.8 12:-0.230769 13:1 14:-0.333333 15:-0.142857 16:-0.333333 17:-0.3 18:0.166667 19:0.3 21:0.3 22:-1 23:-0.3 24:0.25 25:-1 29:-0.384615 30:-0.3 32:0.166667 33:0.444444 34:0.166667 39:0.3 40:-1 41:1 42:1 43:0.384615 44:1 45:-0.3 46:0.538462 47:-1 48:0.2 49:0.555556 50:0.4 51:0.384615 52:-1 53:-0.3 54:0.333333 55:0.5 56:-1 57:1 58:-0.222222 59:0.111111 60:-0.3 61:1 62:0.111111 63:0.0833333 64:0.25 
1 1:-1 2:-1 3:1 5:1 7:-1 8:1 9:-1 10:-1 11:-0.8 12:-0.230769 13:1 14:-0.333333 15:-0.142857 16:-0.333333 17:-0.3 18:0.166667 19:-1 21:0.3 22:-1 23:-0.3 24:0.25 29:-0.384615 30:-0.3 32:0.166667 33:0.444444 34:0.166667 39:0.3 40:-1 41:1 42:1 43:0.384615 44:1 45:-0.3 46:0.538462 47:-1 48:0.2 49:0.555556 50:0.4 51:0.384615 52:-1 53:-0.3 54:0.333333 55:0.5 56:-1 57:1 58:-0.222222 59:0.111111 60:-0.3 61:1 62:0.111111 63:0.0833333 64:0.25 
1 1:-1 2:-1 3:1 5:1 7:-1 8:1 9:-1 10:-1 11:-0.8 12:-0.230769 13:1 14:-0.333333 15:-0.142857 16:-0.333333 17:-0.3 18:0.166667 19:0.3 21:0.3 22:-1 23:-0.3 24:0.25 29:-0.384615 30:-0.3 32:0.166667 33:0.444444 34:0.166667 39:0.3 40:-1 41:1 42:1 43:0.384615 44:0.384615 47:-1 48:0.2 49:0.555556 50:0.4 52:-1 53:-0.3 54:0.333333 55:0.5 56:-1 57:1 58:-0.222222 59:-0.222222 60:-0.3 61:1 62:0.111111 63:0.666667 64:0.25 
1 1:-1 2:-1 3:1 5:1 7:-1 8:1 9:-1 10:-1 11:-0.8 12:-0.230769 13:1 14:-0.333333 15:-0.142857 16:-0.333333 17:-0.3 18:0.166667 19:0.3 21:0.3 22:-1 23:-0.3 24:0.25 29:-0.384615 30:-0.3 32:0.166667 33:0.444444 34:0.166667 39:0.3 40:-1 41:1 42:1 43:0.384615 44:0.384615 45:-0.3 47:-1 48:0.2 49:0.555556 50:0.4 52:-1 54:0.333333 55:0.5 56:-1 57:1 58:-0.222222 59:0.111111 60:-0.3 61:1 62:-0.222222 63:0.666667 64:0.25 
0.2459844888124184 1:-1 2:-1 3:1 5:1 7:-1 8:1 9:-1 10:-1 11:-0.8 12:-0.230769 13:1 14:-0.333333 15:-0.142857 16:-0.333333 17:-0.3 18:0.166667 19:0.3 21:0.3 22:-1 23:-0.3 24:0.25 29:-0.384615 30:-0.3 31:0.428571 32:0.166667 33:0.444444 34:0.166667 39:0.3 40:-1 41:1 42:1 43:0.384615 44:0.384615 45:-0.3 47:-1 48:0.2 49:0.555556 50:0.4 52:-1 53:-0.3 54:0.333333 55:0.5 56:-1 57:1 58:-0.222222 59:-0.222222 60:-0.3 61:1 62:0.111111 63:0.666667 64:0.25 
1 1:-1 2:-1 3:1 5:1 7:-1 8:1 9:-1 10:-1 11:-0.8 12:-0.230769 13:1 14:-0.333333 15:-0.142857 16:-0.333333 17:-0.3 18:0.166667 19:0.3 21:0.3 22:-1 23:-0.3 24:0.25 29:-0.384615 30:-0.3 32:0.166667 33:0.444444 34:0.166667 39:0.3 40:-1 41:1 42:1 43:0.384615 44:0.384615 45:-0.3 47:-1 48:0.2 49:0.555556 50:0.4 52:-1 53:0.4 54:0.333333 55:0.5 56:-1 57:1 58:-0.222222 59:0.111111 60:-0.3 61:1 62:0.111111 63:0.0833333 64:0.25 
1 1:-1 2:-1 3:1 5:1 7:-1 8:1 9:-1 10:-1 11:-0.8 12:-0.230769 13:1 14:-0.333333 15:-0.142857 16:-0.333333 17:-0.3 18:0.166667 19:0.3 21:0.3 22:0.166667 23:-0.3 24:0.25 29:-0.384615 30:-0.3 32:0.166667 33:0.444444 34:0.166667 37:-0.538462 39:0.3 40:-1 41:1 42:1 43:0.384615 45:-0.3 47:-1 48:0.2 49:0.555556 50:0.4 51:0.384615 52:-1 53:0.4 54:0.333333 55:0.5 56:-1 57:1 58:-0.222222 59:0.111111 60:-0.3 61:1 62:0.111111 63:0.0833333 64:0.25 
1 1:-1 2:-1 3:1 5:1 7:-1 8:1 9:-1 10:-1 11:-0.8 12:-0.230769 13:1 14:-0.333333 15:-0.142857 16:-0.333333 17:-0.3 18:0.166667 19:0.3 21:0.3 22:-1 23:-0.3 24:0.25 29:-0.384615 30:-0.3 32:0.166667 33:0.444444 34:0.166667 39:0.3 40:-1 41:1 42:1 43:0.384615 44:0.384615 45:-0.3 47:-1 48:0.2 49:0.555556 50:0.4 52:-0.538462 53:-0.3 54:0.333333 55:0.5 56:-1 57:1 58:-0.222222 59:-0.222222 60:-0.3 61:1 62:0.111111 63:0.666667 64:0.25 
1 1:-1 2:-1 3:1 5:1 7:-1 8:1 9:-1 10:-1 11:-0.8 12:-0.230769 13:1 14:-0.333333 15:-0.142857 16:-0.333333 17:-0.3 18:0.166667 19:0.3 21:0.3 22:0.166667 23:-0.3 24:0.25 29:-0.384615 30:-0.3 32:0.166667 33:0.444444 34:0.166667 37:-0.538462 39:0.3 40:-1 41:1 42:1 43:0.384615 45:-0.3 47:-1 48:0.2 49:0.555556 50:0.4 51:0.384615 52:-0.538462 53:-0.3 54:0.333333 55:0.5 56:-1 57:1 58:-0.222222 59:-0.222222 60:-0.3 61:1 62:0.111111 63:0.666667 64:0.25 
1 1:-1 2:-1 3:1 5:1 7:-1 8:1 9:-1 10:-1 11:-0.8 12:-0.230769 13:1 14:-0.333333 15:-0.142857 16:-0.333333 17:-0.3 18:0.166667 19:0.3 21:0.3 22:-1 23:-0.3 24:0.25 29:-0.384615 30:-0.3 32:0.166667 33:0.444444 34:0.166667 39:0.8 40:-1 41:1 42:1 43:0.384615 44:-1 45:-0.3 47:-1 48:0.2 49:0.555556 50:0.4 51:0.384615 52:-1 53:-0.3 54:0.333333 55:0.0833333 56:-1 57:1 58:-0.222222 59:0.111111 60:-0.3 61:1 62:0.111111 63:0.666667 64:0.25 
1 1:-1 2:-1 3:1 5:1 7:-1 8:1 9:-1 10:-1 11:-0.8 12:-0.230769 13:1 14:-0.333333 15:-0.142857 16:-0.333333 17:-0.3 18:0.166667 19:0.3 21:0.3 22:-1 23:-0.3 24:0.25 29:-0.384615 30:-0.3 32:0.166667 33:0.444444 34:0.166667 39:0.8 40:-1 41:1 42:1 43:0.384615 44:0.384615 45:-0.3 47:-1 48:0.2 49:0.555556 50:0.4 52:-1 53:-0.3 54:0.333333 55:0.0833333 56:-1 57:1 58:-0.222222 59:0.111111 60:-0.3 61:1 62:0.111111 63:0.666667 64:0.25 
1 1:-1 2:-1 3:1 5:1 7:-1 8:1 9:-1 10:-1 11:-0.8 12:-0.230769 13:1 14:-0.333333 15:-0.142857 16:-0.333333 17:-0.3 18:0.166667 19:0.3 21:0.3 22:-1 23:-0.3 24:0.25 29:-0.384615 30:-0.3 32:0.166667 33:0.444444 34:0.166667 39:0.8 40:-1 41:1 42:1 43:0.384615 44:1 45:-0.3 47:-1 48:0.2 49:0.555556 50:0.4 51:0.384615 52:-1 53:-0.3 54:0.333333 55:0.0833333 56:-1 57:1 58:-0.222222 59:0.111111 60:-0.3 61:1 62:0.111111 63:0.666667 64:-1 
1 1:-1 2:-1 3:1 5:1 7:-1 8:1 9:-1 10:-1 11:-0.8 12:-0.230769 13:1 14:-0.333333 15:-0.142857 16:-0.333333 17:-0.3 18:0.166667 19:0.3 21:0.3 22:-1 23:-0.3 24:0.25 29:-0.384615 30:-0.3 32:0.166667 33:0.444444 34:0.166667 39:0.3 40:-1 41:1 42:1 43:0.384615 44:0.384615 45:-0.3 47:-1 48:0.2 49:0.555556 50:0.4 52:-1 53:-0.3 54:0.333333 55:0.5 56:-0.428571 57:1 58:-0.222222 59:0.111111 60:-0.3 61:1 62:0.111111 63:0.666667 64:0.0833333 
1 1:-1 2:-1 3:1 5:1 7:-1 8:1 9:-1 10:-1 11:-0.8 12:-0.230769 13:1 14:-0.333333 15:-0.142857 16:-0.333333 17:-0.3 18:0.166667 19:0.3 21:0.3 22:0.166667 23:-0.3 24:0.25 29:-0.384615 30:-0.3 32:0.166667 33:0.444444 34:0.166667 37:-0.538462 39:0.3 40:-1 41:1 42:1 43:0.384615 45:-0.3 47:-1 48:0.2 49:0.555556 50:0.4 51:0.384615 52:-1 53:-0.3 54:0.333333 55:0.5 56:-0.428571 57:1 58:-0.222222 59:0.111111 60:-0.3 61:1 62:0.111111 63:0.666667 64:0.0833333 
1 1:-1 2:-1 3:1 5:1 7:-1 8:1 9:-1 10:-1 11:-0.8 12:-0.230769 13:1 14:-0.333333 15:-0.142857 16:-0.333333 17:-0.3 18:0.166667 19:0.3 21:0.3 22:-1 23:-0.3 24:0.25 29:-0.384615 30:-0.3 32:0.166667 33:0.444444 34:0.166667 39:0.3 40:-1 41:1 42:1 43:0.384615 45:-0.3 47:-1 48:0.2 49:0.555556 50:0.4 51:0.384615 52:-1 53:-0.3 54:0.333333 55:0.5 56:-1 57:1 58:-0.222222 59:0.111111 60:0.8 61:-1 62:0.111111 63:0.666667 64:0.25 
1 1:-1 2:-1 3:1 5:1 7:-1 8:1 9:-1 10:-1 11:-0.8 12:-0.230769 13:1 14:-0.333333 15:-0.142857 16:-0.333333 17:-0.3 18:0.166667 19:0.3 21:0.3 22:0.166667 23:-0.3 24:0.25 29:-0.384615 30:-0.3 32:0.166667 33:0.444444 34:0.166667 37:-0.538462 39:0.3 40:-1 41:1 42:1 43:0.384615 45:-0.3 47:-1 48:0.2 49:0.555556 50:0.4 51:0.384615 52:-1 53:-0.3 54:0.333333 55:0.5 56:-1 57:1 58:-0.222222 59:0.111111 60:-0.3 61:1 62:0.111111 63:0.666667 64:0.25 
1 1:-1 2:-1 3:1 5:1 7:-1 8:1 9:-1 10:-1 11:-0.8 12:-0.230769 13:1 14:-0.333333 15:-0.142857 16:-0.333333 17:-0.3 18:0.166667 19:0.3 21:0.3 22:-1 23:-0.3 24:0.25 29:-0.384615 30:-0.3 32:0.166667 33:0.444444 34:0.166667 39:0.3 40:-1 41:1 42:1 43:0.384615 44:0.384615 45:-0.3 47:-1 48:0.2 49:0.555556 50:0.4 52:-1 53:-0.3 54:0.333333 55:0.5 56:-1 57:1 58:-0.222222 59:0.111111 60:0.8 61:-1 62:0.111111 63:0.666667 64:0.25 
1 1:-1 2:-1 3:1 5:1 7:-1 8:1 9:-1 10:-1 11:-0.8 12:-0.230769 13:1 14:-0.333333 15:-0.142857 16:-0.333333 17:-0.3 18:0.166667 19:0.3 21:0.3 22:0.166667 23:-0.3 24:0.25 29:-0.384615 30:-0.3 32:0.166667 33:0.444444 34:0.166667 37:-0.538462 39:0.3 40:-1 41:1 42:1 43:0.384615 45:-0.3 47:-1 48:0.2 49:0.555556 50:0.4 51:0.384615 52:-1 53:-0.3 54:0.333333 55:0.5 56:-1 57:1 58:-0.222222 59:0.111111 60:0.8 61:-1 62:0.111111 63:0.666667 64:0.25 
1 1:-1 2:-1 3:1 5:1 7:-1 8:1 9:-1 10:-1 11:-0.8 12:-0.230769 13:1 14:-0.333333 15:-0.142857 16:-0.333333 17:-0.3 18:0.166667 19:0.3 21:0.3 22:-1 23:-0.3 24:0.25 29:-0.384615 30:-0.3 32:0.166667 33:0.444444 34:0.166667 39:0.3 40:-1 41:1 42:1 43:0.384615 45:-0.3 46:-1 47:-1 48:0.2 49:0.555556 50:0.4 51:0.384615 52:-1 53:-0.3 54:0.333333 55:0.5 56:-1 57:1 58:-0.222222 59:0.111111 60:-0.3 61:1 62:0.111111 63:0.666667 64:0.25 
1 1:-1 2:-1 3:1 5:1 7:-1 8:1 9:-1 10:-1 11:-0.8 12:-0.230769 13:1 14:-0.333333 15:-0.142857 16:-0.333333 17:-0.3 18:0.166667 19:0.3 21:0.3 22:-1 23:-0.3 24:0.25 29:-0.384615 30:-0.3 32:0.166667 33:0.444444 34:0.166667 39:0.3 40:-1 41:1 42:1 43:0.384615 45:-0.3 46:0.384615 47:-1 48:0.2 49:0.555556 50:0.4 51:0.384615 52:-1 53:-0.3 54:0.333333 55:0.0833333 56:-1 57:1 58:-0.222222 59:0.111111 60:-0.3 61:1 62:0.111111 63:0.666667 64:0.25 
1 1:-1 2:-1 3:1 5:1 7:-1 8:1 9:-1 10:-1 11:-0.8 12:-0.230769 13:1 14:-0.333333 15:-0.142857 16:-0.333333 17:-0.3 18:0.166667 19:0.3 21:0.3 22:-1 23:-0.3 24:0.25 29:-0.384615 30:-0.3 32:0.166667 33:0.444444 34:0.166667 39:0.3 40:-1 41:1 42:1 43:0.384615 45:-0.3 46:0.538462 47:-1 48:0.2 49:0.555556 50:0.4 51:0.384615 52:-1 53:-0.3 54:0.333333 55:0.5 56:-1 57:1 58:-0.222222 59:0.111111 60:-0.3 61:1 62:0.111111 63:0.0833333 64:0.25 
1 1:-1 2:-1 3:1 5:1 7:-1 8:1 9:-1 10:-1 11:-0.8 12:-0.230769 13:1 14:-0.333333 15:-0.142857 16:-0.333333 17:-0.3 18:0.166667 19:0.3 21:0.3 22:-1 23:-0.3 24:0.25 29:-0.384615 30:-0.3 32:0.166667 33:0.444444 34:0.166667 39:0.3 40:0.428571 41:1 42:1 43:0.384615 44:0.384615 45:-0.3 47:-1 48:-0.3 49:0.555556 50:0.4 52:-1 53:-0.3 54:0.333333 55:0.5 56:-1 57:1 58:-0.222222 59:0.111111 60:-0.3 61:1 62:0.111111 63:0.666667 64:0.25 
1 1:-1 2:-1 3:1 5:1 7:-1 8:1 9:-1 10:-1 11:-0.8 12:-0.230769 13:1 14:-0.333333 15:-0.142857 16:-0.333333 17:-0.3 18:0.166667 19:0.3 21:0.3 22:-1 23:-0.3 24:0.25 29:-0.384615 30:-0.3 32:0.166667 33:0.444444 34:0.166667 39:0.3 40:-1 41:1 42:1 43:0.384615 44:0.384615 45:-0.3 47:-1 48:0.2 49:0.555556 50:1 52:-1 53:-0.3 54:0.333333 55:0.5 56:-1 57:1 58:-0.222222 59:-0.222222 60:-0.3 61:1 62:0.111111 63:0.666667 64:0.25 
1 1:-1 2:-1 3:1 5:1 7:-1 8:1 9:-1 10:-1 11:-0.8 12:-0.230769 13:1 14:-0.333333 15:-0.142857 16:-0.333333 17:-0.3 18:0.166667 19:0.3 21:0.3 22:-1 23:-0.3 24:0.25 29:-0.384615 30:-0.3 32:0.166667 33:0.444444 34:1 39:0.3 40:-1 41:1 42:0.444444 43:0.384615 44:0.384615 45:-0.3 47:-1 48:0.2 49:0.555556 50:0.4 52:-1 53:-0.3 54:0.333333 55:0.5 56:-1 57:1 58:-0.222222 59:0.111111 60:-0.3 61:1 62:0.111111 63:0.666667 64:0.25 
1 1:-1 2:-1 3:1 5:1 7:-1 8:1 9:-1 10:-1 11:-0.8 12:-0.230769 13:1 14:-0.333333 15:-0.142857 16:-0.333333 17:-0.3 18:0.166667 19:0.3 21:0.3 22:-1 23:-0.3 24:0.25 29:-0.384615 30:-0.3 32:0.166667 33:1 34:0.166667 39:0.3 40:-1 41:0.444444 42:1 43:0.384615 44:0.384615 45:-0.3 47:-1 48:0.2 49:0.555556 50:0.4 52:-1 53:-0.3 54:0.333333 55:0.5 56:-1 57:1 58:-0.222222 59:0.111111 60:-0.3 61:1 62:0.111111 63:0.666667 64:0.25 
1 1:-1 2:-1 3:1 5:1 7:-1 8:1 9:-1 10:-1 11:-0.8 12:-0.230769 13:1 14:-0.333333 15:-0.142857 16:-0.333333 17:-0.3 18:0.166667 19:0.3 21:0.3 22:0.166667 23:-0.3 24:0.25 29:-0.384615 30:-0.3 32:0.166667 33:1 34:0.166667 37:-0.538462 39:0.3 40:-1 41:0.444444 42:1 43:0.384615 45:-0.3 47:-1 48:0.2 49:0.555556 50:0.4 51:0.384615 52:-1 53:-0.3 54:0.333333 55:0.5 56:-1 57:1 58:-0.222222 59:0.111111 60:-0.3 61:1 62:0.111111 63:0.666667 64:0.25 
1 1:-1 2:-1 3:1 5:1 7:-1 8:1 9:-1 10:-1 11:-0.8 12:-0.230769 13:1 14:-0.333333 15:-0.142857 16:-0.333333 17:-0.3 18:0.166667 19:0.3 21:0.3 22:-1 23:-0.3 24:0.25 29:-0.384615 30:-0.3 32:0.166667 33:0.444444 34:0.166667 38:0.428571 39:0.3 40:-1 41:1 42:1 43:0.384615 44:0.384615 45:-0.3 47:-1 48:0.2 49:0.555556 50:0.4 52:-1 53:-0.3 54:0.333333 55:0.5 56:-1 57:1 58:-0.222222 59:-0.222222 60:-0.3 61:1 62:0.111111 63:0.666667 64:0.25 
1 1:-1 2:-1 3:1 5:1 7:-1 8:1 9:-1 10:-1 11:-0.8 12:-0.230769 13:1 14:-0.333333 15:-0.142857 16:-0.333333 17:-0.3 18:0.166667 19:0.3 21:0.3 22:-1 23:-0.3 24:0.25 29:-0.384615 30:-0.3 32:0.166667 33:0.444444 34:0.166667 38:0.428571 39:0.3 40:-1 41:1 42:1 43:0.384615 44:0.230769 45:-0.3 47:-1 48:0.2 49:0.555556 50:0.4 51:0.384615 52:-1 53:-0.3 54:0.333333 55:0.5 56:-1 57:1 58:-0.222222 59:-0.222222 60:-0.3 61:1 62:-0.222222 63:0.666667 64:0.25 
1 1:-1 2:-1 3:1 5:1 7:-1 8:1 9:-1 10:-1 11:-0.8 12:-0.230769 13:1 14:-0.333333 15:-0.142857 16:-0.333333 17:-0.3 18:0.166667 19:0.3 21:0.3 22:-1 23:-0.3 24:0.25 29:-0.384615 30:-0.3 32:0.166667 33:0.444444 34:0.166667 39:0.3 40:-1 41:1 42:1 43:0.384615 44:0.384615 45:-0.3 47:-0.230769 48:0.2 49:0.555556 50:0.4 52:-1 53:-0.3 54:0.333333 55:0.0833333 56:-1 57:1 58:-0.222222 59:0.111111 60:-0.3 61:1 62:0.111111 63:0.666667 64:0.25 
1 1:-1 2:-1 3:1 5:1 7:-1 8:1 9:-1 10:-1 11:-0.8 12:-0.230769 13:1 14:-0.333333 15:-0.142857 16:-0.333333 17:-0.3 18:0.166667 19:0.3 21:0.3 22:-1 23:-0.3 24:0.25 29:-0.384615 30:-0.3 32:0.166667 33:0.444444 34:0.166667 39:0.3 40:-1 41:1 42:1 43:0.384615 44:1 45:-0.3 47:-0.230769 48:0.2 49:0.555556 50:0.4 51:0.384615 52:-1 53:-0.3 54:0.333333 55:0.0833333 56:-1 57:1 58:-0.222222 59:0.111111 60:-0.3 61:1 62:0.111111 63:0.666667 64:-1 
1 1:-1 2:-1 3:1 5:1 7:-1 8:1 9:-1 10:-1 11:-0.8 12:-0.230769 13:1 14:-0.333333 15:-0.142857 16:-0.333333 17:-0.3 18:0.166667 19:0.3 21:0.3 22:-1 23:-0.3 24:1 29:-0.384615 30:-0.3 32:0.166667 33:0.444444 34:0.166667 39:0.3 40:-1 41:1 42:1 43:0.384615 44:0.384615 45:-0.3 47:-1 48:0.2 49:0.555556 50:0.4 52:-1 53:-0.3 54:0.333333 55:0.5 56:-1 57:1 58:-0.222222 59:-0.222222 60:-0.3 61:1 62:0.111111 63:0.666667 64:0.25 
1 1:-1 2:-1 3:1 5:1 7:-1 8:1 9:-1 10:-1 11:-0.8 12:-0.230769 13:1 14:-0.333333 15:0.571429 16:-0.333333 17:-0.3 18:0.166667 19:0.3 21:0.3 22:-1 23:-0.3 24:-1 29:-0.384615 30:-0.3 32:0.166667 33:0.444444 34:0.166667 39:0.3 40:-1 41:1 42:1 43:0.384615 44:0.384615 45:-0.3 47:-1 48:0.2 49:0.555556 50:0.4 52:-1 53:-0.3 54:0.333333 55:0.5 56:-1 57:1 58:-0.222222 59:-0.222222 60:-0.3 61:1 62:0.111111 63:0.666667 64:0.25 
1 1:-1 2:-1 3:1 5:1 7:-1 8:1 9:-1 10:-1 11:-0.8 12:-0.230769 13:1 14:-0.333333 15:0.571429 16:-0.333333 17:-0.3 18:0.166667 19:0.3 21:0.3 22:-1 23:-0.3 24:-1 29:-0.384615 30:-0.3 32:0.166667 33:0.444444 34:0.166667 39:0.3 40:-1 41:1 42:1 43:0.384615 44:0.230769 45:-0.3 47:-1 48:0.2 49:0.555556 50:0.4 51:0.384615 52:-1 53:-0.3 54:0.333333 55:0.5 56:-1 57:1 58:-0.222222 59:-0.222222 60:-0.3 61:1 62:-0.222222 63:0.666667 64:0.25 
1 1:-1 2:-1 3:1 5:1 7:-1 8:1 9:-1 10:-1 11:-0.8 12:-0.230769 13:1 14:-0.333333 15:-0.142857 16:-0.333333 17:-0.3 18:0.166667 19:0.3 21:0.3 22:0.166667 23:-0.3 24:0.25 29:-0.384615 30:-0.3 32:0.166667 33:0.444444 34:0.166667 37:-0.538462 39:0.3 40:-1 41:1 42:1 43:0.384615 45:-0.3 47:-1 48:0.2 49:1 50:0.4 51:0.384615 52:-1 53:-0.3 54:0.333333 55:0.5 56:-1 57:0.555556 58:-0.222222 59:0.111111 60:-0.3 61:1 62:0.111111 63:0.666667 64:0.25 
1 1:-1 2:-1 3:1 5:1 7:-1 8:1 9:-1 10:-1 11:-0.8 13:1 14:-0.333333 15:-0.142857 16:-0.333333 17:-0.3 18:0.166667 19:0.3 21:0.3 22:-1 23:-0.3 24:0.25 27:-1 29:-0.384615 30:-0.3 32:0.166667 33:0.444444 34:0.166667 40:-1 41:1 42:1 43:0.384615 44:1 45:-0.3 47:-1 48:0.2 49:0.555556 50:0.4 51:0.384615 52:-1 53:-0.3 54:0.333333 55:0.5 56:-1 57:1 58:-0.222222 59:0.111111 60:-0.3 61:1 62:0.111111 63:0.666667 64:0.25 
1 1:-1 2:0.4 3:1 5:1 7:-1 8:1 9:-1 10:-1 11:-0.8 13:1 14:-0.333333 15:-0.142857 16:-0.333333 17:-0.3 18:0.166667 19:-0.4 21:0.3 22:0.166667 23:-0.3 24:0.25 29:-0.384615 30:-0.3 32:0.166667 33:0.444444 34:0.166667 39:0.3 40:-1 41:1 42:1 43:0.384615 45:-1 46:0.384615 47:-1 48:-0.3 49:0.555556 50:0.4 51:0.384615 52:-1 53:-0.3 54:0.333333 55:0.0833333 56:0.428571 57:1 58:-0.222222 59:-0.222222 60:-0.3 61:1 62:0.111111 63:0.0833333 64:0.25 
1 1:-1 2:0.4 3:1 5:1 7:-1 8:1 9:-1 10:-1 11:-0.8 13:1 14:-0.333333 15:-0.142857 16:-0.333333 17:-0.3 18:0.166667 19:-0.4 21:0.3 22:0.166667 23:-0.3 24:0.25 29:-0.384615 30:-0.3 32:0.166667 33:0.444444 34:0.166667 39:0.3 40:-1 41:1 42:1 43:0.384615 45:0.2 46:0.384615 47:-1 48:-0.3 49:0.555556 50:0.4 51:0.384615 52:-1 53:-0.3 54:-0.222222 55:0.0833333 56:0.428571 57:1 58:-0.222222 59:-0.222222 60:-0.3 61:1 62:0.111111 63:0.0833333 64:0.25 
1 1:-1 2:0.4 3:1 5:1 7:-1 8:1 9:-1 10:-1 11:-0.8 13:1 14:-0.333333 15:-0.142857 16:-0.333333 17:-0.3 18:0.166667 19:-0.4 21:0.3 22:0.166667 23:-0.3 24:0.25 29:-0.384615 30:-0.3 32:0.166667 33:0.444444 34:0.166667 39:0.3 40:-1 41:1 42:1 43:-0.538462 46:0.384615 47:-1 48:-0.3 49:0.555556 50:0.4 51:0.384615 52:-1 53:-0.3 54:0.333333 55:0.0833333 56:0.428571 57:1 58:-0.222222 59:-0.222222 60:-0.3 61:1 62:0.111111 63:0.0833333 64:0.25 
1 1:-1 2:0.4 3:1 5:1 7:-1 8:1 9:-1 10:-1 11:-0.8 13:1 14:-0.333333 15:-0.142857 16:-0.333333 17:-0.3 18:0.166667 19:-0.4 21:0.3 22:-1 23:-0.3 24:0.25 29:-0.384615 30:-0.3 32:0.166667 33:0.444444 34:0.166667 40:-1 41:1 42:1 43:0.384615 44:0.384615 45:-0.3 46:0.538462 47:-1 48:-0.3 49:0.555556 50:0.4 52:-1 54:0.333333 55:0.5 56:0.428571 57:1 58:-0.222222 59:0.111111 60:-0.3 61:1 62:-0.222222 63:0.0833333 64:0.25 
1 1:-1 2:-1 3:1 5:1 7:-1 8:1 9:-1 10:-1 11:-0.8 13:1 14:-0.333333 15:-0.142857 16:-0.333333 17:-0.3 18:0.166667 19:0.3 22:-1 23:-0.3 24:0.25 29:-0.384615 30:-0.3 32:0.166667 33:0.444444 34:0.166667 39:0.3 40:-1 41:1 42:1 43:0.384615 44:0.230769 46:0.384615 47:-1 48:-0.3 49:0.555556 50:0.4 51:0.384615 52:-1 53:-0.3 54:-0.222222 55:0.5 56:0.428571 57:1 58:-0.222222 59:-0.222222 60:-0.3 61:1 62:-0.222222 63:0.666667 64:0.25 
1 1:-1 2:-1 3:1 5:1 7:-1 8:1 9:-1 10:-1 11:-0.8 13:1 14:-0.333333 15:-0.142857 16:-0.333333 17:-0.3 18:0.166667 19:0.3 22:-1 23:-0.3 24:0.25 29:-0.384615 30:-0.3 32:0.166667 33:0.444444 34:0.166667 39:0.3 40:-1 41:1 42:1 43:0.384615 44:0.230769 45:-0.3 46:0.384615 47:-1 48:-0.3 49:0.555556 50:0.4 51:0.384615 52:-1 53:-0.3 54:-0.222222 55:0.5 56:0.428571 57:1 58:-0.222222 59:0.111111 60:-0.3 61:1 62:-0.222222 63:0.666667 64:0.25 
0.9658150254320395 1:-1 2:-1 3:1 5:1 7:-1 8:1 9:-1 10:-1 11:-0.8 13:1 14:-0.333333 15:-0.142857 16:-0.333333 17:-0.3 18:0.166667 19:0.3 22:-1 23:-0.3 24:0.25 29:-0.384615 30:-0.3 31:0.428571 32:0.166667 33:0.444444 34:0.166667 39:0.3 40:-1 41:1 42:1 43:0.384615 44:0.384615 45:-0.3 46:0.384615 47:-1 48:-0.3 49:0.555556 50:0.4 52:-1 53:-0.3 54:-0.222222 55:0.5 56:0.428571 57:1 58:-0.222222 59:-0.222222 60:-0.3 61:1 62:0.111111 63:0.666667 64:0.25 
1 1:-1 2:-1 3:1 5:1 7:-1 8:1 9:-1 10:-1 11:-0.8 13:1 14:-0.333333 15:-0.142857 16:-0.333333 17:-0.3 18:0.166667 19:0.3 22:-1 23:-0.3 24:0.25 29:-0.384615 30:-0.3 32:0.166667 33:0.444444 34:0.166667 35:0.384615 39:0.3 40:-1 41:1 42:1 44:0.384615 45:-0.3 46:0.384615 47:-1 48:-0.3 49:0.555556 50:0.4 52:-1 53:-0.3 54:-0.222222 55:0.5 56:0.428571 57:1 58:-0.222222 59:0.111111 60:-0.3 61:1 62:0.111111 63:0.666667 64:0.25 
1 1:-1 2:-1 3:1 5:1 7:-1 8:1 9:-1 10:-1 11:-0.8 13:1 14:-0.333333 15:-0.142857 16:-0.333333 17:-0.3 18:0.166667 19:0.3 22:-1 23:-0.3 24:0.25 25:-1 29:-0.384615 30:-0.3 32:0.166667 33:0.444444 34:0.166667 35:0.384615 39:0.3 40:-1 41:1 42:1 44:1 45:-0.3 46:0.384615 47:-1 48:-0.3 49:0.555556 50:0.4 51:0.384615 52:-1 53:-0.3 54:1 55:0.5 56:0.428571 57:1 58:-0.222222 59:0.111111 60:-0.3 61:-1 62:0.111111 63:0.666667 64:0.25 
1 1:-1 2:-1 3:1 5:1 7:-1 8:1 9:-1 10:-1 11:-0.8 13:1 14:-0.333333 15:-0.142857 16:-0.333333 17:-0.3 18:0.166667 19:0.3 22:-1 23:-0.3 24:0.25 25:-1 29:-0.384615 30:-0.3 32:0.166667 33:0.444444 34:0.166667 35:0.384615 39:0.3 40:-1 41:1 42:1 43:0.384615 44:1 45:-0.3 46:0.384615 47:-1 48:-0.3 49:0.555556 50:0.4 52:-1 53:-0.3 54:-0.222222 55:0.5 56:0.428571 57:1 58:-0.222222 59:0.111111 60:-0.3 61:1 62:0.111111 63:0.666667 64:0.25 
1 1:-1 2:-1 3:1 5:1 7:-1 8:1 9:-1 10:-1 11:-0.8 13:1 14:-0.333333 15:-0.142857 16:-0.333333 17:-0.3 18:0.166667 19:0.3 22:-1 23:-0.3 24:0.25 25:-1 29:-0.384615 30:-0.3 32:0.166667 33:0.444444 34:1 35:0.384615 39:0.3 40:-1 41:1 42:0.444444 44:1 45:-0.3 46:0.384615 47:-1 48:-0.3 49:0.555556 50:0.4 51:0.384615 52:-1 53:-0.3 54:-0.222222 55:0.5 56:0.428571 57:1 58:-0.222222 59:0.111111 60:-0.3 61:1 62:0.111111 63:0.666667 64:0.25 
1 1:-1 2:-1 3:1 5:1 7:-1 8:1 9:-1 10:-1 11:-0.8 13:1 14:-0.333333 15:-0.142857 16:-0.333333 17:-0.3 18:0.166667 19:0.3 22:-1 23:-0.3 24:0.25 25:-1 29:-0.384615 30:-0.3 32:0.166667 33:0.444444 34:0.166667 35:0.384615 39:0.3 40:-1 41:1 42:1 43:1 45:-0.3 46:0.384615 47:-1 48:-0.3 49:0.555556 50:0.4 51:0.384615 52:-1 53:-0.3 54:-0.222222 55:0.5 56:0.428571 57:1 58:-0.222222 59:0.111111 60:-0.3 61:1 62:0.111111 63:0.666667 64:0.25 
1 1:-1 2:-1 3:1 5:1 7:-1 8:1 9:-1 10:-1 11:-0.8 13:1 14:-0.333333 15:-0.142857 16:-0.333333 17:-0.3 18:0.166667 19:0.3 22:-1 23:-0.3 24:0.25 25:-1 29:-0.384615 30:-0.3 32:0.166667 33:0.444444 34:0.166667 39:0.3 40:-1 41:1 42:1 43:0.384615 44:1 45:-0.3 46:0.384615 47:-1 48:0.2 49:0.555556 50:0.4 51:0.384615 52:-1 53:-0.3 54:-0.222222 55:0.5 56:-1 57:1 58:-0.222222 59:0.111111 60:-0.3 61:1 62:0.111111 63:0.666667 64:0.25 
1 1:-1 2:0.4 3:1 5:1 7:-1 8:1 9:-1 10:-1 11:-0.8 13:1 14:-0.333333 15:-0.142857 16:-0.333333 17:-0.3 18:0.166667 19:-0.4 21:0.3 22:-1 23:-0.3 24:0.25 29:-0.384615 30:-0.3 32:0.166667 33:0.444444 34:0.166667 40:-1 41:1 42:1 43:0.384615 44:0.384615 46:0.384615 47:-1 48:-0.3 49:0.555556 50:0.4 52:-1 53:-0.3 54:-0.222222 55:0.5 56:0.428571 57:1 58:-0.222222 59:-0.222222 60:-0.3 61:1 62:0.111111 63:0.666667 64:0.25 
1 1:-1 2:0.4 3:1 5:1 7:-1 8:1 9:-1 10:-1 11:-0.8 13:1 14:-0.333333 15:-0.142857 16:-0.333333 17:-0.3 18:0.166667 19:-0.4 21:0.3 22:0.166667 23:-0.3 24:0.25 28:-0.538462 29:-0.384615 30:-0.3 32:0.166667 33:0.444444 34:0.166667 39:0.3 40:-1 41:1 42:1 43:0.384615 46:-0.230769 47:-1 48:-0.3 49:0.555556 50:0.4 51:0.384615 52:-1 53:-0.3 54:-0.222222 55:0.5 56:0.428571 57:1 58:-0.222222 59:-0.222222 60:-0.3 61:1 62:0.111111 63:0.666667 64:0.25 
1 1:-1 2:0.4 3:1 5:1 7:-1 8:1 9:-1 10:-1 11:-0.8 13:1 14:-0.333333 15:-0.142857 16:-0.333333 17:-0.3 18:0.166667 19:-0.4 21:0.3 22:0.166667 23:-0.3 24:0.25 29:-0.384615 30:-0.3 32:0.166667 33:0.444444 34:0.166667 39:0.3 40:-1 41:1 42:1 43:0.384615 45:-1 46:0.384615 47:-1 48:-0.3 49:0.555556 50:0.4 51:0.384615 52:-1 53:-0.3 54:-0.222222 55:0.0833333 56:0.428571 57:1 58:-0.222222 59:-0.222222 60:-0.3 61:1 62:0.111111 63:0.666667 64:0.25 
1 1:-1 2:0.4 3:1 5:1 7:-1 8:1 9:-1 10:-1 11:-0.8 13:1 14:-0.333333 15:-0.142857 16:-0.333333 17:-0.3 18:0.166667 19:-0.4 21:0.3 22:0.166667 23:-0.3 24:0.25 29:-0.384615 30:-0.3 32:0.166667 33:0.444444 34:0.166667 39:0.3 40:-1 41:1 42:1 43:0.384615 45:-1 46:0.538462 47:-1 48:-0.3 49:0.555556 50:0.4 51:0.384615 52:-1 53:-0.3 54:-0.222222 55:0.5 56:0.428571 57:1 58:-0.222222 59:-0.222222 60:-0.3 61:1 62:0.111111 63:0.0833333 64:0.25 
1 1:-1 2:0.4 3:1 5:1 7:-1 8:1 9:-1 10:-1 11:-0.8 13:1 14:-0.333333 15:-0.142857 16:-0.333333 17:-0.3 18:0.166667 19:-0.4 21:0.3 22:-1 23:-0.3 24:0.25 29:-0.384615 30:-0.3 32:0.166667 33:0.444444 34:0.166667 40:-1 41:1 42:1 43:0.384615 44:1 46:-1 47:-1 48:-0.3 49:0.555556 50:0.4 51:0.384615 52:-1 53:-0.3 54:-0.222222 55:0.5 56:0.428571 57:1 58:-0.222222 59:-0.222222 60:-0.3 61:1 62:0.111111 63:0.666667 64:0.25 
1 1:-1 2:0.4 3:1 5:1 7:-1 8:1 9:-1 10:-1 11:-0.8 13:1 14:-0.333333 15:-0.142857 16:-0.333333 17:-0.3 18:0.166667 19:-0.4 21:0.3 22:-1 23:-0.3 24:0.25 29:-0.384615 30:-0.3 32:0.166667 33:0.444444 34:0.166667 40:-1 41:1 42:1 43:0.384615 44:0.384615 47:-1 48:-0.3 49:0.555556 50:0.4 52:-1 53:-0.3 54:0.333333 55:0.5 56:0.428571 57:1 58:-0.222222 59:-0.222222 60:-0.3 61:1 62:0.111111 63:0.666667 64:0.25 
1 1:-1 2:-1 3:1 5:1 7:-1 8:1 9:-1 10:-1 11:-0.8 13:1 14:-0.333333 15:-0.142857 16:-0.333333 17:-0.3 18:0.166667 19:0.3 21:0.3 22:-1 23:-0.3 24:0.25 29:-0.384615 30:-0.3 32:0.166667 33:0.444444 34:0.166667 40:-1 41:1 42:1 43:0.384615 44:0.230769 47:-1 48:-0.3 49:0.555556 50:0.4 51:0.384615 52:-1 53:-0.3 54:0.333333 55:0.5 56:0.428571 57:1 58:-0.222222 59:-0.222222 60:-0.3 61:1 62:-0.222222 63:0.666667 64:0.25 
1 1:-1 2:-1 3:1 5:1 7:-1 8:1 9:-1 10:-1 11:-0.8 13:1 14:-0.333333 15:-0.142857 16:-0.333333 17:-0.3 18:0.166667 19:0.3 21:0.3 22:0.166667 23:-0.3 24:0.25 29:-0.384615 30:-0.3 32:0.166667 33:0.444444 34:0.166667 37:-0.538462 40:-1 41:1 42:1 43:0.384615 47:-1 48:-0.3 49:0.555556 50:0.4 51:0.384615 52:-1 53:-0.3 54:0.333333 55:0.5 56:0.428571 57:1 58:-0.222222 59:-0.222222 60:-0.3 61:1 62:0.111111 63:0.666667 64:0.25 
1 1:-1 2:-1 3:1 4:-0.153846 5:1 6:0.222222 7:-1 8:1 9:-1 10:-1 11:-0.8 13:1 14:-0.333333 15:-0.142857 16:-0.333333 17:-0.3 18:0.166667 19:0.3 21:0.3 22:-1 23:-0.3 24:0.25 29:-0.384615 30:-0.3 32:0.166667 33:0.444444 34:0.166667 40:-1 41:1 42:1 43:0.384615 44:0.384615 46:0.384615 47:-1 48:-0.3 49:0.555556 50:0.4 52:-1 53:-0.3 54:-0.222222 55:0.5 56:0.428571 57:1 58:-0.222222 59:-0.222222 60:-0.3 61:1 62:0.111111 63:0.666667 64:0.25 
1 1:-1 2:0.4 3:1 4:-0.153846 5:1 6:0.222222 7:-1 8:1 9:-1 10:-1 11:-0.8 13:1 14:-0.333333 15:-0.142857 16:-0.333333 17:-0.3 18:0.166667 19:-0.4 21:0.3 22:0.166667 23:-0.3 24:0.25 29:-0.384615 30:-0.3 32:0.166667 33:0.444444 34:0.166667 39:0.8 40:-1 41:1 42:1 43:0.384615 45:-1 47:-1 48:-0.3 49:0.555556 50:0.4 51:0.384615 52:-1 53:-0.3 54:-0.222222 55:0.5 56:0.428571 57:1 58:-0.222222 59:-0.222222 60:-0.3 61:1 62:0.111111 63:0.666667 64:0.25 
1 1:-1 2:0.4 3:1 4:-0.153846 5:1 6:0.222222 7:-1 8:1 9:-1 10:-1 11:-0.8 13:1 14:-0.333333 15:-0.142857 16:-0.333333 17:-0.3 18:0.166667 19:-0.4 21:0.3 22:-1 23:-0.3 24:0.25 29:-0.384615 30:-0.3 32:0.166667 33:0.444444 34:0.166667 39:0.8 40:-1 41:1 42:1 43:0.384615 44:-1 47:-1 48:-0.3 49:0.555556 50:0.4 51:0.384615 52:-1 53:-0.3 54:-0.222222 55:0.5 56:0.428571 57:1 58:-0.222222 59:-0.222222 60:-0.3 61:1 62:0.111111 63:0.666667 64:0.25 
1 1:-1 2:-1 3:1 4:-0.153846 5:1 6:0.222222 7:-1 8:1 9:-1 10:-1 11:-0.8 13:1 14:-0.333333 15:-0.142857 16:-0.333333 17:-0.3 18:0.166667 19:0.3 21:0.3 22:0.166667 23:-0.3 24:0.25 29:-0.384615 30:-0.3 32:0.166667 33:0.444444 34:0.166667 39:0.3 40:-1 41:1 42:1 43:0.384615 45:-1 46:0.384615 47:-1 48:-0.3 49:0.555556 50:0.4 51:0.384615 52:-1 53:-0.3 54:-0.222222 55:0.0833333 56:0.428571 57:1 58:-0.222222 59:-0.222222 60:-0.3 61:1 62:0.111111 63:0.666667 64:0.25 
1 1:-1 2:-1 3:1 4:-0.153846 5:1 6:0.222222 7:-1 8:1 9:-1 10:-1 11:-0.8 13:1 14:-0.333333 15:-0.142857 16:-0.333333 17:-0.3 18:0.166667 19:0.3 21:0.3 22:0.166667 23:-0.3 24:0.25 29:-0.384615 30:-0.3 32:0.166667 33:0.444444 34:0.166667 39:0.3 40:-1 41:1 42:1 43:0.384615 45:-1 46:0.538462 47:-1 48:-0.3 49:0.555556 50:0.4 51:0.384615 52:-1 53:-0.3 54:-0.222222 55:0.5 56:0.428571 57:1 58:-0.222222 59:-0.222222 60:-0.3 61:1 62:0.111111 63:0.0833333 64:0.25 
1 1:-1 2:-1 3:1 4:-0.153846 5:1 6:0.222222 7:-1 8:1 9:-1 10:-1 11:-0.8 13:1 14:-0.333333 15:-0.142857 16:-0.333333 17:-0.3 18:0.166667 19:0.3 21:0.3 22:0.166667 23:-0.3 24:0.25 29:0.538462 30:-0.3 32:0.166667 33:0.444444 34:0.166667 39:0.3 40:-1 41:1 42:1 43:0.384615 45:-1 47:-1 48:-0.3 49:0.555556 50:0.4 51:0.384615 52:-1 53:-0.3 54:-0.222222 55:0.5 56:0.428571 57:1 58:-0.222222 59:-0.222222 60:-0.3 61:1 62:0.111111 63:0.0833333 64:0.25 
1 1:-1 2:-1 3:1 4:-0.153846 5:1 6:0.222222 7:-1 8:1 9:-1 10:-1 11:-0.8 13:1 14:-0.333333 15:-0.142857 16:-0.333333 17:-0.3 18:0.166667 19:0.3 21:0.3 22:0.166667 23:-0.3 24:0.25 29:0.538462 30:-0.3 32:0.166667 33:0.444444 34:0.166667 39:0.3 40:-1 41:1 42:1 43:0.384615 45:-0.3 47:-1 48:-0.3 49:0.555556 50:0.4 51:0.384615 52:-1 53:-0.3 54:-0.222222 55:0.5 56:0.428571 57:1 58:-0.222222 59:-0.222222 60:-0.3 61:1 62:-1 63:0.0833333 64:0.25 
1 1:-1 2:-1 3:1 4:-0.153846 5:1 6:0.222222 7:-1 8:1 9:-1 10:-1 11:-0.8 13:1 14:-0.333333 15:-0.142857 16:-0.333333 17:-0.3 18:0.166667 19:0.3 21:0.3 22:0.166667 23:-0.3 24:0.25 29:0.538462 30:-0.3 32:0.166667 33:0.444444 34:0.166667 39:0.3 40:-1 41:1 42:1 43:0.384615 45:-0.3 47:-1 48:-0.3 49:0.555556 50:0.4 51:-0.538462 52:-1 53:-0.3 54:1 55:0.5 56:0.428571 57:1 58:-0.222222 59:-0.222222 60:-0.3 61:-1 62:0.111111 63:0.0833333 64:0.25 
1 1:-1 2:-1 3:1 4:-0.153846 5:1 6:0.222222 7:-1 8:1 9:-1 10:-1 11:-0.8 13:1 14:-0.333333 15:-0.142857 16:-0.333333 17:-0.3 18:0.166667 19:0.3 21:0.3 22:-1 23:-0.3 24:0.25 29:-0.384615 30:-0.3 32:0.166667 33:0.444444 34:0.166667 40:-1 41:1 42:1 43:0.384615 44:1 46:-1 47:-1 48:-0.3 49:0.555556 50:0.4 51:0.384615 52:-1 53:-0.3 54:-0.222222 55:0.5 56:0.428571 57:1 58:-0.222222 59:-0.222222 60:-0.3 61:1 62:0.111111 63:0.666667 64:0.25 
1 1:-1 2:0.4 3:1 5:1 7:-1 8:1 9:-1 10:-1 11:-0.8 12:-0.538462 13:1 14:-0.333333 15:-0.142857 16:-0.333333 17:-0.3 18:0.166667 19:0.3 21:0.3 22:-1 23:-0.3 24:0.25 29:-0.384615 30:-0.3 32:0.166667 33:0.444444 34:0.166667 40:-1 41:1 42:1 43:0.384615 44:0.384615 46:0.384615 47:-1 48:-0.3 49:0.555556 50:0.4 52:-1 53:-0.3 54:-0.222222 55:0.5 56:0.428571 57:1 58:-0.222222 59:-0.222222 60:-0.3 61:1 62:0.111111 63:0.666667 64:0.25 
1 1:-1 2:0.4 3:1 4:-0.153846 5:1 6:0.222222 7:-1 8:1 9:-1 10:-1 11:-0.8 12:-0.538462 13:1 14:-0.333333 15:-0.142857 16:-0.333333 17:-0.3 18:0.166667 19:0.3 21:0.3 22:0.166667 23:-0.3 24:0.25 29:-0.384615 30:-0.3 32:0.166667 33:0.444444 34:0.166667 39:0.8 40:-1 41:1 42:1 43:0.384615 45:-1 47:-1 48:-0.3 49:0.555556 50:0.4 51:0.384615 52:-1 53:-0.3 54:-0.222222 55:0.5 56:0.428571 57:1 58:-0.222222 59:-0.222222 60:-0.3 61:1 62:0.111111 63:0.666667 64:0.25 
1 1:-1 2:0.4 3:1 4:-0.153846 5:1 6:0.222222 7:-1 8:1 9:-1 10:-1 11:-0.8 12:-0.538462 13:1 14:-0.333333 15:-0.142857 16:-0.333333 17:-0.3 18:0.166667 19:0.3 21:0.3 22:-1 23:-0.3 24:0.25 29:-0.384615 30:-0.3 32:0.166667 33:0.444444 34:0.166667 39:0.8 40:-1 41:1 42:1 43:0.384615 44:-1 47:-1 48:-0.3 49:0.555556 50:0.4 51:0.384615 52:-1 53:-0.3 54:-0.222222 55:0.5 56:0.428571 57:1 58:-0.222222 59:-0.222222 60:-0.3 61:1 62:0.111111 63:0.666667 64:0.25 
1 1:-1 2:0.4 3:1 5:1 7:-1 8:1 9:-1 10:-1 11:-0.8 12:-0.538462 13:1 14:-0.333333 15:-0.142857 16:-0.333333 17:-0.3 18:0.166667 19:0.3 21:0.3 22:0.166667 23:-0.3 24:0.25 28:-0.538462 29:-0.384615 30:-0.3 32:0.166667 33:0.444444 34:0.166667 39:0.3 40:-1 41:1 42:1 43:0.384615 46:-0.230769 47:-1 48:-0.3 49:0.555556 50:0.4 51:0.384615 52:-1 53:-0.3 54:-0.222222 55:0.5 56:0.428571 57:1 58:-0.222222 59:-0.222222 60:-0.3 61:1 62:0.111111 63:0.666667 64:0.25 
1 1:-1 2:0.4 3:1 5:1 7:-1 8:1 9:-1 10:-1 11:-0.8 12:-0.538462 13:1 14:-0.333333 15:-0.142857 16:-0.333333 17:-0.3 18:0.166667 19:0.3 21:0.3 22:0.166667 23:-0.3 24:0.25 29:-0.384615 30:-0.3 32:0.166667 33:0.444444 34:0.166667 39:0.3 40:-1 41:1 42:1 43:0.384615 45:-1 46:0.384615 47:-1 48:-0.3 49:0.555556 50:0.4 51:0.384615 52:-1 53:-0.3 54:-0.222222 55:0.0833333 56:0.428571 57:1 58:-0.222222 59:-0.222222 60:-0.3 61:1 62:0.111111 63:0.666667 64:0.25 
1 1:-1 2:0.4 3:1 5:1 7:-1 8:1 9:-1 10:-1 11:-0.8 12:-0.538462 13:1 14:-0.333333 15:-0.142857 16:-0.333333 17:-0.3 18:0.166667 19:0.3 21:0.3 22:0.166667 23:-0.3 24:0.25 29:-0.384615 30:-0.3 32:0.166667 33:0.444444 34:0.166667 39:0.3 40:-1 41:1 42:1 43:0.384615 45:-1 46:0.538462 47:-1 48:-0.3 49:0.555556 50:0.4 51:0.384615 52:-1 53:-0.3 54:-0.222222 55:0.5 56:0.428571 57:1 58:-0.222222 59:-0.222222 60:-0.3 61:1 62:0.111111 63:0.0833333 64:0.25 
1 1:-1 2:0.4 3:1 5:1 7:-1 8:1 9:-1 10:-1 11:-0.8 12:-0.538462 13:1 14:-0.333333 15:-0.142857 16:-0.333333 17:-0.3 18:0.166667 19:0.3 21:0.3 22:-1 23:-0.3 24:0.25 29:-0.384615 30:-0.3 32:0.166667 33:0.444444 34:0.166667 40:-1 41:1 42:1 43:0.384615 44:1 46:-1 47:-1 48:-0.3 49:0.555556 50:0.4 51:0.384615 52:-1 53:-0.3 54:-0.222222 55:0.5 56:0.428571 57:1 58:-0.222222 59:-0.222222 60:-0.3 61:1 62:0.111111 63:0.666667 64:0.25 
1 1:-1 2:-1 3:1 5:1 7:-1 8:1 9:-1 10:-1 11:-0.8 13:1 14:-0.333333 15:-0.142857 16:-0.333333 17:-0.3 18:0.166667 19:0.3 21:0.3 22:-1 23:-0.3 24:0.25 25:-1 29:-0.384615 30:-0.3 32:0.166667 33:0.444444 34:0.166667 40:-1 41:1 42:1 43:0.384615 44:1 46:0.384615 47:-1 48:-0.3 49:0.555556 50:0.4 51:0.384615 52:-1 53:-0.3 54:-0.222222 55:0.5 56:0.428571 57:1 58:-0.222222 59:-0.222222 60:-0.3 61:1 62:0.111111 63:0.666667 64:0.25 
1 1:-1 2:0.4 3:1 5:1 7:-1 8:1 9:-1 10:-1 11:-0.8 13:1 14:-0.333333 15:-0.142857 16:-0.333333 17:-0.3 18:0.166667 19:-0.4 21:0.3 22:-1 23:-0.3 24:0.25 25:-1 29:-0.384615 30:-0.3 32:0.166667 33:0.444444 34:0.166667 40:-1 41:1 42:1 43:0.384615 44:1 46:0.384615 47:-1 48:-0.3 49:0.555556 50:0.4 51:0.384615 52:-1 53:-0.3 54:-0.222222 55:0.5 56:0.428571 57:1 58:-0.222222 59:-0.222222 60:-0.3 61:1 62:0.111111 63:0.666667 64:0.25 
1 1:-1 2:-1 3:1 5:1 7:-1 8:1 9:-1 10:-1 11:-0.8 13:1 14:-0.333333 15:-0.142857 16:-0.333333 17:-0.3 18:0.166667 19:0.3 21:0.3 22:-1 23:-0.3 24:0.25 25:-1 29:-0.384615 30:-0.3 32:0.166667 33:0.444444 34:0.166667 39:0.3 40:-1 41:1 42:1 43:0.384615 44:1 46:-0.230769 47:-1 48:-0.3 49:0.555556 50:0.4 51:0.384615 52:-1 53:-0.3 54:-0.222222 55:0.5 56:0.428571 57:1 58:-0.222222 59:-0.222222 60:-0.3 61:1 62:0.111111 63:0.666667 64:0.25 
1 1:-1 2:-1 3:1 5:1 7:-1 8:1 9:-1 10:-1 11:-0.8 13:1 14:-0.333333 15:-0.142857 16:-0.333333 17:-0.3 18:0.166667 19:0.3 21:0.3 22:-1 23:-0.3 24:0.25 29:-0.384615 30:-0.3 32:0.166667 33:0.444444 34:0.166667 40:-1 41:-1 42:1 43:0.384615 44:1 46:0.384615 47:-1 48:-0.3 49:0.555556 50:0.4 51:0.384615 52:-1 53:-0.3 54:-0.222222 55:0.5 56:0.428571 57:1 58:-0.222222 59:-0.222222 60:-0.3 61:1 62:0.111111 63:0.666667 64:0.25 
1 1:-1 2:-1 3:1 5:1 7:-1 8:1 9:-1 10:-1 11:-0.8 13:1 14:-0.333333 15:-0.142857 16:-0.333333 17:-0.3 18:0.166667 19:-1 21:0.3 22:-1 23:-0.3 24:0.25 29:-0.384615 30:-0.3 32:0.166667 33:0.444444 34:0.166667 40:-1 41:1 42:1 43:0.384615 44:1 47:-1 48:-0.3 49:0.555556 50:0.4 51:0.384615 52:-1 53:-0.3 54:0.333333 55:0.5 56:0.428571 57:1 58:-0.222222 59:-0.222222 60:-0.3 61:1 62:0.111111 63:0.666667 64:0.25 
1 1:-1 2:-1 3:1 5:1 7:-1 8:1 9:-1 10:-1 11:-0.8 13:1 14:-0.333333 15:-0.142857 16:-0.333333 17:-0.3 18:0.166667 19:-1 21:0.3 22:-1 23:-0.3 24:0.25 29:-0.384615 30:-0.3 32:0.166667 33:0.444444 34:0.166667 40:-1 41:1 42:1 43:0.384615 44:1 46:0.384615 47:-1 48:-0.3 49:0.555556 50:0.4 51:0.384615 52:-1 53:-0.3 54:-0.222222 55:0.5 56:0.428571 57:1 58:-0.222222 59:-0.222222 60:-0.3 61:1 62:0.111111 63:0.666667 64:0.25 
1 1:-1 2:-1 3:1 5:1 7:-1 8:1 9:-1 10:-1 11:-0.8 13:1 14:-0.333333 15:-0.142857 16:-0.333333 17:-0.3 18:0.166667 19:-1 21:0.3 22:0.166667 23:-0.3 24:0.25 29:-0.384615 30:-0.3 32:0.166667 33:0.444444 34:0.166667 37:-0.538462 40:-1 41:1 42:1 43:0.384615 44:1 46:0.384615 47:-1 48:-0.3 49:0.555556 50:0.4 51:0.384615 52:-1 53:-0.3 54:-0.222222 55:0.5 56:0.428571 57:1 58:-0.222222 59:-0.222222 60:-0.3 61:1 62:0.111111 63:0.666667 64:0.25 
1 1:-1 2:-1 3:1 5:1 7:-1 8:1 9:-1 10:-1 11:-0.8 13:1 14:-0.333333 15:-0.142857 16:-0.333333 17:-0.3 18:0.166667 19:-1 21:0.3 22:-1 23:-0.3 24:0.25 29:-0.384615 30:-0.3 32:0.166667 33:0.444444 34:0.166667 39:0.3 40:-1 41:1 42:1 43:0.384615 44:1 46:-0.230769 47:-1 48:-0.3 49:0.555556 50:0.4 51:0.384615 52:-1 53:-0.3 54:-0.222222 55:0.5 56:0.428571 57:1 58:-0.222222 59:-0.222222 60:-0.3 61:1 62:0.111111 63:0.666667 64:0.25 
1 1:-1 2:-1 3:1 5:1 7:-1 8:1 9:-1 10:-1 11:-0.8 13:1 14:-0.333333 15:-0.142857 16:-0.333333 17:-0.3 18:0.166667 19:0.3 21:0.3 22:-1 23:-0.3 24:0.25 29:-0.384615 30:-0.3 32:0.166667 33:0.444444 34:0.166667 40:-1 41:1 42:1 43:0.384615 44:1 46:-1 47:-1 48:-0.3 49:0.555556 50:0.4 51:0.384615 52:-1 53:-0.3 54:-0.222222 55:0.5 56:0.428571 57:1 58:-0.222222 59:-0.222222 60:-0.3 61:1 62:0.111111 63:0.666667 64:0.25 
1 1:-1 2:-1 3:1 5:1 7:-1 8:1 9:-1 10:-1 11:-0.8 12:-1 13:1 14:-0.333333 15:-0.142857 16:-0.333333 17:-0.3 18:0.166667 19:0.3 21:0.3 22:-1 23:-0.3 24:0.25 29:-0.384615 30:-0.3 32:0.166667 33:0.444444 34:0.166667 40:-1 41:1 42:1 43:0.384615 44:1 47:-1 48:-0.3 49:0.555556 50:0.4 51:0.384615 52:-1 53:-0.3 54:0.333333 55:0.5 56:0.428571 57:1 58:-0.222222 59:-0.222222 60:-0.3 61:1 62:0.111111 63:0.666667 64:0.25 
1 1:-1 2:0.4 3:1 5:1 7:-1 8:1 9:-1 10:-1 11:-0.8 12:-0.538462 13:1 14:-0.333333 15:-0.142857 16:-0.333333 17:-0.3 18:0.166667 19:0.3 21:0.3 22:-1 23:-0.3 24:0.25 29:-0.384615 30:-0.3 32:0.166667 33:0.444444 34:0.166667 40:-1 41:1 42:1 43:0.384615 47:-1 48:-0.3 49:0.555556 50:0.4 51:0.384615 52:-1 53:-0.3 54:0.333333 55:0.5 56:0.428571 57:1 58:-0.222222 59:-0.222222 60:-0.3 61:1 62:0.111111 63:0.666667 64:0.25 
1 1:-1 2:-1 3:1 5:1 7:-1 8:1 9:-1 10:-1 11:-0.8 12:-0.538462 13:1 14:-0.333333 15:-0.142857 16:-0.333333 17:-0.3 18:0.166667 19:0.3 21:0.3 22:0.166667 23:-0.3 24:0.25 29:-0.384615 30:-0.3 32:0.166667 33:0.444444 34:0.166667 40:-1 41:1 42:1 43:0.384615 47:-1 48:-0.3 49:0.555556 50:0.4 51:0.384615 52:-1 53:-0.3 54:0.333333 55:0.5 56:0.428571 57:1 58:-0.222222 59:-0.222222 60:-0.3 61:1 62:0.111111 63:0.666667 64:0.25 
1 1:-1 2:-1 3:1 5:1 7:-1 8:1 9:-1 10:-1 11:-0.8 12:-0.230769 13:1 14:-0.333333 15:-0.142857 16:-0.333333 17:-0.3 18:0.166667 19:0.3 21:0.3 22:-1 23:-0.3 24:0.25 29:-0.384615 30:-0.3 32:0.166667 33:0.444444 34:0.166667 39:0.3 40:-1 41:1 42:1 43:0.384615 47:-1 48:-0.3 49:0.555556 50:0.4 51:0.384615 52:-1 53:-0.3 54:0.333333 55:0.5 56:0.428571 57:1 58:-0.222222 59:-0.222222 60:-0.3 61:1 62:0.111111 63:0.666667 64:0.25 
1 1:-1 2:-1 3:1 5:1 7:-1 8:1 9:-1 10:-1 11:-0.8 13:1 14:-0.333333 15:-0.142857 16:-0.333333 17:-0.3 18:0.166667 19:0.3 20:-1 21:0.3 22:-1 23:-0.3 24:0.25 29:-0.384615 30:-0.3 32:0.166667 33:0.444444 34:0.166667 40:-1 41:1 42:1 43:0.384615 44:1 47:-1 48:-0.3 49:0.555556 50:0.4 51:0.384615 52:-1 53:-0.3 54:0.333333 55:0.5 56:0.428571 57:1 58:-0.222222 59:-0.222222 60:-0.3 61:1 62:0.111111 63:0.666667 64:0.25 
1 1:-1 2:-1 3:1 5:1 7:-1 8:1 9:-1 10:-1 11:-0.3 13:1 14:-0.333333 15:-0.142857 16:-0.333333 17:-0.3 18:0.166667 19:0.3 20:-0.384615 21:0.3 22:-1 23:-0.3 24:0.25 29:-0.384615 30:-0.3 32:0.166667 33:0.444444 34:0.166667 40:-1 41:1 42:1 43:0.384615 47:-1 48:-0.3 49:0.555556 50:0.4 51:0.384615 52:-1 53:-0.3 54:0.333333 55:0.5 56:0.428571 57:1 58:-0.222222 59:-0.222222 60:-0.3 61:1 62:0.111111 63:0.666667 64:0.25 
1 1:-1 2:0.4 3:1 5:1 7:-1 8:1 9:-1 10:-1 11:-0.8 13:1 14:-0.333333 15:-0.142857 16:-0.333333 17:-0.3 18:0.166667 19:-0.4 21:0.3 22:-1 23:-0.3 24:0.25 29:-0.384615 30:-0.3 32:0.166667 33:0.444444 34:0.166667 39:0.3 40:-1 41:1 42:1 43:0.384615 44:0.384615 46:-0.230769 47:-1 48:-0.3 49:0.555556 50:0.4 52:-1 53:-0.3 54:-0.222222 55:0.5 56:0.428571 57:1 58:-0.222222 59:-0.222222 60:-0.3 61:1 62:0.111111 63:0.666667 64:0.25 
1 1:-1 2:0.4 3:1 5:1 7:-1 8:1 9:-1 10:-1 11:-0.8 13:1 14:-0.333333 15:-0.142857 16:-0.333333 17:-0.3 18:0.166667 19:-0.4 21:0.3 22:-1 23:-0.3 24:0.25 29:-0.384615 30:-0.3 32:0.166667 33:0.444444 34:0.166667 39:0.3 40:-1 41:1 42:1 43:0.384615 44:0.230769 46:-0.230769 47:-1 48:-0.3 49:0.555556 50:0.4 51:0.384615 52:-1 53:-0.3 54:-0.222222 55:0.5 56:0.428571 57:1 58:-0.222222 59:-0.222222 60:-0.3 61:1 62:-0.222222 63:0.666667 64:0.25 
1 1:-0.733333 2:0.4 3:1 4:-0.153846 5:1 7:-1 8:1 9:-1 10:-1 11:-0.8 13:1 14:-0.333333 15:-0.142857 16:-0.333333 17:-0.3 18:0.166667 19:-0.4 21:0.3 22:0.166667 23:-0.3 24:0.25 29:-0.384615 30:-0.3 32:0.166667 33:0.444444 34:0.166667 39:0.8 40:-1 41:1 42:1 43:0.384615 45:-1 47:-1 48:-0.3 49:0.555556 50:0.4 51:0.384615 52:-1 53:-0.3 54:-0.222222 55:0.5 56:0.428571 57:1 58:-0.222222 59:-0.222222 60:-0.3 61:1 62:0.111111 63:0.666667 64:0.25 
1 1:-0.733333 2:0.4 3:1 4:-0.153846 5:1 7:-1 8:1 9:-1 10:-1 11:-0.8 13:1 14:-0.333333 15:-0.142857 16:-0.333333 17:-0.3 18:0.166667 19:-0.4 21:0.3 22:-1 23:-0.3 24:0.25 29:-0.384615 30:-0.3 32:0.166667 33:0.444444 34:0.166667 39:0.8 40:-1 41:1 42:1 43:0.384615 44:-1 47:-1 48:-0.3 49:0.555556 50:0.4 51:0.384615 52:-1 53:-0.3 54:-0.222222 55:0.5 56:0.428571 57:1 58:-0.222222 59:-0.222222 60:-0.3 61:1 62:0.111111 63:0.666667 64:0.25 
1 1:-1 2:0.4 3:1 5:1 7:-1 8:1 9:-1 10:-1 11:-0.8 13:1 14:-0.333333 15:-0.142857 16:-0.333333 17:-0.3 18:0.166667 19:-0.4 21:0.3 22:0.166667 23:-0.3 24:0.25 30:-0.3 32:0.166667 33:0.444444 34:0.166667 37:-0.384615 39:0.8 40:-1 41:1 42:1 43:0.384615 45:-1 47:-1 48:-0.3 49:0.555556 50:0.4 51:0.384615 52:-1 53:-0.3 54:-0.222222 55:0.5 56:0.428571 57:1 58:-0.222222 59:-0.222222 60:-0.3 61:1 62:0.111111 63:0.666667 64:0.25 
1 1:-1 2:0.4 3:1 5:1 7:-1 8:1 9:-1 10:-1 11:-0.8 13:1 14:-0.333333 15:-0.142857 16:-0.333333 17:-0.3 18:0.166667 19:-0.4 21:0.3 22:0.166667 23:-0.3 24:0.25 30:-0.3 32:0.166667 33:0.444444 34:0.166667 37:0.384615 40:-1 41:1 42:1 43:0.384615 45:-1 47:-1 48:-0.3 49:0.555556 50:0.4 51:0.384615 52:-1 53:-0.3 54:-0.222222 55:0.5 56:0.428571 57:1 58:-0.222222 59:-0.222222 60:-0.3 61:1 62:0.111111 63:0.666667 64:0.25 
1 1:-1 2:-1 3:1 5:1 7:-1 8:1 9:-1 10:-1 11:-0.8 13:1 14:-0.333333 15:-0.142857 16:-0.333333 17:-0.3 18:0.166667 19:0.3 21:0.3 22:-1 23:-0.3 24:0.25 29:-0.384615 30:-0.3 31:0.428571 32:0.166667 33:0.444444 34:0.166667 39:0.3 40:-1 41:1 42:1 43:0.384615 44:0.384615 45:-0.3 47:-1 48:-0.3 49:0.555556 50:0.4 52:-1 53:-0.6 54:0.333333 55:0.5 56:0.428571 57:1 58:-0.222222 59:-0.222222 60:-0.3 61:1 62:-0.222222 63:0.666667 64:0.25 
1 1:-1 2:-1 3:1 5:1 7:-1 8:1 9:-1 10:-1 11:-0.8 13:1 14:-0.333333 15:-0.142857 16:-0.333333 17:-0.3 18:0.166667 19:0.3 21:0.3 22:0.166667 23:-0.3 24:0.25 29:-0.384615 30:-0.3 31:0.428571 32:0.166667 33:0.444444 34:0.166667 37:-0.538462 39:0.3 40:-1 41:1 42:1 43:0.384615 45:-0.3 47:-1 48:-0.3 49:0.555556 50:0.4 51:0.384615 52:-1 53:0.4 54:0.333333 55:0.5 56:0.428571 57:1 58:-0.222222 59:-0.222222 60:-0.3 61:1 62:-0.222222 63:0.0833333 64:0.25 
1 1:-1 2:-1 3:1 5:1 7:-1 8:1 9:-1 10:-1 11:-0.8 13:1 14:-0.333333 15:-0.142857 16:-0.333333 17:-0.3 18:0.166667 19:0.3 21:0.3 22:0.166667 23:-0.3 24:0.25 29:-0.384615 30:-0.3 31:-1 32:0.166667 33:0.444444 34:0.166667 39:0.3 40:-1 41:1 42:1 43:0.384615 45:-0.3 47:-1 48:-0.3 49:0.555556 50:0.4 51:0.384615 52:-1 53:0.4 54:0.333333 55:0.5 56:0.428571 57:1 58:-0.222222 59:-0.222222 60:-0.3 61:1 62:-0.222222 63:0.0833333 64:0.25 
1 1:-1 2:-1 3:1 5:1 7:-1 8:1 9:-1 10:-1 11:-0.8 13:1 14:-0.333333 15:-0.142857 16:-0.333333 17:-0.3 18:0.166667 19:0.3 21:0.3 22:0.166667 23:-0.3 24:0.25 29:-0.384615 30:-0.3 31:-1 32:0.166667 33:0.444444 34:0.166667 39:0.3 40:-1 41:1 42:1 43:0.384615 45:-0.3 47:-1 48:-0.3 49:0.555556 50:0.4 51:0.384615 52:-1 53:0.8 54:0.333333 55:0.5 56:0.428571 57:1 58:-0.222222 59:-0.222222 60:-0.3 61:-1 62:-0.222222 63:0.666667 64:0.25 
1 1:-1 2:0.4 3:1 5:1 7:-1 8:1 9:-1 10:-1 11:-0.8 13:1 14:-0.333333 15:-0.142857 16:-0.333333 17:-0.3 18:0.166667 19:-0.4 21:0.3 22:0.166667 23:-0.3 24:0.25 29:-0.384615 30:-0.3 32:0.166667 33:0.444444 34:0.166667 37:-0.538462 40:-1 41:1 42:1 43:0.384615 47:-1 48:-0.3 49:0.555556 50:0.4 51:0.384615 52:-1 53:-0.3 54:0.333333 55:0.5 56:0.428571 57:1 58:-0.222222 59:-0.222222 60:-0.3 61:1 62:0.111111 63:0.666667 64:0.25 
1 1:-1 2:-1 3:1 5:1 7:-1 8:1 9:-1 10:-1 11:-0.8 13:1 14:-0.333333 15:-0.142857 16:-0.333333 17:-0.3 18:0.166667 19:0.3 21:0.3 22:-1 23:-0.3 24:0.25 29:-0.384615 30:-0.3 32:0.166667 33:0.444444 34:0.166667 35:0.384615 39:0.3 40:-1 41:1 42:1 44:0.384615 45:-0.3 47:-1 48:-0.3 49:0.555556 50:0.4 52:-1 53:-0.6 54:0.333333 55:0.5 56:0.428571 57:1 58:-0.222222 59:0.111111 60:-0.3 61:1 62:-0.222222 63:0.666667 64:0.25 
1 1:-1 2:-1 3:1 5:1 7:-1 8:1 9:-1 10:-1 11:-0.8 13:1 14:-0.333333 15:-0.142857 16:-0.333333 17:-0.3 18:0.166667 19:0.3 21:0.3 22:0.166667 23:-0.3 24:0.25 29:-0.384615 30:-0.3 32:0.166667 33:0.444444 34:0.166667 35:0.384615 37:-0.538462 39:0.3 40:-1 41:1 42:1 45:-0.3 47:-1 48:-0.3 49:0.555556 50:0.4 51:0.384615 52:-1 53:0.4 54:0.333333 55:0.5 56:0.428571 57:1 58:-0.222222 59:0.111111 60:-0.3 61:1 62:-0.222222 63:0.0833333 64:0.25 
1 1:-1 2:-1 3:1 5:1 7:-1 8:1 9:-1 10:-1 11:-0.8 13:1 14:-0.333333 15:-0.142857 16:-0.333333 17:-0.3 18:0.166667 19:0.3 21:0.3 22:-1 23:-0.3 24:0.25 29:-0.384615 30:-0.3 32:0.166667 33:0.444444 34:0.166667 35:0.384615 39:0.6 40:-1 41:1 42:1 44:1 45:-0.3 47:-1 48:-0.3 49:0.555556 50:0.4 51:0.384615 52:-1 53:-0.3 54:0.333333 55:0.0833333 56:0.428571 57:1 58:-0.222222 59:0.111111 60:-0.3 61:1 62:-0.222222 63:0.666667 64:-1 
1 1:-1 2:-1 3:1 5:1 7:-1 8:1 9:-1 10:-1 11:-0.8 12:-0.230769 13:1 14:-0.333333 15:-0.142857 16:-0.333333 17:-0.3 18:0.166667 19:0.3 21:0.3 22:-1 23:-0.3 24:0.25 27:-1 29:-0.384615 30:-0.3 32:0.166667 33:0.444444 34:0.166667 39:0.3 40:-1 41:1 42:1 43:0.384615 44:1 46:0.538462 47:-1 48:0.2 49:0.555556 50:0.4 51:0.384615 52:-1 53:-0.3 54:0.333333 55:0.5 56:-1 57:1 58:-0.222222 59:-0.222222 60:-0.3 61:1 62:0.111111 63:0.0833333 64:0.25 
1 1:-1 2:-1 3:1 5:1 7:-1 8:1 9:-1 10:-1 11:-0.8 12:-0.230769 13:1 14:-0.333333 15:-0.142857 16:-0.333333 17:-0.3 18:0.166667 19:0.3 21:0.3 22:-1 23:-0.3 24:0.25 25:-1 29:-0.384615 30:-0.3 32:0.166667 33:0.444444 34:0.166667 39:0.3 40:-1 41:1 42:1 43:0.384615 44:1 46:0.538462 47:-1 48:0.2 49:0.555556 50:0.4 51:0.384615 52:-1 53:-0.3 54:0.333333 55:0.5 56:-1 57:1 58:-0.222222 59:-0.222222 60:-0.3 61:1 62:0.111111 63:0.0833333 64:0.25 
1 1:-1 2:-1 3:1 5:1 7:-1 8:1 9:-1 10:-1 11:-0.8 12:-0.230769 13:1 14:-0.333333 15:-0.142857 16:-0.333333 17:-0.3 18:0.166667 19:0.3 21:0.3 22:0.166667 23:-0.3 24:0.25 29:-0.384615 30:-0.3 32:0.166667 33:0.444444 34:0.166667 39:0.3 40:-1 41:1 42:1 43:0.384615 45:-1 47:-1 48:0.2 49:0.555556 50:0.4 51:0.384615 52:-1 53:-0.3 54:0.333333 55:0.5 56:-1 57:1 58:-0.222222 59:-0.222222 60:-0.3 61:1 62:0.111111 63:0.666667 64:0.25 
1 1:-1 2:-1 3:1 5:1 7:-1 8:1 9:-1 10:-1 11:-0.8 12:-0.230769 13:1 14:-0.333333 15:-0.142857 16:-0.333333 17:-0.3 18:0.166667 19:0.3 21:0.3 22:0.166667 23:-0.3 24:0.25 29:-0.384615 30:-0.3 32:0.166667 33:0.444444 34:0.166667 39:0.3 40:-1 41:1 42:1 43:0.384615 45:0.2 47:-1 48:0.2 49:0.555556 50:0.4 51:0.384615 52:-1 53:-0.3 54:-0.222222 55:0.5 56:-1 57:1 58:-0.222222 59:-0.222222 60:-0.3 61:1 62:0.111111 63:0.666667 64:0.25 
1 1:-1 2:-1 3:1 5:1 7:-1 8:1 9:-1 10:-1 11:-0.8 12:-0.230769 13:1 14:-0.333333 15:-0.142857 16:-0.333333 17:-0.3 18:0.166667 19:0.3 21:0.3 22:0.166667 23:-0.3 24:0.25 29:-0.384615 30:-0.3 32:0.166667 33:0.444444 34:0.166667 39:0.3 40:-1 41:1 42:1 43:-0.538462 47:-1 48:0.2 49:0.555556 50:0.4 51:0.384615 52:-1 53:-0.3 54:0.333333 55:0.5 56:-1 57:1 58:-0.222222 59:-0.222222 60:-0.3 61:1 62:0.111111 63:0.666667 64:0.25 
1 1:-1 2:-1 3:1 5:1 7:-1 8:1 9:-1 10:-1 11:-0.8 12:-0.230769 13:1 14:-0.333333 15:-0.142857 16:-0.333333 17:-0.3 18:0.166667 19:0.3 21:0.3 22:0.166667 23:-0.3 24:0.25 29:-0.384615 30:-0.3 32:0.166667 33:0.444444 34:0.166667 39:0.3 40:-1 41:1 42:1 43:-0.538462 45:-0.3 46:0.538462 47:-1 48:0.2 49:0.555556 50:0.4 51:0.384615 52:-1 53:-0.3 54:0.333333 55:0.5 56:-1 57:1 58:-0.222222 59:0.111111 60:-0.3 61:1 62:0.111111 63:0.0833333 64:0.25 
1 1:-1 2:-1 3:1 5:1 7:-1 8:1 9:-1 10:-1 11:-0.8 13:1 14:-0.333333 15:-0.142857 16:-0.333333 17:-0.3 18:0.166667 19:0.3 21:0.3 22:0.166667 23:-0.3 24:0.25 29:0.538462 30:-0.3 32:0.166667 33:0.444444 34:0.166667 39:0.3 40:-1 41:1 42:1 43:-0.538462 45:-0.3 47:-1 48:-0.6 49:0.555556 50:0.4 51:0.384615 52:-1 53:-0.3 54:0.333333 55:0.5 56:-1 57:1 58:-0.222222 59:0.111111 60:-0.3 61:1 62:0.111111 63:0.0833333 64:0.25 
1 1:-1 2:-1 3:1 5:1 7:-1 8:1 9:-1 10:-1 11:-0.8 12:-0.230769 13:1 14:-0.333333 15:-0.142857 16:-0.333333 17:-0.3 18:0.166667 19:0.3 21:0.3 22:0.166667 23:-0.3 24:0.25 29:-0.384615 30:-0.3 32:0.166667 33:0.444444 34:0.166667 35:0.230769 39:0.3 40:-1 41:1 42:1 43:-0.538462 45:-0.3 47:-1 48:0.2 49:0.555556 50:0.4 51:0.384615 52:-1 53:-0.3 54:0.333333 55:0.5 56:-1 57:1 58:-0.222222 59:0.111111 60:-0.3 61:1 62:-0.222222 63:0.666667 64:0.25 
1 1:-1 2:-1 3:1 5:1 7:-1 8:1 9:-1 10:-1 11:-0.8 13:1 14:-0.333333 15:-0.142857 16:-0.333333 17:-0.3 18:0.166667 19:0.3 21:0.3 22:0.166667 23:-0.3 24:0.25 28:-0.538462 29:-0.384615 30:-0.3 32:0.166667 33:0.444444 34:0.166667 35:0.384615 39:0.3 40:-1 41:1 42:1 45:-0.3 47:-1 48:-0.6 49:0.555556 50:0.4 51:0.384615 52:-1 53:-0.3 54:0.333333 55:0.5 56:-1 57:1 58:-0.222222 59:0.111111 60:-0.3 61:1 62:0.111111 63:0.666667 64:0.25 
1 1:-1 2:-1 3:1 5:1 7:-1 8:1 9:-1 10:-1 11:-0.8 12:-0.230769 13:1 14:-0.333333 15:-0.142857 16:-0.333333 17:-0.3 18:0.166667 19:0.3 21:0.3 22:0.166667 23:-0.3 24:0.25 30:-0.3 32:0.166667 33:0.444444 34:0.166667 35:0.384615 38:-0.714286 39:0.3 40:-1 41:1 42:1 45:-0.3 47:-1 48:0.2 49:0.555556 50:0.4 51:0.384615 52:-1 53:-0.3 54:0.333333 55:0.5 56:-1 57:1 58:-0.222222 59:-0.222222 60:-0.3 61:1 62:0.111111 63:0.666667 64:0.25 
1 1:-1 2:-1 3:1 5:1 7:-1 8:1 9:-1 10:-1 11:-0.8 12:-0.230769 13:1 14:-0.333333 15:-0.142857 16:-0.333333 17:-0.3 18:0.166667 19:0.3 21:0.3 22:0.166667 23:-0.3 24:0.25 28:-0.538462 29:-0.384615 30:-0.3 32:0.166667 33:0.444444 34:0.166667 39:0.8 40:-1 41:1 42:1 43:0.384615 45:-0.3 47:-1 48:0.2 49:0.555556 50:0.4 51:0.384615 52:-1 53:-0.3 54:0.333333 55:0.0833333 56:-1 57:1 58:-0.222222 59:0.111111 60:-0.3 61:1 62:0.111111 63:0.666667 64:0.25 
1 1:-1 2:-1 3:1 5:1 7:-1 8:1 9:-1 10:-1 11:-0.8 12:-0.230769 13:1 14:-0.333333 15:-0.142857 16:-0.333333 17:-0.3 18:0.166667 19:0.3 21:0.3 22:0.166667 23:-0.3 24:0.25 29:-0.384615 30:-0.3 32:0.166667 33:0.444444 34:0.166667 39:0.8 40:-1 41:1 42:1 43:-0.538462 45:-0.3 47:-1 48:0.2 49:0.555556 50:0.4 51:0.384615 52:-1 53:-0.3 54:0.333333 55:0.0833333 56:-1 57:1 58:-0.222222 59:0.111111 60:-0.3 61:1 62:0.111111 63:0.666667 64:0.25 
1 1:-1 2:-1 3:1 5:1 7:-1 8:1 9:-1 10:-1 11:-0.8 12:-0.230769 13:1 14:-0.333333 15:-0.142857 16:-0.333333 17:-0.3 18:0.166667 19:0.3 21:0.3 22:0.166667 23:-0.3 24:0.25 29:-0.384615 30:-0.3 32:0.166667 33:0.444444 34:0.166667 39:0.3 40:-1 41:1 42:1 43:-0.538462 45:-0.3 47:-1 48:0.2 49:0.555556 50:0.4 51:0.384615 52:-1 53:-0.3 54:0.333333 55:0.5 56:-0.428571 57:1 58:-0.222222 59:0.111111 60:-0.3 61:1 62:0.111111 63:0.666667 64:0.0833333 
1 1:-1 2:-1 3:1 5:1 7:-1 8:1 9:-1 10:-1 11:-0.8 12:-0.230769 13:1 14:-0.333333 15:-0.142857 16:-0.333333 17:-0.3 18:0.166667 19:0.3 21:0.3 22:0.166667 23:-0.3 24:0.25 29:-0.384615 30:-0.3 32:0.166667 33:0.444444 34:0.166667 39:0.3 40:-1 41:1 42:1 43:-0.538462 45:-0.3 47:-1 48:0.2 49:0.555556 50:0.4 51:0.384615 52:-1 53:-0.3 54:0.333333 55:0.5 56:-1 57:1 58:-0.222222 59:0.111111 60:-0.3 61:1 62:0.111111 63:0.666667 64:0.25 
1 1:-1 2:-1 3:1 5:1 7:-1 8:1 9:-1 10:-1 11:-0.8 12:-0.230769 13:1 14:-0.333333 15:-0.142857 16:-0.333333 17:-0.3 18:0.166667 19:0.3 21:0.3 22:0.166667 23:-0.3 24:0.25 28:-0.538462 29:-0.384615 30:-0.3 32:0.166667 33:0.444444 34:0.166667 38:0.714286 39:0.3 40:-1 41:1 42:1 43:0.384615 45:-0.3 47:-1 48:0.2 49:0.555556 50:0.4 51:0.384615 52:-1 53:-0.3 54:-0.222222 55:0.5 56:-1 57:1 58:-0.222222 59:0.111111 60:-0.3 61:1 62:0.111111 63:0.666667 64:0.25 
1 1:-1 2:-1 3:1 5:1 7:-1 8:1 9:-1 10:-1 11:-0.8 12:-0.230769 13:1 14:-0.333333 15:-0.142857 16:-0.333333 17:-0.3 18:0.166667 19:0.3 21:0.3 22:0.166667 23:-0.3 24:0.25 29:-0.384615 30:-0.3 32:0.166667 33:0.444444 34:0.166667 39:0.3 40:0.428571 41:1 42:1 43:-0.538462 45:-0.3 47:-1 48:-0.3 49:0.555556 50:0.4 51:0.384615 52:-1 53:-0.3 54:0.333333 55:0.5 56:-1 57:1 58:-0.222222 59:0.111111 60:-0.3 61:1 62:0.111111 63:0.666667 64:0.25 
1 1:-1 2:-1 3:1 5:1 7:-1 8:1 9:-1 10:-1 11:-0.8 12:-0.230769 13:1 14:-0.333333 15:-0.142857 16:-0.333333 17:-0.3 18:0.166667 19:0.3 21:0.3 22:0.166667 23:-0.3 24:0.25 29:-0.384615 30:-0.3 32:0.166667 33:1 34:0.166667 39:0.3 40:-1 41:0.444444 42:1 43:-0.538462 45:-0.3 47:-1 48:0.2 49:0.555556 50:0.4 51:0.384615 52:-1 53:-0.3 54:0.333333 55:0.5 56:-1 57:1 58:-0.222222 59:0.111111 60:-0.3 61:1 62:0.111111 63:0.666667 64:0.25 
1 1:-1 2:-1 3:1 5:1 7:-1 8:1 9:-1 10:-1 11:-0.8 12:-0.230769 13:1 14:-0.333333 15:0.571429 16:-0.333333 17:-0.3 18:0.166667 19:0.3 21:0.3 22:0.166667 23:-0.3 24:-1 28:-0.538462 29:-0.384615 30:-0.3 32:0.166667 33:0.444444 34:0.166667 39:0.3 40:-1 41:1 42:1 43:0.384615 45:-0.3 47:-1 48:0.2 49:0.555556 50:0.4 51:0.384615 52:-1 53:-0.3 54:0.333333 55:0.5 56:-1 57:1 58:-0.222222 59:-0.222222 60:-0.3 61:1 62:0.111111 63:0.666667 64:0.25 
1 1:-1 2:-1 3:1 5:1 7:-1 8:1 9:-1 10:-1 11:-0.8 12:-0.230769 13:1 14:-0.333333 15:-0.142857 16:-0.333333 17:-0.3 18:0.166667 19:0.3 21:0.3 22:0.166667 23:-0.3 24:0.25 29:-0.384615 30:-0.3 32:0.166667 33:0.444444 34:0.166667 39:0.3 40:-1 41:1 42:1 43:-0.538462 45:-0.3 47:-1 48:0.2 49:0.555556 50:0.4 51:0.384615 52:-1 53:-0.3 54:0.333333 55:0.5 56:-1 57:0.555556 59:0.111111 60:-0.3 61:1 62:0.111111 63:0.666667 64:0.25 
1 1:-1 2:-1 3:1 5:1 7:-1 8:1 9:-1 10:-1 11:-0.8 12:-0.230769 13:1 14:-0.333333 15:-0.142857 16:-0.333333 17:-0.3 18:0.166667 19:0.3 21:0.3 22:0.166667 23:-0.3 24:0.25 29:-0.384615 30:-0.3 32:0.166667 33:0.444444 34:0.166667 39:0.3 40:-1 41:1 42:1 43:-0.538462 45:-0.3 47:-1 48:0.2 49:1 50:0.4 51:0.384615 52:-1 53:-0.3 54:0.333333 55:0.5 56:-1 57:0.555556 58:-0.222222 59:0.111111 60:-0.3 61:1 62:0.111111 63:0.666667 64:0.25 
1 1:-1 2:0.4 3:1 5:1 7:-1 8:1 9:-1 10:-1 11:-0.8 12:-0.230769 13:1 14:-0.333333 15:-0.142857 16:-0.333333 17:-0.3 18:0.166667 19:-0.4 21:0.3 22:0.666667 23:-0.3 24:0.25 29:-0.384615 30:-0.3 32:0.166667 33:0.444444 34:0.166667 39:0.3 40:-1 41:1 42:1 43:0.384615 44:-1 45:-0.3 47:-1 48:0.2 49:0.555556 50:0.4 51:0.384615 52:-1 53:-0.3 54:0.333333 55:0.5 56:-1 57:1 58:-0.222222 59:-0.222222 60:-0.3 61:1 62:0.111111 63:0.666667 64:0.25 
1 1:-1 2:0.4 3:1 5:1 7:-1 8:1 9:-1 10:-1 11:-0.8 12:-0.230769 13:1 14:-0.333333 15:0.571429 16:-0.333333 17:-0.3 18:0.166667 19:-0.4 21:0.3 22:-0.666667 23:-0.3 24:0.25 29:-0.384615 30:-0.3 32:0.166667 33:0.444444 34:0.166667 39:0.3 40:-1 41:1 42:1 43:0.384615 44:0.384615 45:-0.3 47:-1 48:0.2 49:0.555556 50:0.4 52:-1 53:-0.3 54:0.333333 55:0.5 56:-1 57:1 58:-0.222222 59:-0.222222 60:-0.3 61:1 62:0.111111 63:0.666667 64:0.25 
