svm_type c_svc
kernel_type rbf
gamma 0.015625
nr_class 2
total_sv 4120
rho -0.485242
label 0 1
nr_sv 2651 1469
SV
0.730992442566849 1:-2 2:-7 3:0 4:0 5:0 6:-2 7:-11 8:0 9:-5 10:-5 11:-5 12:0 13:0 14:-5 15:-5 16:-5 17:0 18:0 19:0 20:0 21:0 22:-7 23:0 24:0 25:0 26:0 27:0 28:0 29:-5 30:0 31:0 32:0 33:0 34:0 35:0 36:0 37:0 38:0 39:0 40:0 41:5 42:5 43:5 44:5 45:0 46:-3 47:0 48:0 49:0 50:0 51:0 52:0 53:0 54:0 55:5 56:5 57:2 58:0 59:3 60:0 61:11 62:3 63:7 64:2 
0.2615512271608504 1:-2 2:-7 3:0 4:0 5:0 6:-2 7:-11 8:0 9:-5 10:-5 11:-5 12:0 13:0 14:-5 15:-5 16:-5 17:0 18:0 19:0 20:0 21:0 22:-7 23:0 24:0 25:0 26:0 27:0 28:0 29:-5 30:0 31:0 32:0 33:0 34:0 35:0 36:0 37:0 38:0 39:-3 40:0 41:5 42:5 43:5 44:13 45:0 46:-13 47:0 48:0 49:0 50:0 51:5 52:0 53:0 54:0 55:5 56:5 57:2 58:0 59:3 60:0 61:11 62:3 63:7 64:2 
0.06877552823501254 1:-2 2:-7 3:0 4:0 5:0 6:-2 7:-11 8:0 9:-5 10:-5 11:-5 12:0 13:0 14:-5 15:-5 16:-5 17:0 18:0 19:0 20:0 21:0 22:-7 23:0 24:0 25:0 26:0 27:0 28:0 29:-5 30:0 31:0 32:0 33:0 34:0 35:0 36:0 37:0 38:0 39:-3 40:0 41:5 42:5 43:5 44:-13 45:0 46:0 47:5 48:0 49:0 50:0 51:5 52:0 53:0 54:5 55:0 56:5 57:2 58:0 59:3 60:0 61:11 62:3 63:7 64:2 
0.8919482418827648 1:-2 2:-7 3:0 4:0 5:0 6:-2 7:-11 8:0 9:-5 10:-5 11:-5 12:0 13:0 14:-5 15:-5 16:-5 17:0 18:0 19:0 20:0 21:0 22:-7 23:0 24:0 25:0 26:0 27:0 28:0 29:-5 30:0 31:0 32:0 33:0 34:0 35:0 36:0 37:0 38:0 39:-3 40:0 41:5 42:5 43:5 44:5 45:0 46:0 47:5 48:0 49:0 50:0 51:0 52:0 53:0 54:5 55:0 56:5 57:2 58:0 59:3 60:0 61:11 62:3 63:7 64:2 
0.2564420558976236 1:-2 2:-7 3:0 4:0 5:0 6:-2 7:-11 8:0 9:-5 10:-5 11:-5 12:0 13:0 14:-5 15:-5 16:-5 17:0 18:0 19:0 20:0 21:0 22:-7 23:0 24:0 25:0 26:0 27:0 28:0 29:-5 30:0 31:0 32:0 33:0 34:0 35:0 36:0 37:0 38:0 39:-3 40:0 41:5 42:5 43:5 44:13 45:0 46:0 47:5 48:0 49:0 50:0 51:5 52:0 53:0 54:5 55:0 56:5 57:2 58:0 59:3 60:0 61:11 62:3 63:7 64:-13 
0.3222299216937043 1:-2 2:-7 3:0 4:0 5:0 6:-2 7:-11 8:0 9:-5 10:-5 11:-5 12:0 13:0 14:-5 15:-5 16:-7 17:0 18:0 19:0 20:0 21:0 22:0 23:0 24:0 25:0 26:0 27:0 28:0 29:-5 30:0 31:0 32:0 33:0 34:0 35:0 36:0 37:0 38:0 39:-3 40:0 41:5 42:5 43:5 44:0 45:0 46:0 47:5 48:0 49:0 50:0 51:5 52:0 53:0 54:5 55:0 56:5 57:2 58:0 59:3 60:0 61:11 62:3 63:7 64:-13 
0.04087983521215301 1:-2 2:-7 3:0 4:0 5:0 6:-2 7:-11 8:0 9:-5 10:-5 11:-5 12:0 13:0 14:-5 15:-5 16:-5 17:0 18:0 19:0 20:0 21:0 22:0 23:0 24:0 25:0 26:0 27:0 28:0 29:-5 30:0 31:0 32:0 33:0 34:0 35:0 36:0 37:-7 38:0 39:-3 40:0 41:5 42:5 43:5 44:0 45:0 46:0 47:5 48:0 49:0 50:0 51:5 52:0 53:0 54:5 55:0 56:5 57:2 58:0 59:3 60:0 61:11 62:3 63:7 64:2 
0.111151140074359 1:-2 2:-7 3:0 4:0 5:0 6:-2 7:-11 8:0 9:-5 10:-5 11:-5 12:0 13:0 14:-5 15:-5 16:-5 17:0 18:0 19:0 20:0 21:0 22:-7 23:0 24:0 25:0 26:0 27:0 28:0 29:-5 30:0 31:0 32:0 33:5 34:0 35:0 36:0 37:0 38:0 39:-3 40:0 41:0 42:5 43:5 44:-13 45:0 46:0 47:0 48:0 49:0 50:0 51:5 52:0 53:0 54:5 55:5 56:5 57:2 58:0 59:3 60:0 61:11 62:3 63:7 64:2 
0.5361261782728362 1:-2 2:-7 3:0 4:0 5:0 6:-2 7:-11 8:0 9:-5 10:-5 11:-5 12:0 13:0 14:-5 15:-5 16:-5 17:0 18:0 19:0 20:0 21:0 22:-7 23:0 24:0 25:0 26:0 27:0 28:0 29:-5 30:0 31:0 32:0 33:5 34:0 35:0 36:0 37:0 38:0 39:-3 40:0 41:0 42:5 43:5 44:5 45:0 46:0 47:0 48:0 49:0 50:0 51:0 52:0 53:0 54:5 55:5 56:5 57:2 58:0 59:3 60:0 61:11 62:3 63:7 64:2 
0.2985829065290549 1:-2 2:-7 3:0 4:0 5:0 6:-2 7:-11 8:0 9:-5 10:-5 11:-5 12:0 13:0 14:-5 15:-5 16:-5 17:0 18:0 19:0 20:0 21:0 22:-7 23:0 24:0 25:0 26:0 27:0 28:0 29:-5 30:0 31:0 32:0 33:5 34:0 35:0 36:0 37:0 38:0 39:-3 40:0 41:0 42:-13 43:5 44:13 45:0 46:0 47:0 48:0 49:0 50:0 51:5 52:0 53:0 54:5 55:5 56:5 57:2 58:0 59:3 60:0 61:11 62:3 63:7 64:2 
0.3120797319241917 1:-2 2:-7 3:0 4:0 5:0 6:-2 7:-11 8:0 9:-5 10:-5 11:-5 12:0 13:0 14:-5 15:-5 16:-5 17:0 18:0 19:0 20:0 21:0 22:-7 23:0 24:0 25:0 26:0 27:0 28:0 29:-5 30:0 31:0 32:0 33:5 34:0 35:0 36:0 37:0 38:0 39:-3 40:0 41:0 42:5 43:5 44:13 45:0 46:0 47:0 48:0 49:0 50:0 51:5 52:0 53:0 54:5 55:-13 56:5 57:2 58:0 59:3 60:0 61:11 62:3 63:7 64:2 
0.1032657035694664 1:-2 2:-7 3:0 4:0 5:0 6:-2 7:-11 8:0 9:-5 10:-5 11:-5 12:0 13:0 14:-5 15:-5 16:-5 17:0 18:0 19:0 20:0 21:0 22:-7 23:0 24:0 25:0 26:0 27:0 28:0 29:-5 30:0 31:0 32:0 33:0 34:5 35:0 36:0 37:0 38:0 39:-3 40:0 41:5 42:0 43:5 44:-13 45:0 46:0 47:0 48:0 49:0 50:0 51:5 52:0 53:0 54:5 55:5 56:5 57:2 58:0 59:3 60:0 61:11 62:3 63:7 64:2 
0.3146974533281175 1:-2 2:-7 3:0 4:0 5:0 6:-2 7:-11 8:0 9:-5 10:-5 11:-5 12:0 13:0 14:-5 15:-5 16:-5 17:0 18:0 19:0 20:0 21:0 22:-7 23:0 24:0 25:0 26:0 27:0 28:0 29:-5 30:0 31:0 32:0 33:0 34:5 35:0 36:0 37:0 38:0 39:-3 40:0 41:5 42:0 43:5 44:13 45:0 46:0 47:0 48:0 49:0 50:0 51:5 52:0 53:0 54:5 55:-13 56:5 57:2 58:0 59:3 60:0 61:11 62:3 63:7 64:2 
0.191355799448564 1:-2 2:-7 3:0 4:0 5:0 6:-2 7:-11 8:0 9:-5 10:-5 11:-5 12:0 13:0 14:-5 15:-5 16:-5 17:0 18:0 19:0 20:0 21:0 22:0 23:0 24:0 25:0 26:0 27:0 28:0 29:-5 30:0 31:0 32:0 33:0 34:5 35:0 36:0 37:-7 38:0 39:-3 40:0 41:5 42:0 43:5 44:0 45:0 46:0 47:0 48:0 49:0 50:0 51:5 52:0 53:0 54:5 55:5 56:5 57:2 58:0 59:3 60:0 61:11 62:3 63:7 64:2 
0.3739661094960884 1:-2 2:-7 3:0 4:0 5:0 6:-2 7:-11 8:0 9:-5 10:-5 11:-5 12:0 13:0 14:-5 15:-5 16:-5 17:0 18:0 19:0 20:0 21:0 22:-7 23:0 24:0 25:0 26:0 27:0 28:0 29:-5 30:0 31:0 32:0 33:0 34:0 35:-13 36:0 37:0 38:0 39:-3 40:0 41:5 42:5 43:0 44:13 45:0 46:0 47:0 48:0 49:0 50:0 51:5 52:0 53:0 54:5 55:5 56:5 57:2 58:0 59:3 60:0 61:11 62:3 63:7 64:2 
0.4173577195064294 1:-2 2:-7 3:0 4:0 5:0 6:-2 7:-11 8:0 9:-5 10:-5 11:-5 12:0 13:0 14:-5 15:-5 16:-5 17:0 18:0 19:0 20:0 21:0 22:-7 23:0 24:0 25:-13 26:0 27:0 28:0 29:-5 30:0 31:0 32:0 33:0 34:0 35:5 36:0 37:0 38:0 39:-3 40:0 41:5 42:5 43:5 44:13 45:0 46:0 47:0 48:0 49:0 50:0 51:0 52:0 53:0 54:5 55:5 56:5 57:2 58:0 59:3 60:0 61:11 62:3 63:7 64:2 
0.5611023877254762 1:-2 2:-7 3:0 4:0 5:0 6:-2 7:-11 8:0 9:-5 10:-5 11:-5 12:0 13:0 14:-5 15:-5 16:-5 17:0 18:0 19:0 20:0 21:0 22:-7 23:0 24:0 25:0 26:0 27:0 28:0 29:-5 30:0 31:0 32:0 33:0 34:0 35:5 36:0 37:0 38:0 39:-3 40:0 41:-13 42:5 43:5 44:13 45:0 46:0 47:0 48:0 49:0 50:0 51:0 52:0 53:0 54:5 55:5 56:5 57:2 58:0 59:3 60:0 61:11 62:3 63:7 64:2 
0.008990349357919748 1:-2 2:-7 3:0 4:0 5:0 6:-2 7:-11 8:0 9:-5 10:-5 11:-5 12:0 13:0 14:-5 15:-5 16:-5 17:0 18:0 19:0 20:0 21:0 22:-7 23:0 24:0 25:0 26:0 27:0 28:0 29:-5 30:0 31:0 32:0 33:0 34:0 35:0 36:0 37:0 38:5 39:-3 40:0 41:5 42:5 43:5 44:-13 45:0 46:0 47:0 48:0 49:0 50:0 51:5 52:0 53:0 54:0 55:5 56:5 57:2 58:0 59:3 60:0 61:11 62:3 63:7 64:2 
0.02051938352122257 1:-2 2:-7 3:0 4:0 5:0 6:-2 7:-11 8:0 9:-5 10:-5 11:-5 12:0 13:0 14:-5 15:-5 16:-5 17:0 18:0 19:0 20:0 21:0 22:-7 23:0 24:0 25:0 26:0 27:0 28:0 29:-5 30:0 31:0 32:0 33:0 34:0 35:0 36:0 37:0 38:5 39:-3 40:0 41:5 42:5 43:5 44:5 45:0 46:0 47:0 48:0 49:0 50:0 51:0 52:0 53:0 54:0 55:5 56:5 57:2 58:0 59:3 60:0 61:11 62:3 63:7 64:2 
0.3707401616342626 1:-2 2:-7 3:0 4:0 5:0 6:-2 7:-11 8:0 9:-5 10:-5 11:-5 12:0 13:0 14:-5 15:-5 16:-5 17:0 18:0 19:0 20:0 21:0 22:-7 23:0 24:0 25:0 26:0 27:0 28:0 29:0 30:0 31:0 32:0 33:0 34:0 35:0 36:0 37:0 38:-5 39:-3 40:0 41:5 42:5 43:5 44:5 45:0 46:0 47:0 48:0 49:0 50:0 51:0 52:0 53:0 54:0 55:5 56:5 57:2 58:0 59:3 60:0 61:11 62:3 63:7 64:2 
0.2777890669174655 1:-2 2:-7 3:0 4:0 5:0 6:-2 7:-11 8:0 9:-5 10:-5 11:-5 12:0 13:0 14:-5 15:-5 16:-5 17:0 18:0 19:0 20:0 21:0 22:-7 23:0 24:0 25:0 26:0 27:0 28:0 29:-5 30:0 31:0 32:0 33:0 34:0 35:0 36:0 37:0 38:5 39:-3 40:0 41:5 42:5 43:5 44:13 45:0 46:0 47:0 48:0 49:0 50:0 51:5 52:0 53:0 54:0 55:-13 56:5 57:2 58:0 59:3 60:0 61:11 62:3 63:7 64:2 
0.3667062584606316 1:-2 2:-7 3:0 4:0 5:0 6:-2 7:-11 8:0 9:-5 10:-5 11:-5 12:0 13:0 14:-5 15:-5 16:-5 17:0 18:0 19:0 20:0 21:0 22:-7 23:0 24:0 25:0 26:0 27:0 28:0 29:-5 30:0 31:0 32:0 33:0 34:0 35:0 36:0 37:0 38:5 39:-3 40:0 41:5 42:-13 43:5 44:13 45:0 46:0 47:0 48:0 49:0 50:0 51:5 52:0 53:0 54:0 55:5 56:5 57:2 58:0 59:3 60:0 61:11 62:3 63:7 64:2 
0.02085979149811326 1:-2 2:-7 3:0 4:0 5:0 6:-2 7:-11 8:0 9:-5 10:-5 11:-5 12:0 13:0 14:-5 15:-5 16:-5 17:0 18:0 19:0 20:0 21:0 22:0 23:0 24:0 25:0 26:0 27:0 28:0 29:-5 30:0 31:0 32:0 33:0 34:0 35:0 36:0 37:-7 38:5 39:-3 40:0 41:5 42:5 43:5 44:0 45:0 46:0 47:0 48:0 49:0 50:0 51:5 52:0 53:0 54:0 55:5 56:5 57:2 58:0 59:3 60:0 61:11 62:3 63:7 64:2 
0.01155010827734621 1:-2 2:-7 3:0 4:0 5:0 6:-2 7:-11 8:0 9:-5 10:-5 11:-5 12:0 13:0 14:-5 15:-5 16:-5 17:0 18:0 19:0 20:0 21:0 22:-7 23:0 24:0 25:0 26:0 27:0 28:0 29:-5 30:0 31:0 32:0 33:0 34:0 35:0 36:0 37:0 38:0 39:-3 40:5 41:5 42:5 43:5 44:-13 45:0 46:0 47:0 48:0 49:0 50:0 51:5 52:0 53:0 54:5 55:5 56:0 57:2 58:0 59:3 60:0 61:11 62:3 63:7 64:2 
0.2206772881791266 1:-2 2:-7 3:0 4:0 5:0 6:-2 7:-11 8:0 9:-5 10:-5 11:-5 12:0 13:0 14:-5 15:-5 16:-5 17:0 18:0 19:0 20:0 21:0 22:-7 23:0 24:0 25:0 26:0 27:0 28:0 29:-5 30:0 31:0 32:0 33:0 34:0 35:0 36:0 37:0 38:0 39:-3 40:5 41:5 42:-13 43:5 44:13 45:0 46:0 47:0 48:0 49:0 50:0 51:5 52:0 53:0 54:5 55:5 56:0 57:2 58:0 59:3 60:0 61:11 62:3 63:7 64:2 
0.2272701460725494 1:-2 2:-7 3:0 4:0 5:0 6:-2 7:-11 8:0 9:-5 10:-5 11:-5 12:0 13:0 14:-5 15:-5 16:-5 17:0 18:0 19:0 20:0 21:0 22:-7 23:0 24:0 25:0 26:0 27:0 28:0 29:-5 30:0 31:0 32:0 33:0 34:0 35:0 36:0 37:0 38:0 39:-3 40:5 41:5 42:5 43:5 44:13 45:0 46:0 47:0 48:0 49:0 50:0 51:5 52:0 53:0 54:5 55:-13 56:0 57:2 58:0 59:3 60:0 61:11 62:3 63:7 64:2 
0.7718473147096639 1:-2 2:-7 3:0 4:0 5:0 6:-2 7:-11 8:0 9:-5 10:-5 11:-5 12:0 13:0 14:-5 15:-5 16:-5 17:0 18:0 19:0 20:0 21:0 22:-7 23:0 24:0 25:0 26:0 27:0 28:0 29:-5 30:0 31:0 32:0 33:0 34:0 35:0 36:0 37:0 38:0 39:-3 40:0 41:5 42:5 43:5 44:5 45:0 46:0 47:0 48:0 49:0 50:0 51:0 52:0 53:7 54:5 55:5 56:5 57:2 58:0 59:3 60:0 61:11 62:3 63:0 64:2 
0.1581625658758185 1:-2 2:-7 3:0 4:0 5:0 6:-2 7:-11 8:0 9:-5 10:-5 11:-5 12:0 13:0 14:-5 15:-5 16:-5 17:0 18:0 19:0 20:0 21:0 22:-7 23:0 24:0 25:0 26:0 27:0 28:0 29:-5 30:0 31:0 32:0 33:0 34:0 35:0 36:0 37:0 38:0 39:-3 40:0 41:5 42:5 43:5 44:13 45:0 46:0 47:0 48:0 49:0 50:0 51:5 52:0 53:7 54:5 55:-13 56:5 57:2 58:0 59:3 60:0 61:11 62:3 63:0 64:2 
0.3652358681055365 1:-2 2:-7 3:0 4:0 5:0 6:-2 7:-11 8:0 9:-5 10:-5 11:-5 12:0 13:0 14:-5 15:-5 16:-5 17:0 18:0 19:0 20:0 21:0 22:-7 23:0 24:0 25:0 26:0 27:0 28:0 29:-5 30:0 31:0 32:0 33:0 34:0 35:0 36:0 37:0 38:0 39:-3 40:0 41:5 42:-13 43:5 44:13 45:0 46:0 47:0 48:0 49:0 50:0 51:5 52:0 53:7 54:5 55:5 56:5 57:2 58:0 59:3 60:0 61:11 62:3 63:0 64:2 
0.03559151001199706 1:-2 2:-7 3:0 4:0 5:0 6:-2 7:-11 8:0 9:-5 10:-5 11:-5 12:0 13:0 14:-5 15:-5 16:-5 17:0 18:0 19:0 20:0 21:0 22:-7 23:0 24:0 25:0 26:0 27:0 28:0 29:-5 30:0 31:0 32:0 33:0 34:0 35:0 36:0 37:0 38:0 39:-3 40:0 41:5 42:5 43:5 44:-13 45:0 46:7 47:0 48:0 49:0 50:0 51:5 52:0 53:0 54:5 55:5 56:5 57:2 58:0 59:3 60:0 61:11 62:3 63:0 64:2 
0.8480873644145926 1:-2 2:-7 3:0 4:0 5:0 6:-2 7:-11 8:0 9:-5 10:-5 11:-5 12:0 13:0 14:-5 15:-5 16:-5 17:0 18:0 19:0 20:0 21:0 22:-7 23:0 24:0 25:0 26:0 27:0 28:0 29:-5 30:0 31:0 32:0 33:0 34:0 35:0 36:0 37:0 38:0 39:-3 40:0 41:5 42:5 43:5 44:5 45:0 46:7 47:0 48:0 49:0 50:0 51:0 52:0 53:0 54:5 55:5 56:5 57:2 58:0 59:3 60:0 61:11 62:3 63:0 64:2 
0.3000640990824013 1:-2 2:-7 3:0 4:0 5:0 6:-2 7:-11 8:0 9:-5 10:-5 11:-5 12:0 13:0 14:-5 15:-5 16:-5 17:0 18:0 19:0 20:0 21:0 22:-7 23:0 24:0 25:0 26:0 27:0 28:0 29:-5 30:0 31:0 32:0 33:0 34:0 35:0 36:0 37:0 38:0 39:0 40:0 41:5 42:5 43:5 44:5 45:0 46:-3 47:0 48:0 49:0 50:0 51:0 52:0 53:0 54:5 55:5 56:5 57:2 58:0 59:3 60:0 61:11 62:3 63:0 64:2 
0.04463719031861575 1:-2 2:-7 3:0 4:0 5:0 6:-2 7:-11 8:0 9:-5 10:-5 11:-5 12:0 13:0 14:-5 15:-5 16:-5 17:0 18:0 19:0 20:0 21:0 22:-7 23:0 24:0 25:0 26:0 27:0 28:-13 29:-5 30:0 31:0 32:0 33:0 34:0 35:0 36:0 37:0 38:0 39:0 40:0 41:5 42:5 43:5 44:13 45:0 46:-3 47:0 48:0 49:0 50:0 51:5 52:0 53:0 54:5 55:5 56:5 57:2 58:0 59:3 60:0 61:11 62:3 63:0 64:2 
0.5389484853795448 1:-2 2:-7 3:0 4:0 5:0 6:-2 7:-11 8:0 9:-5 10:-5 11:-5 12:0 13:0 14:-5 15:-5 16:-5 17:0 18:0 19:0 20:0 21:0 22:0 23:0 24:0 25:0 26:0 27:0 28:0 29:-5 30:0 31:0 32:0 33:0 34:0 35:0 36:0 37:0 38:0 39:0 40:0 41:5 42:5 43:-7 44:0 45:0 46:5 47:0 48:0 49:0 50:0 51:5 52:0 53:0 54:5 55:0 56:5 57:2 58:0 59:3 60:0 61:11 62:3 63:0 64:2 
0.309527197319911 1:-2 2:-7 3:0 4:0 5:0 6:-2 7:-11 8:0 9:-5 10:-5 11:-5 12:0 13:0 14:-5 15:-5 16:-5 17:0 18:0 19:0 20:0 21:0 22:-7 23:0 24:0 25:0 26:0 27:0 28:-13 29:-5 30:0 31:0 32:0 33:0 34:0 35:0 36:0 37:0 38:0 39:0 40:0 41:5 42:5 43:5 44:13 45:0 46:5 47:0 48:0 49:0 50:0 51:5 52:0 53:0 54:5 55:0 56:5 57:2 58:0 59:3 60:0 61:11 62:3 63:0 64:2 
0.02873192821174665 1:-2 2:-7 3:0 4:0 5:0 6:-2 7:-11 8:0 9:-5 10:-5 11:-5 12:0 13:0 14:-5 15:-5 16:-5 17:0 18:0 19:0 20:0 21:0 22:-7 23:0 24:0 25:0 26:0 27:0 28:0 29:-5 30:0 31:0 32:0 33:0 34:0 35:0 36:0 37:0 38:0 39:0 40:0 41:5 42:5 43:5 44:-13 45:0 46:5 47:0 48:0 49:0 50:0 51:5 52:0 53:0 54:5 55:0 56:5 57:2 58:0 59:3 60:0 61:11 62:3 63:0 64:2 
0.8597569983137789 1:-2 2:-7 3:0 4:0 5:0 6:-2 7:-11 8:0 9:-5 10:-5 11:-5 12:0 13:0 14:-5 15:-5 16:-5 17:0 18:0 19:0 20:0 21:0 22:-7 23:0 24:0 25:0 26:0 27:0 28:0 29:-5 30:0 31:0 32:0 33:0 34:0 35:0 36:0 37:0 38:0 39:0 40:0 41:5 42:5 43:5 44:13 45:0 46:-13 47:0 48:0 49:0 50:0 51:5 52:0 53:0 54:5 55:0 56:5 57:2 58:0 59:3 60:0 61:11 62:3 63:0 64:2 
0.4619401276299411 1:-2 2:-7 3:0 4:0 5:0 6:-2 7:-11 8:0 9:-5 10:-5 11:-5 12:0 13:0 14:-5 15:-5 16:-5 17:0 18:0 19:0 20:0 21:0 22:-7 23:0 24:0 25:0 26:0 27:0 28:0 29:-5 30:0 31:0 32:0 33:0 34:0 35:0 36:0 37:0 38:0 39:-3 40:0 41:5 42:5 43:5 44:5 45:0 46:0 47:0 48:7 49:0 50:0 51:0 52:0 53:0 54:5 55:5 56:5 57:2 58:0 59:3 60:0 61:11 62:3 63:0 64:2 
0.9413541460954802 1:-2 2:-7 3:0 4:0 5:0 6:-2 7:-11 8:0 9:-5 10:-5 11:-5 12:0 13:0 14:-5 15:-5 16:-5 17:0 18:0 19:0 20:0 21:0 22:-7 23:0 24:0 25:0 26:0 27:0 28:0 29:-5 30:0 31:0 32:0 33:0 34:0 35:0 36:0 37:0 38:0 39:0 40:0 41:5 42:5 43:5 44:5 45:0 46:0 47:0 48:5 49:0 50:0 51:0 52:0 53:0 54:5 55:0 56:5 57:2 58:0 59:3 60:0 61:11 62:3 63:0 64:2 
1 1:-2 2:-7 3:0 4:0 5:0 6:-2 7:-11 8:0 9:-5 10:-5 11:-5 12:0 13:0 14:-5 15:-5 16:-5 17:0 18:0 19:0 20:0 21:0 22:0 23:0 24:0 25:0 26:0 27:0 28:0 29:-5 30:0 31:0 32:0 33:0 34:0 35:0 36:0 37:0 38:0 39:0 40:0 41:5 42:5 43:-7 44:0 45:0 46:0 47:0 48:5 49:0 50:0 51:5 52:0 53:0 54:5 55:0 56:5 57:2 58:0 59:3 60:0 61:11 62:3 63:0 64:2 
0.2626697281141528 1:-2 2:-7 3:0 4:0 5:0 6:-2 7:-11 8:0 9:-5 10:-5 11:-5 12:0 13:0 14:-5 15:-5 16:-5 17:0 18:0 19:0 20:0 21:0 22:-7 23:0 24:0 25:0 26:0 27:0 28:0 29:-5 30:0 31:0 32:0 33:0 34:0 35:0 36:0 37:0 38:0 39:-3 40:0 41:5 42:5 43:5 44:13 45:0 46:0 47:0 48:7 49:0 50:0 51:5 52:0 53:0 54:5 55:-13 56:5 57:2 58:0 59:3 60:0 61:11 62:3 63:0 64:2 
0.03268380278834198 1:-2 2:-7 3:0 4:0 5:0 6:-2 7:-11 8:0 9:-5 10:-5 11:-5 12:0 13:0 14:-5 15:-5 16:-5 17:0 18:0 19:0 20:0 21:0 22:-7 23:0 24:0 25:0 26:0 27:0 28:0 29:-5 30:0 31:0 32:0 33:0 34:0 35:0 36:0 37:0 38:0 39:-3 40:0 41:5 42:-13 43:5 44:13 45:0 46:0 47:0 48:0 49:0 50:3 51:5 52:0 53:0 54:5 55:5 56:5 57:2 58:0 59:0 60:0 61:11 62:3 63:7 64:2 
0.07567431130215062 1:-2 2:-7 3:0 4:0 5:0 6:-2 7:-11 8:0 9:-5 10:-5 11:-5 12:0 13:0 14:-5 15:-5 16:-5 17:0 18:0 19:0 20:0 21:0 22:-7 23:0 24:0 25:0 26:0 27:0 28:0 29:-5 30:0 31:0 32:0 33:0 34:0 35:0 36:0 37:0 38:0 39:-3 40:0 41:5 42:5 43:5 44:13 45:0 46:0 47:0 48:0 49:0 50:3 51:5 52:0 53:0 54:5 55:-13 56:5 57:2 58:0 59:0 60:0 61:11 62:3 63:7 64:2 
0.09263727475024457 1:-2 2:-7 3:0 4:0 5:0 6:-2 7:-11 8:0 9:-5 10:-5 11:-5 12:0 13:0 14:-5 15:-5 16:-5 17:0 18:0 19:0 20:0 21:0 22:-7 23:0 24:0 25:0 26:0 27:0 28:0 29:-5 30:0 31:0 32:0 33:0 34:0 35:0 36:0 37:0 38:0 39:-3 40:0 41:5 42:5 43:5 44:13 45:3 46:0 47:0 48:0 49:0 50:0 51:5 52:0 53:0 54:5 55:-13 56:5 57:2 58:0 59:0 60:0 61:11 62:3 63:7 64:2 
0.4722506796981963 1:-2 2:-7 3:0 4:0 5:0 6:-2 7:-11 8:0 9:-5 10:-5 11:-5 12:0 13:0 14:-5 15:-5 16:-5 17:0 18:0 19:0 20:0 21:0 22:-7 23:0 24:0 25:0 26:0 27:0 28:0 29:-5 30:0 31:0 32:0 33:0 34:0 35:0 36:0 37:0 38:3 39:-3 40:0 41:5 42:5 43:5 44:3 45:0 46:0 47:0 48:0 49:0 50:0 51:5 52:0 53:0 54:5 55:5 56:5 57:2 58:0 59:0 60:0 61:11 62:0 63:7 64:2 
0.08010925840859558 1:-2 2:-7 3:0 4:0 5:0 6:-2 7:-11 8:0 9:-5 10:-5 11:-5 12:0 13:0 14:-5 15:-5 16:-5 17:0 18:0 19:0 20:0 21:0 22:-7 23:0 24:0 25:0 26:0 27:0 28:0 29:3 30:0 31:0 32:0 33:0 34:0 35:0 36:0 37:0 38:0 39:-3 40:0 41:5 42:5 43:5 44:-13 45:0 46:0 47:0 48:0 49:0 50:0 51:5 52:0 53:0 54:5 55:5 56:5 57:2 58:0 59:0 60:0 61:11 62:3 63:7 64:2 
0.03855904344342954 1:-2 2:-7 3:0 4:0 5:0 6:-2 7:-11 8:0 9:-5 10:-5 11:-5 12:0 13:0 14:-5 15:-5 16:-5 17:0 18:0 19:0 20:0 21:0 22:-7 23:0 24:0 25:0 26:0 27:0 28:-13 29:0 30:0 31:0 32:0 33:0 34:0 35:0 36:0 37:0 38:-5 39:-3 40:0 41:5 42:5 43:5 44:13 45:0 46:0 47:0 48:0 49:0 50:0 51:5 52:0 53:0 54:5 55:5 56:5 57:2 58:0 59:0 60:0 61:11 62:3 63:7 64:2 
0.3354397178632527 1:-2 2:-7 3:0 4:0 5:0 6:-2 7:-11 8:0 9:-5 10:-5 11:-5 12:0 13:0 14:-5 15:-5 16:-7 17:0 18:0 19:0 20:0 21:0 22:0 23:0 24:0 25:0 26:0 27:0 28:-13 29:0 30:0 31:0 32:0 33:0 34:0 35:0 36:0 37:0 38:-5 39:-3 40:0 41:5 42:5 43:5 44:0 45:0 46:0 47:0 48:0 49:0 50:0 51:5 52:0 53:0 54:5 55:5 56:5 57:2 58:0 59:0 60:0 61:11 62:3 63:7 64:2 
0.7756364331594684 1:-2 2:-7 3:0 4:0 5:0 6:-2 7:-11 8:0 9:-5 10:-5 11:-5 12:0 13:0 14:-5 15:-5 16:-5 17:0 18:0 19:0 20:0 21:0 22:0 23:0 24:0 25:0 26:0 27:0 28:0 29:-5 30:0 31:0 32:0 33:0 34:0 35:0 36:0 37:-7 38:3 39:-3 40:0 41:5 42:5 43:5 44:0 45:0 46:0 47:0 48:0 49:0 50:0 51:5 52:0 53:0 54:5 55:5 56:5 57:2 58:0 59:0 60:0 61:11 62:3 63:7 64:2 
0.2355149410888702 1:-2 2:-7 3:0 4:0 5:0 6:-2 7:-11 8:0 9:-5 10:-5 11:-5 12:0 13:0 14:-5 15:0 16:-5 17:0 18:0 19:0 20:0 21:0 22:-7 23:0 24:-5 25:0 26:0 27:0 28:0 29:-5 30:0 31:0 32:0 33:0 34:0 35:0 36:0 37:0 38:0 39:-3 40:0 41:5 42:5 43:5 44:5 45:0 46:0 47:0 48:0 49:0 50:0 51:0 52:0 53:0 54:5 55:5 56:5 57:2 58:0 59:0 60:0 61:11 62:3 63:7 64:2 
0.2008664514476279 1:-2 2:-7 3:0 4:0 5:0 6:-2 7:-11 8:0 9:-5 10:-5 11:-5 12:0 13:0 14:-5 15:3 16:-5 17:0 18:0 19:0 20:0 21:0 22:-7 23:0 24:0 25:0 26:0 27:0 28:0 29:-5 30:0 31:0 32:0 33:0 34:0 35:0 36:0 37:0 38:0 39:-3 40:0 41:5 42:5 43:5 44:-13 45:0 46:0 47:0 48:0 49:0 50:0 51:5 52:0 53:0 54:5 55:5 56:5 57:2 58:0 59:0 60:0 61:11 62:3 63:7 64:2 
0.06575397009454446 1:-2 2:-7 3:0 4:0 5:0 6:-2 7:-11 8:0 9:-5 10:-5 11:-5 12:0 13:0 14:-5 15:0 16:-5 17:0 18:0 19:0 20:0 21:0 22:-7 23:0 24:-5 25:0 26:0 27:0 28:-13 29:-5 30:0 31:0 32:0 33:0 34:0 35:0 36:0 37:0 38:0 39:-3 40:0 41:5 42:5 43:5 44:13 45:0 46:0 47:0 48:0 49:0 50:0 51:5 52:0 53:0 54:5 55:5 56:5 57:2 58:0 59:0 60:0 61:11 62:3 63:7 64:2 
0.2160316263441897 1:-2 2:-7 3:0 4:0 5:0 6:-2 7:-11 8:0 9:-5 10:-5 11:-5 12:0 13:0 14:-5 15:0 16:-5 17:0 18:0 19:0 20:0 21:0 22:0 23:0 24:-5 25:0 26:0 27:0 28:-7 29:-5 30:0 31:0 32:0 33:0 34:0 35:0 36:0 37:0 38:0 39:-3 40:0 41:5 42:5 43:5 44:0 45:0 46:0 47:0 48:0 49:0 50:0 51:5 52:0 53:0 54:5 55:5 56:5 57:2 58:0 59:0 60:0 61:11 62:3 63:7 64:2 
0.1031064587758616 1:-2 2:-7 3:0 4:0 5:0 6:-2 7:-11 8:0 9:-5 10:-5 11:-5 12:0 13:0 14:-5 15:0 16:-7 17:0 18:0 19:0 20:0 21:0 22:0 23:0 24:-5 25:0 26:0 27:0 28:-13 29:-5 30:0 31:0 32:0 33:0 34:0 35:0 36:0 37:0 38:0 39:-3 40:0 41:5 42:5 43:5 44:0 45:0 46:0 47:0 48:0 49:0 50:0 51:5 52:0 53:0 54:5 55:5 56:5 57:2 58:0 59:0 60:0 61:11 62:3 63:7 64:2 
0.2399768421856161 1:-2 2:-7 3:0 4:0 5:0 6:-2 7:-11 8:0 9:-5 10:-5 11:-5 12:0 13:0 14:0 15:0 16:-5 17:0 18:0 19:0 20:0 21:0 22:-7 23:-5 24:-5 25:0 26:0 27:0 28:-13 29:-5 30:0 31:0 32:0 33:0 34:0 35:0 36:0 37:0 38:0 39:-3 40:0 41:5 42:5 43:5 44:0 45:0 46:0 47:0 48:0 49:0 50:0 51:5 52:0 53:0 54:5 55:5 56:5 57:2 58:0 59:0 60:0 61:11 62:3 63:7 64:2 
0.07632086097988235 1:-2 2:-7 3:0 4:0 5:0 6:-2 7:-11 8:0 9:-5 10:-5 11:-5 12:0 13:0 14:-5 15:-5 16:-5 17:0 18:0 19:0 20:0 21:0 22:-7 23:0 24:3 25:0 26:0 27:0 28:0 29:-5 30:0 31:0 32:0 33:0 34:0 35:0 36:0 37:0 38:0 39:-3 40:0 41:5 42:5 43:5 44:13 45:0 46:0 47:0 48:0 49:0 50:0 51:5 52:0 53:0 54:5 55:-13 56:5 57:2 58:0 59:0 60:0 61:11 62:3 63:7 64:2 
0.03391475999157282 1:-2 2:-7 3:0 4:0 5:0 6:-2 7:-11 8:0 9:-5 10:-5 11:-5 12:0 13:0 14:-5 15:-5 16:-5 17:0 18:0 19:0 20:0 21:0 22:-7 23:0 24:3 25:0 26:0 27:0 28:0 29:-5 30:0 31:0 32:0 33:0 34:0 35:0 36:0 37:0 38:0 39:-3 40:0 41:5 42:-13 43:5 44:13 45:0 46:0 47:0 48:0 49:0 50:0 51:5 52:0 53:0 54:5 55:5 56:5 57:2 58:0 59:0 60:0 61:11 62:3 63:7 64:2 
0.3463244812300819 1:-2 2:-7 3:0 4:0 5:0 6:-2 7:-11 8:0 9:-5 10:-5 11:-5 12:0 13:0 14:-5 15:-5 16:-5 17:0 18:0 19:0 20:0 21:0 22:-7 23:0 24:0 25:0 26:0 27:0 28:0 29:-5 30:0 31:0 32:0 33:0 34:0 35:0 36:0 37:0 38:0 39:0 40:0 41:5 42:5 43:5 44:5 45:0 46:0 47:0 48:0 49:0 50:0 51:0 52:0 53:-3 54:5 55:5 56:5 57:2 58:0 59:3 60:0 61:11 62:0 63:7 64:2 
1 1:-2 2:-7 3:0 4:0 5:0 6:-2 7:-11 8:0 9:-5 10:-5 11:-5 12:0 13:0 14:-5 15:-5 16:-5 17:0 18:0 19:0 20:0 21:0 22:-7 23:0 24:0 25:0 26:0 27:0 28:0 29:-5 30:0 31:0 32:0 33:0 34:0 35:0 36:0 37:0 38:0 39:0 40:0 41:5 42:5 43:5 44:5 45:0 46:0 47:0 48:0 49:0 50:0 51:0 52:0 53:7 54:5 55:5 56:5 57:2 58:0 59:3 60:0 61:11 62:0 63:0 64:2 
0.008401049562990244 1:-2 2:-7 3:0 4:0 5:0 6:-2 7:-11 8:0 9:-5 10:-5 11:-5 12:0 13:0 14:-5 15:-5 16:-5 17:0 18:0 19:0 20:0 21:0 22:-7 23:0 24:0 25:0 26:0 27:0 28:0 29:-5 30:0 31:0 32:0 33:0 34:0 35:0 36:0 37:0 38:0 39:3 40:0 41:5 42:5 43:5 44:13 45:0 46:0 47:0 48:0 49:0 50:0 51:5 52:0 53:0 54:5 55:0 56:5 57:2 58:0 59:3 60:0 61:11 62:0 63:7 64:-13 
0.2971663614179691 1:-2 2:-7 3:0 4:0 5:0 6:-2 7:-11 8:0 9:-5 10:-5 11:-5 12:0 13:0 14:-5 15:-5 16:-7 17:0 18:0 19:0 20:0 21:0 22:0 23:0 24:0 25:0 26:0 27:0 28:0 29:-5 30:0 31:0 32:0 33:0 34:0 35:0 36:0 37:0 38:0 39:3 40:0 41:5 42:5 43:5 44:0 45:0 46:0 47:0 48:0 49:0 50:0 51:5 52:0 53:0 54:5 55:0 56:5 57:2 58:0 59:3 60:0 61:11 62:0 63:7 64:-13 
0.04944392349547332 1:-2 2:-7 3:0 4:0 5:0 6:-2 7:-11 8:0 9:-5 10:-5 11:-5 12:0 13:0 14:-5 15:-5 16:-7 17:0 18:0 19:0 20:0 21:0 22:0 23:0 24:0 25:0 26:0 27:0 28:0 29:-5 30:0 31:0 32:0 33:0 34:0 35:0 36:0 37:0 38:0 39:-3 40:0 41:5 42:5 43:5 44:0 45:0 46:0 47:0 48:0 49:0 50:0 51:5 52:0 53:3 54:5 55:-13 56:5 57:2 58:0 59:3 60:0 61:11 62:0 63:7 64:2 
0.02055293473851917 1:-2 2:-7 3:0 4:0 5:0 6:-2 7:-11 8:0 9:-5 10:-5 11:-5 12:0 13:0 14:-5 15:-5 16:-7 17:0 18:0 19:0 20:0 21:0 22:0 23:0 24:0 25:0 26:0 27:0 28:0 29:-5 30:0 31:0 32:0 33:0 34:0 35:0 36:0 37:0 38:0 39:3 40:0 41:5 42:5 43:5 44:0 45:0 46:0 47:0 48:0 49:0 50:0 51:5 52:0 53:0 54:5 55:-13 56:5 57:2 58:0 59:3 60:0 61:11 62:0 63:7 64:2 
0.365414547836902 1:-2 2:-7 3:0 4:0 5:0 6:-2 7:-11 8:0 9:-5 10:-5 11:-5 12:0 13:0 14:-5 15:-5 16:-5 17:0 18:0 19:0 20:0 21:0 22:-7 23:0 24:0 25:0 26:0 27:0 28:0 29:-5 30:0 31:0 32:0 33:0 34:0 35:0 36:0 37:-13 38:0 39:-3 40:0 41:5 42:5 43:5 44:0 45:0 46:0 47:0 48:0 49:0 50:0 51:5 52:11 53:0 54:5 55:5 56:5 57:2 58:0 59:3 60:13 61:0 62:3 63:7 64:2 
0.09929934140763086 1:-2 2:-7 3:0 4:0 5:0 6:-2 7:-11 8:0 9:-5 10:-5 11:-5 12:0 13:0 14:-5 15:-5 16:-5 17:0 18:0 19:0 20:0 21:0 22:-7 23:0 24:0 25:0 26:0 27:0 28:0 29:-5 30:0 31:0 32:0 33:0 34:0 35:0 36:0 37:-13 38:0 39:0 40:0 41:5 42:5 43:5 44:0 45:0 46:0 47:0 48:0 49:0 50:0 51:5 52:11 53:0 54:5 55:5 56:5 57:2 58:0 59:3 60:-3 61:0 62:3 63:7 64:2 
0.4897217430991181 1:-2 2:-7 3:0 4:0 5:0 6:-2 7:-11 8:0 9:-5 10:-5 11:-5 12:0 13:0 14:-5 15:-5 16:-5 17:0 18:0 19:0 20:0 21:0 22:-7 23:0 24:0 25:0 26:0 27:0 28:0 29:-5 30:0 31:0 32:0 33:0 34:0 35:0 36:0 37:0 38:0 39:-3 40:0 41:5 42:5 43:5 44:0 45:0 46:0 47:0 48:0 49:0 50:0 51:5 52:11 53:0 54:5 55:-13 56:5 57:2 58:0 59:3 60:13 61:0 62:3 63:7 64:2 
0.2147378745127168 1:-2 2:-7 3:0 4:0 5:0 6:-2 7:-11 8:0 9:-5 10:-5 11:-5 12:0 13:0 14:-5 15:-5 16:-5 17:0 18:0 19:0 20:0 21:0 22:-7 23:0 24:0 25:0 26:0 27:0 28:-13 29:-5 30:0 31:0 32:0 33:0 34:0 35:0 36:0 37:0 38:0 39:-3 40:0 41:5 42:5 43:5 44:0 45:0 46:0 47:0 48:0 49:0 50:0 51:5 52:13 53:0 54:5 55:5 56:5 57:2 58:0 59:3 60:0 61:11 62:3 63:7 64:2 
0.319519207307627 1:-2 2:-7 3:0 4:0 5:0 6:-2 7:-11 8:0 9:-5 10:-5 11:-5 12:0 13:0 14:-5 15:-5 16:-5 17:0 18:0 19:0 20:0 21:0 22:-7 23:0 24:0 25:0 26:0 27:0 28:0 29:-5 30:0 31:0 32:0 33:0 34:0 35:0 36:0 37:0 38:0 39:-3 40:0 41:5 42:5 43:5 44:0 45:0 46:0 47:0 48:0 49:0 50:0 51:5 52:13 53:0 54:5 55:-13 56:5 57:2 58:0 59:3 60:0 61:11 62:3 63:7 64:2 
0.4724842359619894 1:-2 2:-7 3:0 4:0 5:0 6:-2 7:-11 8:0 9:-5 10:-5 11:-5 12:0 13:0 14:-5 15:-5 16:-5 17:0 18:0 19:0 20:0 21:0 22:-7 23:0 24:0 25:0 26:0 27:0 28:0 29:-5 30:0 31:0 32:0 33:0 34:0 35:0 36:0 37:0 38:0 39:-3 40:0 41:5 42:-13 43:5 44:0 45:0 46:0 47:0 48:0 49:0 50:0 51:5 52:13 53:0 54:5 55:5 56:5 57:2 58:0 59:3 60:0 61:11 62:3 63:7 64:2 
0.3268378157380127 1:-2 2:-7 3:0 4:0 5:0 6:-2 7:-11 8:0 9:-5 10:-5 11:-5 12:0 13:0 14:-5 15:-5 16:-5 17:0 18:0 19:0 20:0 21:0 22:-7 23:0 24:0 25:0 26:0 27:0 28:0 29:-5 30:0 31:0 32:0 33:0 34:0 35:0 36:0 37:-13 38:0 39:-3 40:0 41:5 42:5 43:5 44:0 45:0 46:0 47:0 48:0 49:0 50:0 51:5 52:13 53:7 54:5 55:5 56:5 57:2 58:0 59:3 60:0 61:11 62:3 63:0 64:2 
0.2970946022097294 1:-2 2:-7 3:0 4:0 5:0 6:-2 7:-11 8:0 9:-5 10:-5 11:-5 12:0 13:0 14:-5 15:-5 16:-5 17:0 18:0 19:0 20:0 21:0 22:-7 23:0 24:0 25:0 26:0 27:0 28:0 29:-5 30:0 31:0 32:0 33:0 34:0 35:0 36:0 37:-13 38:0 39:0 40:0 41:5 42:5 43:5 44:0 45:0 46:0 47:0 48:0 49:0 50:0 51:5 52:13 53:3 54:5 55:5 56:5 57:2 58:0 59:3 60:0 61:11 62:0 63:0 64:2 
0.4855805792495725 1:-2 2:-7 3:0 4:0 5:0 6:-2 7:-11 8:0 9:-5 10:-5 11:-5 12:0 13:0 14:-5 15:-5 16:-5 17:0 18:0 19:0 20:0 21:0 22:-7 23:0 24:0 25:0 26:0 27:0 28:0 29:-5 30:0 31:0 32:0 33:0 34:0 35:0 36:0 37:0 38:0 39:0 40:0 41:5 42:5 43:5 44:0 45:0 46:0 47:0 48:0 49:0 50:0 51:-13 52:13 53:3 54:5 55:5 56:5 57:2 58:0 59:3 60:0 61:11 62:0 63:0 64:2 
0.3731553275274452 1:-2 2:-7 3:0 4:0 5:0 6:-2 7:-11 8:0 9:-5 10:-5 11:-5 12:0 13:0 14:-5 15:-5 16:-5 17:0 18:0 19:0 20:0 21:0 22:-7 23:0 24:0 25:0 26:0 27:0 28:0 29:-5 30:0 31:0 32:0 33:0 34:0 35:0 36:0 37:0 38:0 39:0 40:0 41:5 42:5 43:5 44:0 45:0 46:0 47:0 48:0 49:0 50:0 51:5 52:13 53:3 54:5 55:-13 56:5 57:2 58:0 59:3 60:0 61:11 62:0 63:0 64:2 
0.1298385959386041 1:-2 2:-7 3:0 4:0 5:0 6:-2 7:-11 8:0 9:-5 10:-5 11:-5 12:0 13:0 14:-5 15:-5 16:-5 17:0 18:0 19:0 20:0 21:0 22:-7 23:0 24:0 25:0 26:0 27:0 28:-13 29:-5 30:0 31:0 32:0 33:0 34:0 35:0 36:0 37:0 38:0 39:-3 40:0 41:5 42:5 43:5 44:0 45:0 46:0 47:0 48:0 49:0 50:0 51:5 52:0 53:13 54:5 55:5 56:5 57:2 58:0 59:3 60:0 61:11 62:3 63:7 64:2 
0.1506303382372014 1:-2 2:-7 3:0 4:0 5:0 6:-2 7:-11 8:0 9:-5 10:-5 11:-5 12:0 13:0 14:-5 15:-5 16:-5 17:0 18:0 19:0 20:0 21:0 22:-7 23:0 24:0 25:0 26:0 27:0 28:-13 29:-5 30:0 31:0 32:0 33:0 34:0 35:0 36:0 37:0 38:0 39:0 40:0 41:5 42:5 43:5 44:0 45:0 46:0 47:0 48:0 49:0 50:0 51:5 52:0 53:7 54:5 55:5 56:5 57:2 58:0 59:3 60:0 61:11 62:3 63:0 64:2 
0.2737782287290392 1:-2 2:-7 3:0 4:0 5:0 6:-2 7:-11 8:0 9:-5 10:-5 11:-5 12:0 13:0 14:-5 15:-5 16:-5 17:0 18:0 19:0 20:0 21:0 22:-7 23:0 24:0 25:0 26:0 27:0 28:0 29:-5 30:0 31:0 32:0 33:0 34:0 35:0 36:0 37:0 38:0 39:0 40:0 41:5 42:5 43:5 44:0 45:0 46:0 47:0 48:0 49:0 50:0 51:5 52:0 53:7 54:5 55:-13 56:5 57:2 58:0 59:3 60:0 61:11 62:3 63:0 64:2 
0.4622832137220752 1:-2 2:-7 3:0 4:0 5:0 6:-2 7:-11 8:0 9:-5 10:-5 11:-5 12:0 13:0 14:-5 15:-5 16:-5 17:0 18:0 19:0 20:0 21:0 22:-7 23:0 24:0 25:0 26:0 27:0 28:0 29:-5 30:0 31:0 32:0 33:0 34:0 35:0 36:0 37:0 38:0 39:-3 40:0 41:5 42:-13 43:5 44:0 45:0 46:0 47:0 48:0 49:0 50:0 51:5 52:0 53:13 54:5 55:5 56:5 57:2 58:0 59:3 60:0 61:11 62:3 63:7 64:2 
0.09330475670358312 1:-2 2:-7 3:0 4:0 5:0 6:-2 7:-11 8:0 9:-5 10:-5 11:-5 12:0 13:0 14:-5 15:-5 16:-5 17:0 18:0 19:0 20:0 21:0 22:-7 23:0 24:0 25:0 26:0 27:0 28:0 29:-5 30:0 31:0 32:0 33:0 34:0 35:0 36:0 37:0 38:0 39:0 40:0 41:5 42:5 43:5 44:0 45:0 46:0 47:0 48:0 49:0 50:0 51:5 52:0 53:0 54:5 55:5 56:5 57:2 58:0 59:3 60:-3 61:11 62:3 63:7 64:2 
0.2275794881841369 1:-2 2:-7 3:0 4:0 5:0 6:-2 7:-11 8:0 9:-5 10:-5 11:-5 12:0 13:0 14:-5 15:-5 16:-5 17:0 18:0 19:0 20:0 21:0 22:-7 23:0 24:0 25:0 26:0 27:0 28:-13 29:-5 30:0 31:0 32:0 33:0 34:0 35:0 36:0 37:0 38:0 39:-3 40:0 41:5 42:5 43:5 44:0 45:13 46:0 47:0 48:0 49:0 50:0 51:5 52:0 53:0 54:5 55:5 56:5 57:2 58:0 59:3 60:0 61:11 62:3 63:7 64:2 
0.468728682633772 1:-2 2:-7 3:0 4:0 5:0 6:-2 7:-11 8:0 9:-5 10:-5 11:-5 12:0 13:0 14:-5 15:-5 16:-5 17:0 18:0 19:0 20:0 21:0 22:-7 23:0 24:0 25:0 26:0 27:0 28:0 29:-5 30:0 31:0 32:0 33:0 34:0 35:0 36:0 37:0 38:0 39:-3 40:0 41:5 42:-13 43:5 44:0 45:13 46:0 47:0 48:0 49:0 50:0 51:5 52:0 53:0 54:5 55:5 56:5 57:2 58:0 59:3 60:0 61:11 62:3 63:7 64:2 
0.6406724411454091 1:-2 2:-7 3:0 4:0 5:0 6:-2 7:-11 8:0 9:-5 10:-5 11:-5 12:0 13:0 14:-5 15:-5 16:-5 17:0 18:0 19:0 20:0 21:0 22:-7 23:0 24:0 25:0 26:0 27:0 28:-13 29:-5 30:0 31:0 32:0 33:0 34:0 35:0 36:0 37:0 38:0 39:0 40:0 41:5 42:5 43:5 44:0 45:0 46:5 47:0 48:0 49:0 50:0 51:5 52:0 53:0 54:5 55:0 56:5 57:2 58:0 59:3 60:0 61:11 62:3 63:7 64:2 
0.1924266236303758 1:-2 2:-7 3:0 4:0 5:0 6:-2 7:-11 8:0 9:-5 10:-5 11:-5 12:0 13:0 14:-5 15:-5 16:-5 17:0 18:0 19:0 20:0 21:0 22:-7 23:0 24:0 25:0 26:0 27:0 28:0 29:-5 30:0 31:0 32:0 33:0 34:0 35:0 36:0 37:0 38:0 39:0 40:0 41:5 42:-13 43:5 44:0 45:0 46:5 47:0 48:0 49:0 50:0 51:5 52:0 53:0 54:5 55:0 56:5 57:2 58:0 59:3 60:0 61:11 62:3 63:7 64:2 
0.2683112345820387 1:-2 2:-7 3:0 4:0 5:0 6:-2 7:-11 8:0 9:-5 10:-5 11:-5 12:0 13:0 14:-5 15:-5 16:-5 17:0 18:0 19:0 20:0 21:0 22:-7 23:0 24:0 25:0 26:0 27:0 28:0 29:-5 30:0 31:0 32:0 33:0 34:0 35:0 36:0 37:0 38:0 39:0 40:0 41:5 42:5 43:5 44:0 45:0 46:-13 47:0 48:0 49:0 50:0 51:5 52:0 53:0 54:5 55:0 56:5 57:2 58:0 59:3 60:0 61:11 62:3 63:7 64:2 
0.0915063973438114 1:-2 2:-7 3:0 4:0 5:0 6:-2 7:-11 8:0 9:-5 10:-5 11:-5 12:0 13:0 14:-5 15:-5 16:-5 17:0 18:0 19:0 20:0 21:0 22:-7 23:0 24:0 25:0 26:0 27:0 28:0 29:-5 30:0 31:0 32:0 33:0 34:0 35:0 36:0 37:0 38:0 39:0 40:0 41:5 42:5 43:5 44:0 45:0 46:-13 47:0 48:0 49:0 50:0 51:5 52:0 53:0 54:5 55:5 56:5 57:2 58:0 59:3 60:0 61:11 62:3 63:0 64:2 
0.3646194451056977 1:-2 2:-7 3:0 4:0 5:0 6:-2 7:-11 8:0 9:-5 10:-5 11:-5 12:0 13:0 14:-5 15:-5 16:-5 17:0 18:0 19:0 20:0 21:0 22:-7 23:0 24:0 25:0 26:0 27:0 28:0 29:-5 30:0 31:0 32:0 33:0 34:0 35:0 36:0 37:0 38:0 39:0 40:0 41:5 42:5 43:5 44:0 45:0 46:5 47:0 48:0 49:0 50:0 51:5 52:0 53:0 54:5 55:0 56:5 57:2 58:0 59:3 60:0 61:11 62:3 63:0 64:2 
0.2059659322365758 1:-2 2:-7 3:0 4:0 5:0 6:-2 7:-11 8:0 9:-5 10:-5 11:-5 12:0 13:0 14:-5 15:-5 16:-5 17:0 18:0 19:0 20:0 21:0 22:-7 23:0 24:0 25:0 26:0 27:0 28:0 29:-5 30:0 31:0 32:0 33:0 34:0 35:0 36:0 37:0 38:0 39:0 40:0 41:5 42:-13 43:5 44:0 45:0 46:7 47:0 48:0 49:0 50:0 51:5 52:0 53:0 54:5 55:5 56:5 57:2 58:0 59:3 60:0 61:11 62:3 63:0 64:2 
1 1:-2 2:-7 3:0 4:0 5:0 6:-2 7:-11 8:0 9:-5 10:-5 11:-5 12:0 13:0 14:-5 15:-5 16:-5 17:0 18:0 19:0 20:0 21:0 22:-7 23:0 24:0 25:0 26:0 27:0 28:0 29:-5 30:0 31:0 32:0 33:0 34:0 35:0 36:0 37:0 38:0 39:-3 40:0 41:5 42:5 43:5 44:0 45:0 46:5 47:0 48:0 49:0 50:0 51:5 52:0 53:0 54:5 55:0 56:5 57:2 58:0 59:3 60:0 61:11 62:3 63:7 64:2 
0.364432952508733 1:-2 2:-7 3:0 4:0 5:0 6:-2 7:-11 8:0 9:-5 10:-5 11:-5 12:0 13:0 14:-5 15:-5 16:-5 17:0 18:0 19:0 20:0 21:0 22:-7 23:0 24:0 25:0 26:0 27:0 28:0 29:-5 30:0 31:0 32:0 33:0 34:0 35:0 36:0 37:0 38:0 39:-3 40:0 41:5 42:-13 43:5 44:0 45:0 46:13 47:0 48:0 49:0 50:0 51:5 52:0 53:0 54:5 55:5 56:5 57:2 58:0 59:3 60:0 61:11 62:3 63:7 64:2 
0.2963248646538635 1:-2 2:-7 3:0 4:0 5:0 6:-2 7:-11 8:0 9:-5 10:-5 11:-5 12:0 13:0 14:-5 15:-5 16:-5 17:0 18:0 19:0 20:0 21:0 22:-7 23:0 24:0 25:0 26:0 27:0 28:-13 29:-5 30:0 31:0 32:0 33:0 34:0 35:0 36:0 37:0 38:0 39:-3 40:0 41:5 42:5 43:5 44:0 45:0 46:0 47:13 48:0 49:0 50:0 51:5 52:0 53:0 54:5 55:5 56:5 57:2 58:0 59:3 60:0 61:11 62:3 63:7 64:2 
0.4735769333035263 1:-2 2:-7 3:0 4:0 5:0 6:-2 7:-11 8:0 9:-5 10:-5 11:-5 12:0 13:0 14:-5 15:-5 16:-5 17:0 18:0 19:0 20:0 21:0 22:-7 23:0 24:0 25:0 26:0 27:0 28:0 29:-5 30:0 31:0 32:0 33:0 34:0 35:0 36:0 37:0 38:0 39:-3 40:0 41:5 42:-13 43:5 44:0 45:0 46:0 47:13 48:0 49:0 50:0 51:5 52:0 53:0 54:5 55:5 56:5 57:2 58:0 59:3 60:0 61:11 62:3 63:7 64:2 
0.4801996453837187 1:-2 2:-7 3:0 4:0 5:0 6:-2 7:-11 8:0 9:-5 10:-5 11:-5 12:0 13:0 14:-5 15:-5 16:-5 17:0 18:0 19:0 20:0 21:0 22:-7 23:0 24:0 25:0 26:0 27:0 28:0 29:-5 30:0 31:0 32:0 33:0 34:0 35:0 36:0 37:-13 38:0 39:-3 40:0 41:5 42:5 43:5 44:0 45:0 46:0 47:13 48:0 49:0 50:0 51:5 52:11 53:0 54:5 55:5 56:5 57:2 58:0 59:3 60:0 61:0 62:3 63:7 64:2 
0.4805446906466959 1:-2 2:-7 3:0 4:0 5:0 6:-2 7:-11 8:0 9:-5 10:-5 11:-5 12:0 13:0 14:-5 15:-5 16:-5 17:0 18:0 19:0 20:0 21:0 22:-7 23:0 24:0 25:0 26:0 27:0 28:0 29:-5 30:0 31:0 32:0 33:0 34:0 35:0 36:0 37:0 38:0 39:-3 40:0 41:5 42:5 43:5 44:0 45:0 46:0 47:13 48:0 49:0 50:0 51:5 52:11 53:0 54:5 55:-13 56:5 57:2 58:0 59:3 60:0 61:0 62:3 63:7 64:2 
0.2942373400500908 1:-2 2:-7 3:0 4:0 5:0 6:-2 7:-11 8:0 9:-5 10:-5 11:-5 12:0 13:0 14:-5 15:-5 16:-5 17:0 18:0 19:0 20:0 21:0 22:-7 23:0 24:0 25:0 26:0 27:0 28:-13 29:-5 30:0 31:0 32:0 33:0 34:0 35:0 36:0 37:0 38:0 39:-3 40:0 41:5 42:5 43:5 44:0 45:0 46:0 47:0 48:13 49:0 50:0 51:5 52:0 53:0 54:5 55:5 56:5 57:2 58:0 59:3 60:0 61:11 62:3 63:7 64:2 
0.2970572107738251 1:-2 2:-7 3:0 4:0 5:0 6:-2 7:-11 8:0 9:-5 10:-5 11:-5 12:0 13:0 14:-5 15:-5 16:-5 17:0 18:0 19:0 20:0 21:0 22:-7 23:0 24:0 25:0 26:0 27:0 28:-13 29:-5 30:0 31:0 32:0 33:0 34:0 35:0 36:0 37:0 38:0 39:0 40:0 41:5 42:5 43:5 44:0 45:0 46:0 47:0 48:5 49:0 50:0 51:5 52:0 53:0 54:5 55:0 56:5 57:2 58:0 59:3 60:0 61:11 62:3 63:7 64:2 
0.3421987408109214 1:-2 2:-7 3:0 4:0 5:0 6:-2 7:-11 8:0 9:-5 10:-5 11:-5 12:0 13:0 14:-5 15:-5 16:-5 17:0 18:0 19:0 20:0 21:0 22:-7 23:0 24:0 25:0 26:0 27:0 28:0 29:-5 30:0 31:0 32:0 33:0 34:0 35:0 36:0 37:0 38:0 39:0 40:0 41:5 42:5 43:5 44:0 45:0 46:0 47:0 48:5 49:0 50:0 51:5 52:0 53:0 54:5 55:0 56:5 57:2 58:0 59:3 60:0 61:11 62:3 63:7 64:-13 
0.2253656779114032 1:-2 2:-7 3:0 4:0 5:0 6:-2 7:-11 8:0 9:-5 10:-5 11:-5 12:0 13:0 14:-5 15:-5 16:-5 17:0 18:0 19:0 20:0 21:0 22:-7 23:0 24:0 25:0 26:0 27:0 28:0 29:-5 30:0 31:0 32:0 33:0 34:0 35:0 36:0 37:0 38:0 39:0 40:0 41:5 42:5 43:5 44:0 45:0 46:0 47:0 48:7 49:0 50:0 51:5 52:0 53:0 54:5 55:-13 56:5 57:2 58:0 59:3 60:0 61:11 62:3 63:0 64:2 
0.4554164780396058 1:-2 2:-7 3:0 4:0 5:0 6:-2 7:-11 8:0 9:-5 10:-5 11:-5 12:0 13:0 14:-5 15:-5 16:-5 17:0 18:0 19:0 20:0 21:0 22:-7 23:0 24:0 25:0 26:0 27:0 28:0 29:-5 30:0 31:0 32:0 33:0 34:0 35:0 36:0 37:-13 38:0 39:-3 40:0 41:5 42:5 43:5 44:0 45:0 46:0 47:0 48:13 49:0 50:0 51:5 52:11 53:0 54:5 55:5 56:5 57:2 58:0 59:3 60:0 61:0 62:3 63:7 64:2 
0.1604943268528023 1:-2 2:-7 3:0 4:0 5:0 6:-2 7:-11 8:0 9:-5 10:-5 11:-5 12:0 13:0 14:-5 15:-5 16:-5 17:0 18:0 19:0 20:0 21:0 22:-7 23:0 24:0 25:0 26:0 27:0 28:0 29:-5 30:0 31:0 32:0 33:0 34:0 35:0 36:0 37:-13 38:0 39:0 40:0 41:5 42:5 43:5 44:0 45:0 46:0 47:0 48:-3 49:0 50:0 51:5 52:11 53:0 54:5 55:5 56:5 57:2 58:0 59:3 60:0 61:0 62:3 63:7 64:2 
0.4703717581778954 1:-2 2:-7 3:0 4:0 5:0 6:-2 7:-11 8:0 9:-5 10:-5 11:-5 12:0 13:0 14:-5 15:-5 16:-5 17:0 18:0 19:0 20:0 21:0 22:-7 23:0 24:0 25:0 26:0 27:0 28:0 29:-5 30:0 31:0 32:0 33:0 34:0 35:0 36:0 37:0 38:0 39:-3 40:0 41:5 42:5 43:5 44:0 45:0 46:0 47:0 48:13 49:0 50:0 51:5 52:11 53:0 54:5 55:-13 56:5 57:2 58:0 59:3 60:0 61:0 62:3 63:7 64:2 
0.5366887853294122 1:-2 2:-7 3:0 4:0 5:0 6:-2 7:-11 8:0 9:-5 10:-5 11:-5 12:0 13:0 14:-5 15:-5 16:-5 17:0 18:0 19:0 20:0 21:0 22:-7 23:0 24:0 25:0 26:0 27:0 28:0 29:-5 30:0 31:0 32:0 33:0 34:0 35:0 36:0 37:0 38:0 39:0 40:0 41:5 42:5 43:5 44:0 45:0 46:0 47:0 48:-3 49:0 50:0 51:11 52:0 53:0 54:5 55:5 56:5 57:2 58:0 59:3 60:0 61:0 62:3 63:7 64:2 
0.2598720202962298 1:-2 2:-7 3:0 4:0 5:0 6:-2 7:-11 8:0 9:-5 10:-5 11:-5 12:0 13:0 14:-5 15:-5 16:-5 17:0 18:0 19:0 20:0 21:0 22:-7 23:0 24:0 25:0 26:0 27:0 28:-13 29:-5 30:0 31:0 32:0 33:0 34:0 35:13 36:0 37:0 38:0 39:-3 40:0 41:5 42:5 43:5 44:0 45:0 46:0 47:0 48:0 49:0 50:0 51:5 52:0 53:0 54:5 55:5 56:5 57:2 58:0 59:3 60:0 61:11 62:3 63:7 64:2 
0.458207687497643 1:-2 2:-7 3:0 4:0 5:0 6:-2 7:-11 8:0 9:-5 10:-5 11:-5 12:0 13:0 14:-5 15:-5 16:-5 17:0 18:0 19:0 20:0 21:0 22:-7 23:0 24:0 25:0 26:0 27:0 28:0 29:-5 30:0 31:0 32:0 33:0 34:0 35:13 36:0 37:0 38:0 39:-3 40:0 41:5 42:5 43:5 44:0 45:0 46:0 47:0 48:0 49:0 50:0 51:5 52:0 53:0 54:5 55:-13 56:5 57:2 58:0 59:3 60:0 61:11 62:3 63:7 64:2 
0.2584207518512918 1:-2 2:-7 3:0 4:0 5:0 6:-2 7:-11 8:0 9:-5 10:-5 11:-5 12:0 13:0 14:-5 15:-5 16:-5 17:0 18:0 19:0 20:0 21:0 22:-7 23:0 24:0 25:0 26:0 27:0 28:0 29:0 30:0 31:0 32:0 33:0 34:0 35:0 36:5 37:0 38:0 39:-3 40:0 41:5 42:5 43:0 44:0 45:0 46:0 47:0 48:0 49:0 50:0 51:5 52:0 53:0 54:5 55:-13 56:5 57:2 58:0 59:3 60:0 61:11 62:3 63:7 64:2 
0.6015109498744541 1:-2 2:-7 3:0 4:0 5:0 6:-2 7:-11 8:0 9:-5 10:-5 11:-5 12:0 13:0 14:-5 15:-5 16:-5 17:0 18:0 19:0 20:0 21:0 22:-7 23:0 24:0 25:0 26:0 27:0 28:0 29:0 30:0 31:0 32:0 33:0 34:0 35:0 36:5 37:0 38:0 39:-3 40:0 41:5 42:5 43:0 44:0 45:0 46:0 47:0 48:0 49:0 50:0 51:5 52:0 53:0 54:5 55:3 56:5 57:2 58:0 59:3 60:0 61:11 62:0 63:7 64:2 
0.3038075619727518 1:-2 2:-7 3:0 4:0 5:0 6:-2 7:-11 8:0 9:-5 10:-5 11:-5 12:0 13:0 14:-5 15:-5 16:-5 17:0 18:0 19:0 20:0 21:0 22:-7 23:0 24:0 25:0 26:0 27:0 28:0 29:0 30:0 31:0 32:0 33:0 34:0 35:0 36:5 37:0 38:0 39:-3 40:0 41:5 42:-13 43:0 44:0 45:0 46:0 47:0 48:0 49:0 50:0 51:5 52:0 53:0 54:5 55:5 56:5 57:2 58:0 59:3 60:0 61:11 62:3 63:7 64:2 
0.2328840832437749 1:-2 2:-7 3:0 4:0 5:0 6:-2 7:-11 8:0 9:-5 10:-5 11:-5 12:0 13:0 14:-5 15:-5 16:-5 17:0 18:0 19:0 20:0 21:0 22:-7 23:0 24:0 25:0 26:0 27:0 28:0 29:0 30:0 31:0 32:0 33:0 34:0 35:0 36:-13 37:0 38:0 39:-3 40:0 41:5 42:5 43:0 44:0 45:0 46:0 47:0 48:0 49:0 50:0 51:5 52:0 53:0 54:5 55:5 56:5 57:2 58:0 59:3 60:0 61:11 62:3 63:7 64:2 
0.2893544186787447 1:-2 2:-7 3:0 4:0 5:0 6:-2 7:-11 8:0 9:-5 10:-5 11:-5 12:0 13:0 14:-5 15:-5 16:-5 17:0 18:0 19:0 20:0 21:0 22:-7 23:0 24:0 25:0 26:0 27:0 28:0 29:-5 30:0 31:0 32:0 33:0 34:0 35:0 36:-13 37:0 38:0 39:-3 40:0 41:5 42:5 43:5 44:0 45:0 46:0 47:0 48:0 49:0 50:0 51:5 52:0 53:0 54:5 55:5 56:5 57:2 58:0 59:3 60:0 61:11 62:3 63:7 64:2 
0.3147488993224141 1:-2 2:-7 3:0 4:0 5:0 6:-2 7:-11 8:0 9:-5 10:-5 11:-5 12:0 13:0 14:-5 15:-5 16:-5 17:0 18:0 19:0 20:0 21:0 22:-7 23:0 24:0 25:0 26:0 27:0 28:0 29:0 30:0 31:0 32:0 33:0 34:0 35:0 36:-5 37:0 38:0 39:-3 40:0 41:5 42:5 43:0 44:0 45:0 46:0 47:0 48:0 49:0 50:0 51:5 52:0 53:0 54:5 55:5 56:5 57:2 58:0 59:3 60:0 61:11 62:3 63:7 64:2 
0.429732917294813 1:-2 2:-7 3:0 4:0 5:0 6:-2 7:-11 8:0 9:-5 10:-5 11:-5 12:0 13:0 14:-5 15:-5 16:-5 17:0 18:0 19:0 20:0 21:0 22:-7 23:0 24:0 25:0 26:0 27:0 28:0 29:-5 30:0 31:0 32:0 33:0 34:0 35:0 36:13 37:0 38:0 39:-3 40:0 41:5 42:5 43:5 44:0 45:0 46:0 47:0 48:0 49:0 50:0 51:5 52:0 53:0 54:5 55:-13 56:5 57:2 58:0 59:3 60:0 61:11 62:3 63:7 64:2 
0.291094797952533 1:-2 2:-7 3:0 4:0 5:0 6:-2 7:-11 8:0 9:-5 10:-5 11:-5 12:0 13:0 14:-5 15:-5 16:-5 17:0 18:0 19:0 20:0 21:0 22:-7 23:0 24:0 25:0 26:0 27:0 28:-13 29:-5 30:0 31:0 32:0 33:0 34:0 35:0 36:0 37:13 38:0 39:-3 40:0 41:5 42:5 43:5 44:0 45:0 46:0 47:0 48:0 49:0 50:0 51:5 52:0 53:0 54:5 55:5 56:5 57:2 58:0 59:3 60:0 61:11 62:3 63:7 64:2 
0.162110728379055 1:-2 2:-7 3:0 4:0 5:0 6:-2 7:-11 8:0 9:-5 10:-5 11:-5 12:0 13:0 14:-5 15:-5 16:-5 17:0 18:0 19:0 20:0 21:0 22:-7 23:0 24:0 25:0 26:0 27:0 28:0 29:-5 30:0 31:0 32:0 33:0 34:0 35:0 36:0 37:0 38:0 39:-3 40:0 41:5 42:5 43:5 44:0 45:0 46:0 47:0 48:0 49:0 50:0 51:5 52:11 53:0 54:5 55:-13 56:5 57:2 58:0 59:3 60:0 61:0 62:3 63:7 64:2 
0.0008398721157478335 1:-2 2:-7 3:0 4:0 5:0 6:-2 7:-11 8:0 9:-5 10:-5 11:-5 12:0 13:0 14:-5 15:-5 16:-5 17:0 18:0 19:0 20:0 21:0 22:-7 23:0 24:0 25:0 26:0 27:0 28:0 29:-5 30:0 31:0 32:0 33:0 34:0 35:0 36:0 37:-13 38:0 39:0 40:0 41:5 42:5 43:5 44:0 45:0 46:0 47:0 48:0 49:0 50:0 51:5 52:0 53:3 54:5 55:5 56:5 57:2 58:0 59:3 60:0 61:11 62:0 63:0 64:2 
0.2467387410358141 1:-2 2:-7 3:0 4:0 5:0 6:-2 7:-11 8:0 9:-5 10:-5 11:-5 12:0 13:0 14:-5 15:-5 16:-5 17:0 18:0 19:0 20:0 21:0 22:-7 23:0 24:0 25:0 26:0 27:0 28:0 29:-5 30:0 31:0 32:0 33:0 34:0 35:0 36:0 37:0 38:0 39:0 40:0 41:5 42:5 43:5 44:0 45:0 46:0 47:0 48:0 49:0 50:0 51:5 52:0 53:11 54:5 55:5 56:5 57:2 58:0 59:3 60:0 61:0 62:0 63:0 64:2 
0.1808584793862274 1:-2 2:-7 3:0 4:0 5:0 6:-2 7:-11 8:0 9:-5 10:-5 11:-5 12:0 13:0 14:-5 15:-5 16:-5 17:0 18:0 19:0 20:0 21:0 22:-7 23:0 24:0 25:0 26:0 27:0 28:0 29:-5 30:0 31:0 32:0 33:0 34:0 35:0 36:0 37:0 38:0 39:0 40:0 41:5 42:5 43:5 44:0 45:0 46:0 47:0 48:0 49:0 50:0 51:-13 52:0 53:3 54:5 55:5 56:5 57:2 58:0 59:3 60:0 61:11 62:0 63:0 64:2 
0.2907258798322775 1:-2 2:-7 3:0 4:0 5:0 6:-2 7:-11 8:0 9:-5 10:-5 11:-5 12:0 13:0 14:-5 15:-5 16:-5 17:0 18:0 19:0 20:0 21:0 22:-7 23:0 24:0 25:0 26:0 27:0 28:0 29:-5 30:0 31:0 32:0 33:0 34:0 35:0 36:0 37:0 38:0 39:-3 40:0 41:5 42:5 43:5 44:0 45:0 46:0 47:0 48:0 49:0 50:0 51:-13 52:0 53:7 54:5 55:5 56:5 57:2 58:0 59:3 60:0 61:11 62:3 63:0 64:2 
0.5085897928303318 1:-2 2:-7 3:0 4:0 5:0 6:-2 7:-11 8:0 9:-5 10:-5 11:-5 12:0 13:0 14:-5 15:-5 16:-5 17:0 18:0 19:0 20:0 21:0 22:-7 23:0 24:0 25:0 26:0 27:0 28:0 29:-5 30:0 31:0 32:0 33:0 34:0 35:0 36:0 37:13 38:0 39:-3 40:0 41:5 42:-13 43:5 44:0 45:0 46:0 47:0 48:0 49:0 50:0 51:5 52:0 53:0 54:5 55:5 56:5 57:2 58:0 59:3 60:0 61:11 62:3 63:7 64:2 
0.2246826716735404 1:-2 2:-7 3:0 4:0 5:0 6:-2 7:-11 8:0 9:-5 10:-5 11:-5 12:0 13:0 14:-5 15:-5 16:-5 17:0 18:0 19:0 20:0 21:0 22:-7 23:0 24:0 25:0 26:13 27:0 28:-13 29:-5 30:0 31:0 32:0 33:0 34:0 35:0 36:0 37:0 38:0 39:-3 40:0 41:5 42:5 43:5 44:0 45:0 46:0 47:0 48:0 49:0 50:0 51:5 52:0 53:0 54:5 55:5 56:5 57:2 58:0 59:3 60:0 61:11 62:3 63:7 64:2 
0.2675092860856764 1:-2 2:-7 3:0 4:0 5:0 6:-2 7:-11 8:0 9:-5 10:-5 11:-5 12:0 13:0 14:-5 15:-5 16:-5 17:0 18:0 19:0 20:0 21:0 22:-7 23:0 24:0 25:0 26:-13 27:0 28:0 29:-5 30:0 31:0 32:0 33:0 34:0 35:0 36:0 37:0 38:0 39:-3 40:0 41:5 42:5 43:5 44:0 45:0 46:0 47:0 48:0 49:0 50:0 51:5 52:0 53:0 54:5 55:5 56:5 57:2 58:0 59:3 60:0 61:11 62:3 63:7 64:2 
0.4676445135954929 1:-2 2:-7 3:0 4:0 5:0 6:-2 7:-11 8:0 9:-5 10:-5 11:-5 12:0 13:0 14:-5 15:-5 16:-5 17:0 18:0 19:0 20:0 21:0 22:-7 23:0 24:0 25:0 26:13 27:0 28:0 29:-5 30:0 31:0 32:0 33:0 34:0 35:0 36:0 37:0 38:0 39:-3 40:0 41:5 42:5 43:5 44:0 45:0 46:0 47:0 48:0 49:0 50:0 51:5 52:0 53:0 54:5 55:-13 56:5 57:2 58:0 59:3 60:0 61:11 62:3 63:7 64:2 
0.4850134994966219 1:-2 2:-7 3:0 4:0 5:0 6:-2 7:-11 8:0 9:-5 10:-5 11:-5 12:0 13:0 14:-5 15:-5 16:-5 17:0 18:0 19:0 20:0 21:0 22:-7 23:0 24:0 25:0 26:13 27:0 28:0 29:-5 30:0 31:0 32:0 33:0 34:0 35:0 36:0 37:-13 38:0 39:-3 40:0 41:5 42:5 43:5 44:0 45:0 46:0 47:0 48:0 49:0 50:0 51:5 52:11 53:0 54:5 55:5 56:5 57:2 58:0 59:3 60:0 61:0 62:3 63:7 64:2 
0.4661538015575096 1:-2 2:-7 3:0 4:0 5:0 6:-2 7:-11 8:0 9:-5 10:-5 11:-5 12:0 13:0 14:-5 15:-5 16:-5 17:0 18:0 19:0 20:0 21:0 22:-7 23:0 24:0 25:0 26:13 27:0 28:0 29:-5 30:0 31:0 32:0 33:0 34:0 35:0 36:0 37:0 38:0 39:-3 40:0 41:5 42:5 43:5 44:0 45:0 46:0 47:0 48:0 49:0 50:0 51:5 52:11 53:0 54:5 55:-13 56:5 57:2 58:0 59:3 60:0 61:0 62:3 63:7 64:2 
0.4764795054327305 1:-2 2:-7 3:0 4:0 5:0 6:-2 7:-11 8:0 9:-5 10:-5 11:-5 12:0 13:0 14:-5 15:-5 16:-5 17:0 18:0 19:0 20:0 21:0 22:-7 23:0 24:0 25:0 26:0 27:0 28:0 29:-5 30:13 31:0 32:0 33:0 34:0 35:0 36:0 37:0 38:0 39:-3 40:0 41:5 42:-13 43:5 44:0 45:0 46:0 47:0 48:0 49:0 50:0 51:5 52:0 53:0 54:5 55:5 56:5 57:2 58:0 59:3 60:0 61:11 62:3 63:7 64:2 
0.253237052509505 1:-2 2:-7 3:0 4:0 5:0 6:-2 7:-11 8:0 9:-5 10:-5 11:-5 12:0 13:0 14:-5 15:-5 16:-5 17:13 18:0 19:0 20:0 21:0 22:-7 23:0 24:0 25:0 26:0 27:0 28:-13 29:-5 30:0 31:0 32:0 33:0 34:0 35:0 36:0 37:0 38:0 39:-3 40:0 41:5 42:5 43:5 44:0 45:0 46:0 47:0 48:0 49:0 50:0 51:5 52:0 53:0 54:5 55:5 56:5 57:2 58:0 59:3 60:0 61:11 62:3 63:7 64:2 
0.07583511573931903 1:-2 2:-7 3:0 4:0 5:0 6:-2 7:-11 8:0 9:-5 10:0 11:-5 12:0 13:0 14:-5 15:-5 16:-5 17:3 18:0 19:0 20:0 21:0 22:-7 23:0 24:0 25:0 26:0 27:0 28:-13 29:-5 30:0 31:0 32:0 33:0 34:0 35:0 36:0 37:0 38:0 39:-3 40:0 41:5 42:5 43:5 44:0 45:0 46:0 47:0 48:0 49:0 50:0 51:5 52:0 53:0 54:5 55:5 56:5 57:2 58:0 59:3 60:0 61:11 62:0 63:7 64:2 
0.04739817531467204 1:-2 2:0 3:0 4:0 5:0 6:-2 7:-11 8:0 9:-5 10:-5 11:-5 12:0 13:0 14:-5 15:-5 16:-5 17:-7 18:0 19:0 20:0 21:0 22:-7 23:0 24:0 25:0 26:0 27:0 28:-13 29:-5 30:0 31:0 32:0 33:0 34:0 35:0 36:0 37:0 38:0 39:-3 40:0 41:5 42:5 43:5 44:0 45:0 46:0 47:0 48:0 49:0 50:0 51:5 52:0 53:0 54:5 55:5 56:5 57:2 58:0 59:3 60:0 61:11 62:3 63:7 64:2 
0.2745088863287556 1:-2 2:0 3:0 4:0 5:0 6:-2 7:-11 8:0 9:-5 10:-5 11:-5 12:0 13:0 14:-5 15:-5 16:-5 17:3 18:0 19:0 20:0 21:0 22:-7 23:0 24:0 25:0 26:0 27:0 28:0 29:-5 30:0 31:0 32:0 33:0 34:0 35:0 36:0 37:0 38:0 39:-3 40:0 41:5 42:-13 43:5 44:0 45:0 46:0 47:0 48:0 49:0 50:0 51:5 52:0 53:0 54:5 55:5 56:5 57:2 58:0 59:3 60:0 61:11 62:0 63:7 64:2 
0.2409055150038232 1:-2 2:0 3:0 4:0 5:0 6:-2 7:-11 8:0 9:-5 10:-5 11:-5 12:0 13:0 14:-5 15:-5 16:-5 17:3 18:0 19:0 20:0 21:0 22:-7 23:0 24:0 25:0 26:0 27:0 28:0 29:-5 30:0 31:0 32:0 33:0 34:0 35:0 36:0 37:0 38:0 39:-3 40:0 41:5 42:5 43:5 44:0 45:0 46:0 47:0 48:0 49:0 50:0 51:5 52:0 53:0 54:5 55:-13 56:5 57:2 58:0 59:3 60:0 61:11 62:0 63:7 64:2 
0.4602108117857856 1:-2 2:-7 3:0 4:0 5:0 6:-2 7:-11 8:0 9:-5 10:-5 11:-5 12:0 13:0 14:-5 15:-5 16:-5 17:13 18:0 19:0 20:0 21:0 22:-7 23:0 24:0 25:0 26:0 27:0 28:0 29:-5 30:0 31:0 32:0 33:0 34:0 35:0 36:0 37:0 38:0 39:-3 40:0 41:5 42:5 43:5 44:0 45:0 46:0 47:0 48:0 49:0 50:0 51:5 52:0 53:0 54:5 55:-13 56:5 57:2 58:0 59:3 60:0 61:11 62:3 63:7 64:2 
0.4582665508373213 1:-2 2:-7 3:0 4:0 5:0 6:-2 7:-11 8:0 9:-5 10:-5 11:-5 12:0 13:0 14:-5 15:-5 16:-5 17:13 18:0 19:0 20:0 21:0 22:-7 23:0 24:0 25:0 26:0 27:0 28:0 29:-5 30:0 31:0 32:0 33:0 34:0 35:0 36:0 37:0 38:0 39:-3 40:0 41:5 42:-13 43:5 44:0 45:0 46:0 47:0 48:0 49:0 50:0 51:5 52:0 53:0 54:5 55:5 56:5 57:2 58:0 59:3 60:0 61:11 62:3 63:7 64:2 
0.6048952338962356 1:-2 2:-7 3:0 4:0 5:0 6:-2 7:-11 8:0 9:-5 10:0 11:-5 12:0 13:0 14:-5 15:-5 16:-5 17:-5 18:0 19:0 20:0 21:0 22:-7 23:0 24:0 25:0 26:0 27:0 28:0 29:-5 30:0 31:0 32:0 33:0 34:0 35:0 36:0 37:0 38:0 39:-3 40:0 41:5 42:5 43:5 44:0 45:0 46:0 47:0 48:0 49:0 50:0 51:5 52:3 53:0 54:5 55:5 56:5 57:2 58:0 59:0 60:0 61:11 62:3 63:7 64:2 
0.302852508912266 1:-2 2:-7 3:0 4:0 5:0 6:-2 7:-11 8:0 9:-5 10:0 11:-5 12:0 13:0 14:-5 15:-5 16:-5 17:-5 18:0 19:0 20:0 21:0 22:-7 23:0 24:0 25:0 26:0 27:0 28:0 29:-5 30:0 31:0 32:0 33:0 34:0 35:0 36:0 37:-13 38:0 39:-3 40:0 41:5 42:5 43:5 44:0 45:0 46:0 47:0 48:0 49:0 50:0 51:5 52:11 53:0 54:5 55:5 56:5 57:2 58:0 59:3 60:0 61:0 62:3 63:7 64:2 
0.320968169975651 1:-2 2:-7 3:0 4:0 5:0 6:-2 7:-11 8:0 9:-5 10:0 11:-5 12:0 13:0 14:-5 15:-5 16:-5 17:-5 18:0 19:0 20:0 21:0 22:-7 23:0 24:0 25:0 26:0 27:0 28:0 29:-5 30:0 31:0 32:0 33:0 34:0 35:0 36:0 37:0 38:0 39:-3 40:0 41:5 42:5 43:5 44:0 45:0 46:0 47:0 48:0 49:0 50:0 51:11 52:0 53:0 54:5 55:5 56:5 57:2 58:0 59:3 60:0 61:0 62:3 63:7 64:2 
0.3749546252062359 1:-2 2:0 3:0 4:0 5:0 6:-2 7:-11 8:0 9:-5 10:-5 11:-5 12:0 13:0 14:-5 15:-5 16:-5 17:-7 18:0 19:0 20:0 21:0 22:-7 23:0 24:0 25:0 26:0 27:0 28:0 29:-5 30:0 31:0 32:0 33:0 34:0 35:0 36:0 37:0 38:0 39:-3 40:0 41:5 42:5 43:5 44:0 45:0 46:0 47:0 48:0 49:0 50:0 51:11 52:0 53:0 54:5 55:5 56:5 57:2 58:0 59:3 60:0 61:0 62:3 63:7 64:2 
0.201131804249504 1:-2 2:-7 3:0 4:0 5:0 6:-2 7:-11 8:0 9:-5 10:-5 11:-5 12:0 13:0 14:-5 15:-5 16:-5 17:0 18:0 19:0 20:0 21:0 22:-7 23:13 24:0 25:0 26:0 27:0 28:-13 29:-5 30:0 31:0 32:0 33:0 34:0 35:0 36:0 37:0 38:0 39:-3 40:0 41:5 42:5 43:5 44:0 45:0 46:0 47:0 48:0 49:0 50:0 51:5 52:0 53:0 54:5 55:5 56:5 57:2 58:0 59:3 60:0 61:11 62:3 63:7 64:2 
0.4691417472874856 1:-2 2:-7 3:0 4:0 5:0 6:-2 7:-11 8:0 9:-5 10:-5 11:-5 12:0 13:0 14:-5 15:-5 16:-5 17:0 18:0 19:0 20:0 21:0 22:-7 23:13 24:0 25:0 26:0 27:0 28:0 29:-5 30:0 31:0 32:0 33:0 34:0 35:0 36:0 37:0 38:0 39:-3 40:0 41:5 42:5 43:5 44:0 45:0 46:0 47:0 48:0 49:0 50:0 51:5 52:0 53:0 54:5 55:-13 56:5 57:2 58:0 59:3 60:0 61:11 62:3 63:7 64:2 
0.4693731635135689 1:-2 2:-7 3:0 4:0 5:0 6:-2 7:-11 8:0 9:-5 10:-5 11:-5 12:0 13:0 14:-5 15:-5 16:-5 17:0 18:0 19:0 20:0 21:0 22:-7 23:13 24:0 25:0 26:0 27:0 28:0 29:-5 30:0 31:0 32:0 33:0 34:0 35:0 36:0 37:0 38:0 39:-3 40:0 41:5 42:-13 43:5 44:0 45:0 46:0 47:0 48:0 49:0 50:0 51:5 52:0 53:0 54:5 55:5 56:5 57:2 58:0 59:3 60:0 61:11 62:3 63:7 64:2 
0.779848827665087 1:-2 2:-7 3:0 4:0 5:0 6:-2 7:-11 8:0 9:-5 10:-5 11:-5 12:0 13:0 14:0 15:-5 16:-5 17:0 18:0 19:0 20:0 21:0 22:-7 23:-5 24:0 25:0 26:0 27:0 28:0 29:-5 30:0 31:0 32:0 33:0 34:0 35:0 36:0 37:0 38:0 39:-3 40:0 41:5 42:5 43:5 44:0 45:0 46:0 47:0 48:0 49:0 50:0 51:5 52:3 53:0 54:5 55:5 56:5 57:2 58:0 59:0 60:0 61:11 62:3 63:7 64:2 
0.0361600911489069 1:-2 2:-7 3:0 4:0 5:0 6:-2 7:0 8:0 9:-5 10:-5 11:-5 12:0 13:0 14:-5 15:-5 16:-11 17:0 18:0 19:0 20:0 21:0 22:-7 23:0 24:0 25:0 26:0 27:0 28:-13 29:-5 30:0 31:0 32:0 33:0 34:0 35:0 36:0 37:0 38:0 39:-3 40:0 41:5 42:5 43:5 44:0 45:0 46:0 47:0 48:0 49:0 50:0 51:5 52:0 53:0 54:5 55:5 56:5 57:2 58:0 59:3 60:0 61:11 62:3 63:7 64:2 
0.2120781295666803 1:-2 2:-7 3:0 4:0 5:0 6:-2 7:0 8:0 9:-5 10:-5 11:-5 12:0 13:0 14:-5 15:-5 16:-11 17:0 18:0 19:0 20:0 21:0 22:-7 23:0 24:0 25:0 26:0 27:0 28:-13 29:0 30:0 31:0 32:0 33:0 34:0 35:0 36:0 37:-5 38:0 39:-3 40:0 41:5 42:5 43:5 44:3 45:0 46:0 47:0 48:0 49:0 50:0 51:5 52:0 53:0 54:5 55:5 56:5 57:2 58:0 59:3 60:0 61:11 62:0 63:7 64:2 
0.2371997057871925 1:-2 2:-7 3:0 4:0 5:0 6:-2 7:0 8:0 9:-5 10:-5 11:-5 12:0 13:0 14:-5 15:-5 16:-11 17:0 18:0 19:0 20:0 21:0 22:0 23:0 24:0 25:0 26:0 27:0 28:-13 29:-5 30:0 31:0 32:0 33:0 34:0 35:0 36:0 37:-7 38:0 39:-3 40:0 41:5 42:5 43:5 44:3 45:0 46:0 47:0 48:0 49:0 50:0 51:5 52:0 53:0 54:5 55:5 56:5 57:2 58:0 59:3 60:0 61:11 62:0 63:7 64:2 
0.2002584737014888 1:-2 2:-7 3:0 4:0 5:0 6:-2 7:0 8:0 9:-5 10:-5 11:-5 12:0 13:0 14:-5 15:-5 16:-11 17:0 18:0 19:0 20:0 21:0 22:-7 23:0 24:0 25:0 26:0 27:0 28:-13 29:-5 30:-3 31:0 32:0 33:0 34:0 35:0 36:0 37:0 38:0 39:0 40:0 41:5 42:5 43:5 44:3 45:0 46:0 47:0 48:0 49:0 50:0 51:5 52:0 53:0 54:5 55:5 56:5 57:2 58:0 59:3 60:0 61:11 62:0 63:7 64:2 
0.4954391692909839 1:-2 2:-7 3:0 4:0 5:0 6:-2 7:0 8:0 9:-5 10:-5 11:-5 12:0 13:0 14:-5 15:-5 16:-11 17:0 18:0 19:0 20:0 21:0 22:-7 23:0 24:0 25:0 26:0 27:0 28:0 29:-5 30:0 31:0 32:0 33:0 34:0 35:0 36:0 37:0 38:0 39:-3 40:0 41:5 42:5 43:5 44:-13 45:0 46:0 47:0 48:0 49:0 50:0 51:5 52:0 53:0 54:5 55:5 56:5 57:2 58:0 59:3 60:0 61:11 62:0 63:7 64:2 
0.7552040913023145 1:-2 2:-7 3:0 4:0 5:0 6:-2 7:0 8:0 9:-5 10:-5 11:-5 12:0 13:0 14:-5 15:-5 16:-11 17:0 18:0 19:0 20:0 21:0 22:-7 23:0 24:0 25:0 26:0 27:0 28:0 29:-5 30:0 31:0 32:0 33:0 34:0 35:0 36:0 37:0 38:0 39:-3 40:0 41:5 42:5 43:5 44:5 45:0 46:0 47:0 48:0 49:0 50:0 51:0 52:0 53:0 54:5 55:5 56:5 57:2 58:0 59:3 60:0 61:11 62:0 63:7 64:2 
0.2054530684199128 1:-2 2:-7 3:0 4:0 5:0 6:-2 7:0 8:0 9:-5 10:-5 11:-5 12:0 13:0 14:-5 15:-5 16:-11 17:0 18:0 19:0 20:0 21:0 22:0 23:0 24:0 25:0 26:0 27:0 28:0 29:-5 30:0 31:0 32:0 33:0 34:0 35:0 36:0 37:-7 38:0 39:-3 40:0 41:5 42:5 43:5 44:0 45:0 46:0 47:0 48:0 49:0 50:0 51:5 52:0 53:0 54:5 55:5 56:5 57:2 58:0 59:3 60:0 61:11 62:0 63:7 64:2 
0.9485372206081705 1:-2 2:-7 3:0 4:0 5:0 6:-2 7:-11 8:0 9:-5 10:-5 11:-5 12:0 13:0 14:-5 15:-5 16:-5 17:0 18:0 19:0 20:0 21:0 22:-7 23:0 24:0 25:0 26:0 27:0 28:0 29:-5 30:0 31:0 32:0 33:0 34:0 35:0 36:0 37:0 38:0 39:-3 40:0 41:5 42:5 43:5 44:5 45:0 46:0 47:0 48:0 49:0 50:0 51:0 52:11 53:0 54:5 55:5 56:5 57:2 58:0 59:3 60:0 61:0 62:3 63:7 64:2 
0.5045989487682478 1:-2 2:-7 3:0 4:0 5:0 6:-2 7:-11 8:0 9:-5 10:-5 11:-5 12:0 13:0 14:-5 15:-5 16:-5 17:0 18:0 19:0 20:0 21:0 22:-7 23:0 24:0 25:0 26:0 27:0 28:0 29:-5 30:0 31:0 32:0 33:0 34:0 35:0 36:0 37:0 38:0 39:-3 40:0 41:5 42:-13 43:5 44:13 45:0 46:0 47:0 48:0 49:0 50:0 51:5 52:11 53:0 54:5 55:5 56:5 57:2 58:0 59:3 60:0 61:0 62:3 63:7 64:2 
0.4794280582581588 1:-2 2:-7 3:0 4:0 5:0 6:-2 7:-11 8:0 9:-5 10:-5 11:-5 12:0 13:0 14:-5 15:-5 16:-5 17:0 18:0 19:0 20:0 21:0 22:-7 23:0 24:0 25:0 26:0 27:0 28:0 29:-5 30:0 31:0 32:0 33:0 34:0 35:0 36:0 37:0 38:0 39:-3 40:0 41:5 42:5 43:5 44:13 45:0 46:0 47:0 48:0 49:0 50:0 51:5 52:11 53:0 54:5 55:-13 56:5 57:2 58:0 59:3 60:0 61:0 62:3 63:7 64:2 
0.2275468208630398 1:-2 2:-7 3:0 4:0 5:0 6:-2 7:-11 8:0 9:-5 10:-5 11:-5 12:0 13:0 14:-5 15:-5 16:-5 17:0 18:0 19:0 20:0 21:0 22:0 23:0 24:0 25:0 26:0 27:0 28:0 29:-5 30:0 31:0 32:0 33:0 34:0 35:0 36:0 37:-7 38:0 39:-3 40:0 41:5 42:5 43:5 44:-13 45:0 46:0 47:0 48:0 49:0 50:0 51:5 52:0 53:0 54:5 55:5 56:5 57:2 58:0 59:3 60:0 61:11 62:3 63:7 64:2 
1 1:-2 2:-7 3:0 4:0 5:0 6:-2 7:-11 8:0 9:-5 10:-5 11:-5 12:0 13:0 14:-5 15:-5 16:-5 17:0 18:0 19:0 20:0 21:0 22:0 23:0 24:0 25:0 26:0 27:0 28:0 29:-5 30:0 31:0 32:0 33:0 34:0 35:0 36:0 37:0 38:0 39:-3 40:0 41:5 42:5 43:5 44:5 45:0 46:0 47:0 48:0 49:0 50:0 51:0 52:0 53:0 54:-7 55:5 56:5 57:2 58:0 59:3 60:0 61:11 62:3 63:7 64:2 
0.4442901753571473 1:-2 2:-7 3:0 4:0 5:0 6:-2 7:-11 8:0 9:-5 10:-5 11:-5 12:0 13:0 14:-5 15:-5 16:-5 17:0 18:0 19:0 20:0 21:0 22:0 23:0 24:0 25:0 26:0 27:0 28:-13 29:-5 30:0 31:0 32:0 33:0 34:0 35:0 36:0 37:0 38:0 39:-3 40:0 41:5 42:5 43:-7 44:13 45:0 46:0 47:0 48:0 49:0 50:0 51:5 52:0 53:0 54:5 55:5 56:5 57:2 58:0 59:3 60:0 61:11 62:3 63:7 64:2 
0.4110364016154 1:-2 2:-7 3:0 4:0 5:0 6:-2 7:-11 8:0 9:-5 10:-5 11:-5 12:0 13:0 14:-5 15:-5 16:-5 17:0 18:0 19:0 20:0 21:0 22:0 23:0 24:0 25:0 26:0 27:0 28:0 29:-5 30:0 31:0 32:0 33:0 34:0 35:0 36:0 37:-7 38:0 39:-3 40:0 41:5 42:-13 43:5 44:13 45:0 46:0 47:0 48:0 49:0 50:0 51:5 52:0 53:0 54:5 55:5 56:5 57:2 58:0 59:3 60:0 61:11 62:3 63:7 64:2 
0.6634752164969376 1:-2 2:-7 3:0 4:0 5:0 6:-2 7:-11 8:0 9:-5 10:-5 11:-5 12:0 13:0 14:-5 15:-5 16:-5 17:0 18:0 19:0 20:0 21:0 22:0 23:0 24:0 25:0 26:0 27:0 28:-7 29:-5 30:0 31:0 32:0 33:0 34:0 35:0 36:0 37:0 38:0 39:0 40:0 41:5 42:5 43:5 44:0 45:0 46:0 47:0 48:-3 49:0 50:0 51:5 52:0 53:0 54:5 55:5 56:0 57:2 58:0 59:3 60:0 61:11 62:3 63:7 64:2 
1 1:-2 2:-7 3:0 4:0 5:0 6:-2 7:-11 8:0 9:-5 10:-5 11:-5 12:0 13:0 14:-5 15:-5 16:-5 17:0 18:0 19:0 20:0 21:0 22:0 23:0 24:0 25:0 26:0 27:0 28:0 29:-5 30:0 31:0 32:0 33:0 34:0 35:0 36:0 37:0 38:0 39:-3 40:0 41:5 42:5 43:5 44:0 45:5 46:0 47:0 48:0 49:0 50:0 51:5 52:0 53:0 54:0 55:5 56:5 57:2 58:0 59:0 60:0 61:11 62:3 63:7 64:2 
0.1323238954653419 1:-2 2:-7 3:0 4:0 5:0 6:-2 7:-11 8:0 9:-5 10:-5 11:-5 12:0 13:0 14:-5 15:-5 16:-5 17:0 18:0 19:0 20:0 21:0 22:-7 23:0 24:0 25:0 26:0 27:0 28:0 29:-5 30:0 31:0 32:0 33:0 34:0 35:0 36:0 37:0 38:0 39:0 40:0 41:5 42:5 43:5 44:3 45:0 46:-3 47:0 48:0 49:0 50:0 51:5 52:0 53:0 54:0 55:5 56:5 57:2 58:0 59:3 60:0 61:11 62:0 63:7 64:2 
0.4361079698243182 1:-2 2:0 3:0 4:0 5:0 6:-2 7:-11 8:0 9:-5 10:-5 11:-5 12:0 13:0 14:-5 15:-5 16:-5 17:-7 18:0 19:0 20:0 21:0 22:0 23:0 24:0 25:0 26:0 27:0 28:-7 29:-5 30:0 31:0 32:0 33:0 34:0 35:0 36:0 37:0 38:0 39:-3 40:0 41:5 42:5 43:5 44:0 45:0 46:5 47:0 48:0 49:0 50:0 51:5 52:0 53:0 54:0 55:5 56:5 57:2 58:0 59:3 60:0 61:11 62:3 63:7 64:2 
0.08137169136753289 1:-2 2:-7 3:0 4:0 5:0 6:-2 7:-11 8:0 9:-5 10:-5 11:-5 12:-7 13:0 14:-5 15:-5 16:-5 17:0 18:0 19:0 20:0 21:0 22:0 23:0 24:0 25:0 26:0 27:0 28:-13 29:-5 30:0 31:0 32:0 33:0 34:0 35:0 36:0 37:0 38:0 39:-3 40:0 41:5 42:5 43:5 44:13 45:0 46:5 47:0 48:0 49:0 50:0 51:5 52:0 53:0 54:0 55:5 56:5 57:2 58:0 59:3 60:0 61:11 62:3 63:7 64:2 
1 1:-2 2:-7 3:0 4:0 5:0 6:-2 7:-11 8:0 9:-5 10:-5 11:-5 12:0 13:0 14:-5 15:-5 16:-5 17:0 18:0 19:0 20:0 21:0 22:-7 23:0 24:0 25:0 26:0 27:0 28:0 29:-5 30:0 31:0 32:0 33:0 34:0 35:0 36:0 37:0 38:0 39:0 40:0 41:5 42:5 43:5 44:3 45:0 46:0 47:0 48:-3 49:0 50:0 51:5 52:0 53:0 54:5 55:5 56:0 57:2 58:0 59:3 60:0 61:11 62:0 63:7 64:2 
0.01841088111039348 1:-2 2:-7 3:0 4:0 5:0 6:-2 7:-11 8:0 9:-5 10:-5 11:-5 12:0 13:0 14:-5 15:-5 16:-7 17:0 18:0 19:0 20:0 21:-3 22:0 23:0 24:0 25:0 26:0 27:0 28:-13 29:-5 30:0 31:0 32:0 33:0 34:0 35:0 36:0 37:0 38:0 39:0 40:0 41:5 42:5 43:5 44:0 45:0 46:0 47:0 48:5 49:0 50:0 51:5 52:0 53:0 54:5 55:5 56:0 57:2 58:0 59:3 60:0 61:11 62:3 63:7 64:2 
0.1767880478195165 1:-2 2:0 3:0 4:0 5:0 6:-2 7:-11 8:0 9:-5 10:-5 11:-5 12:0 13:0 14:-5 15:-5 16:-5 17:-7 18:0 19:0 20:0 21:0 22:-7 23:0 24:0 25:0 26:0 27:0 28:-13 29:-5 30:0 31:0 32:0 33:0 34:0 35:0 36:0 37:0 38:0 39:-3 40:0 41:5 42:5 43:5 44:13 45:0 46:0 47:0 48:5 49:0 50:0 51:5 52:0 53:0 54:5 55:5 56:0 57:2 58:0 59:3 60:0 61:11 62:3 63:7 64:2 
0.3651889168735963 1:-2 2:-7 3:0 4:0 5:0 6:-2 7:-11 8:0 9:-5 10:-5 11:-5 12:0 13:0 14:-5 15:-5 16:-5 17:0 18:0 19:0 20:0 21:0 22:-7 23:0 24:0 25:0 26:0 27:0 28:0 29:-5 30:0 31:0 32:0 33:0 34:0 35:0 36:0 37:0 38:0 39:-3 40:0 41:5 42:5 43:5 44:13 45:0 46:-13 47:0 48:5 49:0 50:0 51:5 52:0 53:0 54:5 55:5 56:0 57:2 58:0 59:3 60:0 61:11 62:3 63:7 64:2 
0.2930193568393368 1:-2 2:-7 3:0 4:0 5:0 6:-2 7:-11 8:0 9:-5 10:-5 11:-5 12:0 13:0 14:-5 15:-5 16:-5 17:0 18:0 19:0 20:0 21:0 22:-7 23:0 24:0 25:0 26:0 27:0 28:0 29:-5 30:0 31:0 32:0 33:0 34:0 35:-13 36:0 37:0 38:0 39:-3 40:0 41:5 42:5 43:5 44:13 45:0 46:0 47:0 48:5 49:0 50:0 51:5 52:0 53:0 54:5 55:5 56:0 57:2 58:0 59:3 60:0 61:11 62:3 63:7 64:2 
0.5022006353496078 1:-2 2:-7 3:0 4:0 5:0 6:-2 7:-11 8:0 9:-5 10:-5 11:-5 12:0 13:0 14:-5 15:-5 16:-5 17:0 18:0 19:0 20:0 21:0 22:-7 23:0 24:0 25:0 26:-13 27:0 28:0 29:-5 30:0 31:0 32:0 33:0 34:0 35:0 36:0 37:0 38:0 39:-3 40:0 41:5 42:5 43:5 44:13 45:0 46:0 47:0 48:5 49:0 50:0 51:5 52:0 53:0 54:5 55:5 56:0 57:2 58:0 59:3 60:0 61:11 62:3 63:7 64:2 
0.2948450668785053 1:-2 2:-7 3:0 4:0 5:0 6:-2 7:-11 8:0 9:-5 10:-5 11:0 12:0 13:0 14:-5 15:-5 16:-5 17:0 18:0 19:0 20:-5 21:0 22:-7 23:0 24:0 25:0 26:0 27:0 28:0 29:-5 30:0 31:0 32:0 33:0 34:0 35:0 36:0 37:0 38:0 39:-3 40:0 41:5 42:5 43:5 44:0 45:0 46:0 47:0 48:5 49:0 50:0 51:5 52:0 53:0 54:5 55:5 56:0 57:2 58:0 59:3 60:0 61:11 62:3 63:7 64:2 
1 1:-2 2:-7 3:0 4:0 5:0 6:-2 7:-11 8:0 9:-5 10:-5 11:-5 12:-7 13:0 14:-5 15:-5 16:-5 17:0 18:0 19:0 20:0 21:0 22:0 23:0 24:0 25:0 26:0 27:0 28:0 29:-5 30:0 31:0 32:0 33:0 34:0 35:0 36:0 37:0 38:0 39:-3 40:0 41:5 42:5 43:5 44:0 45:0 46:0 47:0 48:5 49:0 50:0 51:5 52:0 53:0 54:5 55:5 56:0 57:2 58:0 59:3 60:0 61:11 62:3 63:7 64:2 
0.5119260552539201 1:-2 2:-7 3:0 4:0 5:0 6:-2 7:-11 8:0 9:-5 10:0 11:-5 12:0 13:0 14:-5 15:-5 16:-5 17:0 18:0 19:0 20:0 21:0 22:0 23:0 24:0 25:0 26:-5 27:0 28:-7 29:-5 30:0 31:0 32:0 33:0 34:0 35:0 36:0 37:0 38:0 39:-3 40:0 41:5 42:5 43:5 44:0 45:0 46:0 47:0 48:5 49:0 50:0 51:5 52:0 53:0 54:5 55:5 56:0 57:2 58:0 59:3 60:0 61:11 62:3 63:7 64:2 
0.4141125623532939 1:-2 2:-7 3:0 4:0 5:0 6:-2 7:-11 8:0 9:-5 10:-5 11:0 12:0 13:0 14:-5 15:-5 16:-5 17:0 18:0 19:0 20:0 21:0 22:0 23:0 24:0 25:0 26:0 27:-5 28:-7 29:-5 30:0 31:0 32:0 33:0 34:0 35:0 36:0 37:0 38:0 39:-3 40:0 41:5 42:5 43:5 44:0 45:0 46:0 47:0 48:5 49:0 50:0 51:5 52:0 53:0 54:5 55:5 56:0 57:2 58:0 59:3 60:0 61:11 62:3 63:7 64:2 
0.1319157009755166 1:-2 2:-7 3:0 4:0 5:0 6:-2 7:-11 8:0 9:-5 10:-5 11:-5 12:0 13:0 14:-5 15:-5 16:0 17:0 18:0 19:0 20:0 21:0 22:0 23:0 24:0 25:0 26:0 27:0 28:-7 29:-5 30:0 31:0 32:-5 33:0 34:0 35:0 36:0 37:0 38:0 39:-3 40:0 41:5 42:5 43:5 44:0 45:0 46:0 47:0 48:5 49:0 50:0 51:5 52:0 53:0 54:5 55:5 56:0 57:2 58:0 59:3 60:0 61:11 62:3 63:7 64:2 
0.2723349951749547 1:-2 2:-7 3:0 4:0 5:0 6:-2 7:-11 8:0 9:-5 10:-5 11:-5 12:0 13:0 14:-5 15:0 16:-5 17:0 18:0 19:0 20:0 21:0 22:0 23:-5 24:0 25:0 26:0 27:0 28:-7 29:-5 30:0 31:0 32:0 33:0 34:0 35:0 36:0 37:0 38:0 39:-3 40:0 41:5 42:5 43:5 44:0 45:0 46:0 47:0 48:5 49:0 50:0 51:5 52:0 53:0 54:5 55:5 56:0 57:2 58:0 59:3 60:0 61:11 62:3 63:7 64:2 
0.03976720800081252 1:-2 2:-7 3:0 4:0 5:0 6:-2 7:-11 8:0 9:-5 10:-5 11:-5 12:0 13:0 14:-5 15:-5 16:-5 17:0 18:0 19:0 20:0 21:0 22:0 23:0 24:0 25:0 26:0 27:0 28:-13 29:-5 30:0 31:0 32:0 33:0 34:0 35:0 36:0 37:-7 38:0 39:-3 40:0 41:5 42:5 43:5 44:13 45:0 46:0 47:0 48:5 49:0 50:0 51:5 52:0 53:0 54:5 55:5 56:0 57:2 58:0 59:3 60:0 61:11 62:3 63:7 64:2 
0.1990886692841754 1:-2 2:-7 3:0 4:0 5:0 6:-2 7:-11 8:0 9:-5 10:-5 11:-5 12:0 13:0 14:-5 15:-5 16:-5 17:0 18:0 19:0 20:0 21:0 22:0 23:0 24:0 25:0 26:0 27:0 28:-13 29:-5 30:0 31:0 32:-7 33:0 34:0 35:0 36:0 37:0 38:0 39:-3 40:0 41:5 42:5 43:5 44:13 45:0 46:0 47:0 48:5 49:0 50:0 51:5 52:0 53:0 54:5 55:5 56:0 57:2 58:0 59:3 60:0 61:11 62:3 63:7 64:2 
0.07051877152568599 1:-2 2:-7 3:0 4:0 5:0 6:-2 7:-11 8:0 9:-5 10:0 11:-5 12:0 13:0 14:-5 15:-5 16:-5 17:0 18:-5 19:0 20:0 21:0 22:-7 23:0 24:0 25:0 26:0 27:0 28:-13 29:-5 30:0 31:0 32:0 33:0 34:0 35:0 36:0 37:0 38:0 39:-3 40:0 41:5 42:5 43:5 44:13 45:0 46:0 47:0 48:5 49:0 50:0 51:5 52:0 53:0 54:5 55:5 56:0 57:2 58:0 59:3 60:0 61:11 62:3 63:7 64:2 
0.3307936692015649 1:-2 2:-7 3:0 4:0 5:0 6:-2 7:-11 8:0 9:-5 10:0 11:-5 12:0 13:0 14:-5 15:-5 16:-5 17:0 18:-5 19:0 20:0 21:0 22:0 23:0 24:0 25:0 26:0 27:0 28:-7 29:-5 30:0 31:0 32:0 33:0 34:0 35:0 36:0 37:0 38:0 39:-3 40:0 41:5 42:5 43:5 44:0 45:0 46:0 47:0 48:5 49:0 50:0 51:5 52:0 53:0 54:5 55:5 56:0 57:2 58:0 59:3 60:0 61:11 62:3 63:7 64:2 
0.08178886213977261 1:-2 2:-7 3:0 4:0 5:0 6:-2 7:-11 8:0 9:-5 10:-5 11:-5 12:-3 13:0 14:-5 15:-5 16:-5 17:0 18:0 19:0 20:0 21:0 22:-7 23:0 24:0 25:0 26:0 27:0 28:-13 29:-5 30:0 31:0 32:0 33:0 34:0 35:0 36:0 37:0 38:0 39:0 40:0 41:5 42:5 43:5 44:13 45:0 46:0 47:0 48:0 49:0 50:0 51:5 52:0 53:7 54:5 55:5 56:5 57:2 58:0 59:3 60:0 61:11 62:3 63:0 64:2 
0.08270635427848962 1:-2 2:-7 3:0 4:0 5:0 6:-2 7:-11 8:0 9:-5 10:-5 11:-5 12:-3 13:0 14:-5 15:-5 16:-5 17:0 18:0 19:0 20:0 21:0 22:0 23:0 24:0 25:0 26:0 27:0 28:-7 29:-5 30:0 31:0 32:0 33:0 34:0 35:0 36:0 37:0 38:0 39:0 40:0 41:5 42:5 43:5 44:0 45:0 46:0 47:0 48:0 49:0 50:0 51:5 52:0 53:7 54:5 55:5 56:5 57:2 58:0 59:3 60:0 61:11 62:3 63:0 64:2 
0.2439923072886375 1:-2 2:-7 3:0 4:0 5:0 6:-2 7:-11 8:0 9:-5 10:-5 11:-5 12:0 13:0 14:-5 15:-5 16:-5 17:0 18:0 19:0 20:0 21:0 22:-7 23:0 24:0 25:0 26:0 27:0 28:0 29:-5 30:0 31:0 32:0 33:0 34:0 35:5 36:0 37:-13 38:0 39:-3 40:0 41:5 42:5 43:0 44:13 45:0 46:0 47:0 48:0 49:0 50:0 51:5 52:0 53:7 54:5 55:5 56:5 57:2 58:0 59:3 60:0 61:11 62:3 63:0 64:2 
0.3684593875701296 1:-2 2:-7 3:0 4:0 5:0 6:-2 7:-11 8:0 9:-5 10:-5 11:-5 12:0 13:0 14:-5 15:-5 16:-5 17:0 18:0 19:0 20:0 21:0 22:-7 23:0 24:0 25:0 26:0 27:0 28:0 29:-5 30:0 31:3 32:0 33:0 34:0 35:0 36:0 37:-13 38:0 39:-3 40:0 41:5 42:5 43:5 44:13 45:0 46:0 47:0 48:0 49:0 50:0 51:5 52:11 53:0 54:5 55:5 56:5 57:2 58:0 59:0 60:0 61:0 62:3 63:7 64:2 
0.1255048705973142 1:-2 2:-7 3:0 4:0 5:0 6:-2 7:-11 8:0 9:-5 10:-5 11:-5 12:0 13:0 14:-5 15:-5 16:-5 17:0 18:0 19:0 20:0 21:0 22:-7 23:0 24:0 25:0 26:0 27:0 28:0 29:-5 30:0 31:0 32:0 33:0 34:0 35:0 36:0 37:-13 38:0 39:-3 40:0 41:5 42:5 43:5 44:13 45:3 46:0 47:0 48:0 49:0 50:0 51:5 52:0 53:0 54:5 55:5 56:5 57:2 58:0 59:0 60:0 61:11 62:3 63:7 64:2 
0.1714397866798249 1:-2 2:-7 3:0 4:0 5:0 6:-2 7:-11 8:0 9:-5 10:-5 11:-5 12:0 13:0 14:0 15:-5 16:-5 17:0 18:0 19:0 20:0 21:0 22:0 23:0 24:0 25:0 26:0 27:0 28:-7 29:-5 30:-5 31:0 32:0 33:0 34:0 35:0 36:0 37:0 38:0 39:-3 40:0 41:5 42:5 43:5 44:0 45:0 46:0 47:0 48:5 49:0 50:0 51:5 52:0 53:0 54:5 55:5 56:0 57:2 58:0 59:3 60:0 61:11 62:3 63:7 64:2 
0.9085095792072337 1:-2 2:-7 3:0 4:0 5:0 6:-2 7:-11 8:0 9:-5 10:-5 11:-5 12:0 13:0 14:-5 15:-5 16:-5 17:0 18:0 19:0 20:0 21:0 22:0 23:0 24:0 25:0 26:0 27:0 28:0 29:-5 30:0 31:0 32:0 33:0 34:0 35:0 36:0 37:0 38:0 39:5 40:0 41:5 42:5 43:5 44:0 45:0 46:0 47:0 48:0 49:0 50:0 51:5 52:0 53:0 54:5 55:5 56:0 57:2 58:0 59:3 60:0 61:11 62:-7 63:7 64:2 
0.484109428225846 1:-2 2:-7 3:0 4:0 5:0 6:-2 7:-11 8:0 9:-5 10:-5 11:-5 12:0 13:0 14:-5 15:-5 16:-5 17:0 18:0 19:0 20:0 21:0 22:0 23:0 24:0 25:0 26:0 27:0 28:0 29:-5 30:0 31:0 32:0 33:0 34:0 35:0 36:0 37:0 38:0 39:5 40:0 41:5 42:5 43:5 44:0 45:0 46:0 47:0 48:0 49:0 50:0 51:0 52:11 53:0 54:5 55:5 56:0 57:-7 58:0 59:3 60:0 61:0 62:3 63:7 64:2 
0.3536022381518511 1:-2 2:-7 3:0 4:0 5:0 6:-2 7:-11 8:0 9:-5 10:-5 11:-5 12:0 13:0 14:-5 15:-5 16:-5 17:0 18:0 19:0 20:0 21:0 22:0 23:0 24:0 25:0 26:0 27:0 28:0 29:-5 30:0 31:0 32:0 33:0 34:0 35:0 36:0 37:0 38:0 39:5 40:0 41:5 42:5 43:5 44:0 45:0 46:0 47:0 48:0 49:0 50:0 51:0 52:0 53:11 54:5 55:5 56:0 57:-7 58:0 59:3 60:0 61:0 62:3 63:7 64:2 
0.6530871406005755 1:-2 2:-7 3:0 4:0 5:0 6:-2 7:-11 8:0 9:-5 10:-5 11:-5 12:0 13:0 14:-5 15:-5 16:-5 17:0 18:0 19:0 20:0 21:0 22:0 23:0 24:0 25:0 26:0 27:0 28:0 29:-5 30:0 31:0 32:0 33:0 34:-7 35:0 36:0 37:0 38:0 39:-3 40:0 41:5 42:5 43:5 44:0 45:0 46:0 47:0 48:5 49:0 50:0 51:5 52:0 53:0 54:5 55:5 56:0 57:2 58:0 59:3 60:0 61:11 62:3 63:7 64:2 
0.6394085300064363 1:-2 2:-7 3:-3 4:0 5:0 6:-2 7:-11 8:0 9:-5 10:-5 11:-5 12:0 13:0 14:-5 15:-5 16:-5 17:0 18:0 19:0 20:0 21:0 22:0 23:0 24:0 25:0 26:0 27:0 28:-7 29:-5 30:0 31:0 32:0 33:0 34:0 35:0 36:0 37:0 38:0 39:0 40:0 41:5 42:5 43:5 44:0 45:0 46:0 47:0 48:5 49:0 50:0 51:5 52:0 53:0 54:5 55:5 56:0 57:2 58:0 59:3 60:0 61:11 62:3 63:7 64:2 
1 1:-2 2:-7 3:0 4:0 5:0 6:-2 7:-11 8:0 9:-5 10:-5 11:-5 12:0 13:0 14:-5 15:-5 16:-5 17:0 18:0 19:0 20:0 21:0 22:0 23:0 24:0 25:0 26:0 27:0 28:0 29:-5 30:0 31:0 32:0 33:0 34:0 35:0 36:0 37:0 38:0 39:-3 40:0 41:5 42:5 43:5 44:0 45:-7 46:7 47:0 48:0 49:0 50:0 51:5 52:0 53:0 54:5 55:5 56:5 57:2 58:0 59:3 60:0 61:11 62:3 63:0 64:2 
1 1:-2 2:-7 3:0 4:0 5:0 6:-2 7:-11 8:0 9:-5 10:-5 11:-5 12:0 13:-7 14:-5 15:-5 16:-5 17:0 18:0 19:0 20:0 21:0 22:0 23:0 24:0 25:0 26:0 27:0 28:0 29:-5 30:0 31:0 32:0 33:0 34:0 35:0 36:0 37:0 38:0 39:-3 40:0 41:5 42:5 43:5 44:0 45:0 46:7 47:0 48:0 49:0 50:0 51:5 52:0 53:0 54:5 55:5 56:5 57:2 58:0 59:3 60:0 61:11 62:3 63:0 64:2 
0.7405066987793064 1:-2 2:-7 3:-3 4:0 5:0 6:-2 7:-11 8:0 9:-5 10:-5 11:-5 12:0 13:0 14:-5 15:-5 16:-5 17:0 18:0 19:0 20:0 21:0 22:0 23:0 24:0 25:0 26:0 27:0 28:-7 29:-5 30:0 31:0 32:0 33:0 34:0 35:0 36:0 37:0 38:0 39:0 40:0 41:5 42:5 43:5 44:0 45:0 46:7 47:0 48:0 49:0 50:0 51:5 52:0 53:0 54:5 55:5 56:5 57:2 58:0 59:3 60:0 61:11 62:3 63:0 64:2 
1 1:-2 2:-7 3:0 4:0 5:0 6:-2 7:0 8:-11 9:-5 10:-5 11:-5 12:0 13:0 14:-5 15:-5 16:-5 17:0 18:0 19:0 20:0 21:0 22:0 23:0 24:0 25:0 26:0 27:0 28:-7 29:-5 30:0 31:0 32:0 33:0 34:0 35:0 36:0 37:0 38:0 39:-3 40:0 41:5 42:5 43:5 44:0 45:0 46:7 47:0 48:0 49:0 50:0 51:5 52:0 53:0 54:5 55:5 56:5 57:2 58:0 59:3 60:0 61:11 62:3 63:0 64:2 
1 1:-2 2:-7 3:0 4:0 5:0 6:-2 7:-11 8:0 9:-5 10:-5 11:-5 12:0 13:0 14:-5 15:0 16:-5 17:0 18:0 19:0 20:0 21:0 22:0 23:0 24:0 25:0 26:0 27:0 28:-7 29:-5 30:0 31:-5 32:0 33:0 34:0 35:0 36:0 37:0 38:0 39:-3 40:0 41:5 42:5 43:5 44:0 45:0 46:7 47:0 48:0 49:0 50:0 51:5 52:0 53:0 54:5 55:5 56:5 57:2 58:0 59:3 60:0 61:11 62:3 63:0 64:2 
1 1:-2 2:-7 3:0 4:0 5:0 6:-2 7:-11 8:0 9:-5 10:0 11:-5 12:0 13:0 14:-5 15:-5 16:-5 17:0 18:-5 19:0 20:0 21:0 22:0 23:0 24:0 25:0 26:0 27:0 28:-7 29:-5 30:0 31:0 32:0 33:0 34:0 35:0 36:0 37:0 38:0 39:-3 40:0 41:5 42:5 43:5 44:0 45:0 46:7 47:0 48:0 49:0 50:0 51:5 52:0 53:0 54:5 55:5 56:5 57:2 58:0 59:3 60:0 61:11 62:3 63:0 64:2 
0.01308583359720404 1:-2 2:0 3:0 4:0 5:0 6:-2 7:-11 8:0 9:-5 10:-5 11:-5 12:0 13:0 14:-5 15:-5 16:-5 17:-7 18:0 19:0 20:0 21:0 22:0 23:0 24:0 25:0 26:0 27:0 28:-7 29:-5 30:0 31:0 32:0 33:0 34:0 35:0 36:0 37:0 38:0 39:-3 40:0 41:5 42:5 43:5 44:0 45:0 46:0 47:0 48:0 49:0 50:0 51:5 52:0 53:3 54:5 55:5 56:5 57:2 58:0 59:3 60:0 61:11 62:0 63:7 64:2 
0.2155457645458458 1:-2 2:-7 3:0 4:0 5:0 6:-2 7:0 8:-11 9:-5 10:-5 11:-5 12:0 13:0 14:-5 15:-5 16:-5 17:0 18:0 19:0 20:0 21:0 22:0 23:0 24:0 25:0 26:0 27:0 28:-7 29:-5 30:0 31:0 32:0 33:0 34:0 35:0 36:0 37:0 38:0 39:-3 40:0 41:5 42:5 43:5 44:0 45:0 46:0 47:0 48:0 49:0 50:0 51:5 52:0 53:3 54:5 55:5 56:5 57:2 58:0 59:3 60:0 61:11 62:0 63:7 64:2 
0.2350543116989584 1:-2 2:-7 3:0 4:0 5:0 6:-2 7:-11 8:0 9:-5 10:-5 11:-5 12:0 13:0 14:-5 15:0 16:-5 17:0 18:0 19:0 20:0 21:0 22:0 23:0 24:0 25:0 26:0 27:0 28:-7 29:-5 30:0 31:-5 32:0 33:0 34:0 35:0 36:0 37:0 38:0 39:-3 40:0 41:5 42:5 43:5 44:0 45:0 46:0 47:0 48:0 49:0 50:0 51:5 52:0 53:3 54:5 55:5 56:5 57:2 58:0 59:3 60:0 61:11 62:0 63:7 64:2 
0.2341920239755596 1:-2 2:-7 3:0 4:0 5:0 6:-2 7:-11 8:0 9:-5 10:0 11:-5 12:0 13:0 14:-5 15:-5 16:-5 17:0 18:0 19:0 20:0 21:0 22:0 23:0 24:0 25:0 26:-5 27:0 28:-7 29:-5 30:0 31:0 32:0 33:0 34:0 35:0 36:0 37:0 38:0 39:-3 40:0 41:5 42:5 43:5 44:0 45:0 46:0 47:0 48:0 49:0 50:0 51:5 52:0 53:3 54:5 55:5 56:5 57:2 58:0 59:3 60:0 61:11 62:0 63:7 64:2 
0.1120717043362208 1:-2 2:-7 3:0 4:0 5:0 6:-2 7:-11 8:0 9:0 10:-5 11:-5 12:0 13:0 14:-5 15:-5 16:-5 17:0 18:0 19:0 20:0 21:0 22:0 23:0 24:0 25:-5 26:0 27:0 28:-7 29:-5 30:0 31:0 32:0 33:0 34:0 35:0 36:0 37:0 38:0 39:-3 40:0 41:5 42:5 43:5 44:0 45:0 46:0 47:0 48:0 49:0 50:0 51:5 52:0 53:3 54:5 55:5 56:5 57:2 58:0 59:3 60:0 61:11 62:0 63:7 64:2 
0.156759863077626 1:-2 2:-7 3:0 4:0 5:0 6:-2 7:-11 8:0 9:-5 10:0 11:-5 12:0 13:0 14:-5 15:-5 16:-5 17:0 18:-5 19:0 20:0 21:0 22:0 23:0 24:0 25:0 26:0 27:0 28:-7 29:-5 30:0 31:0 32:0 33:0 34:0 35:0 36:0 37:0 38:0 39:-3 40:0 41:5 42:5 43:5 44:0 45:0 46:0 47:0 48:0 49:0 50:0 51:5 52:0 53:3 54:5 55:5 56:5 57:2 58:0 59:3 60:0 61:11 62:0 63:7 64:2 
0.3825391132752541 1:-2 2:-7 3:0 4:0 5:0 6:-2 7:-11 8:0 9:-5 10:-5 11:-5 12:0 13:0 14:-5 15:-5 16:-5 17:0 18:0 19:0 20:0 21:0 22:0 23:0 24:0 25:0 26:0 27:0 28:0 29:-5 30:0 31:0 32:0 33:0 34:5 35:0 36:0 37:0 38:0 39:-3 40:0 41:5 42:0 43:-7 44:0 45:0 46:0 47:0 48:0 49:0 50:0 51:5 52:0 53:0 54:5 55:5 56:5 57:2 58:0 59:3 60:0 61:11 62:3 63:7 64:2 
0.6729813776363485 1:-2 2:0 3:0 4:0 5:0 6:-2 7:-11 8:0 9:-5 10:-5 11:-5 12:0 13:0 14:-5 15:-5 16:-5 17:0 18:0 19:0 20:0 21:0 22:-7 23:0 24:0 25:0 26:0 27:0 28:0 29:-7 30:0 31:0 32:0 33:0 34:0 35:0 36:0 37:0 38:0 39:-3 40:0 41:5 42:5 43:5 44:5 45:0 46:0 47:0 48:0 49:0 50:0 51:0 52:0 53:0 54:5 55:5 56:5 57:2 58:0 59:3 60:0 61:11 62:3 63:0 64:2 
1 1:-2 2:0 3:0 4:0 5:0 6:-2 7:-11 8:0 9:-5 10:-5 11:-5 12:0 13:0 14:-5 15:-5 16:-5 17:0 18:0 19:-7 20:0 21:0 22:-7 23:0 24:0 25:0 26:0 27:0 28:0 29:0 30:0 31:0 32:0 33:0 34:0 35:0 36:0 37:0 38:0 39:-3 40:0 41:5 42:5 43:5 44:7 45:0 46:0 47:0 48:0 49:0 50:0 51:5 52:0 53:0 54:5 55:5 56:5 57:2 58:0 59:3 60:0 61:11 62:3 63:0 64:2 
0.3803030219613167 1:-2 2:0 3:0 4:0 5:0 6:-2 7:-11 8:0 9:-5 10:-5 11:-5 12:0 13:0 14:-5 15:-5 16:-5 17:0 18:0 19:0 20:0 21:0 22:-7 23:0 24:0 25:0 26:0 27:0 28:-13 29:-7 30:0 31:0 32:0 33:0 34:0 35:0 36:0 37:0 38:0 39:-3 40:0 41:5 42:5 43:5 44:13 45:0 46:0 47:0 48:0 49:0 50:0 51:5 52:0 53:0 54:5 55:5 56:5 57:2 58:0 59:3 60:0 61:11 62:3 63:0 64:2 
0.3763863459920038 1:-2 2:0 3:0 4:0 5:0 6:-2 7:-11 8:0 9:-5 10:-5 11:-5 12:0 13:0 14:-5 15:-5 16:-7 17:0 18:0 19:-7 20:0 21:0 22:0 23:0 24:0 25:0 26:0 27:0 28:-13 29:-5 30:0 31:0 32:0 33:0 34:0 35:0 36:0 37:0 38:0 39:-3 40:0 41:5 42:5 43:5 44:0 45:0 46:7 47:0 48:0 49:0 50:0 51:5 52:0 53:0 54:5 55:5 56:5 57:2 58:0 59:3 60:0 61:11 62:3 63:0 64:2 
0.02266577088599632 1:-2 2:-7 3:0 4:0 5:0 6:-2 7:-11 8:0 9:-5 10:-5 11:-5 12:0 13:0 14:-5 15:-5 16:-7 17:0 18:0 19:0 20:0 21:-3 22:0 23:0 24:0 25:0 26:0 27:0 28:-13 29:-5 30:0 31:0 32:0 33:0 34:0 35:0 36:0 37:0 38:0 39:0 40:0 41:5 42:5 43:5 44:0 45:0 46:5 47:0 48:0 49:0 50:0 51:5 52:0 53:0 54:0 55:5 56:5 57:2 58:0 59:3 60:0 61:11 62:3 63:7 64:2 
0.07415379558515696 1:-2 2:0 3:0 4:0 5:0 6:-2 7:-11 8:0 9:3 10:-5 11:-5 12:0 13:0 14:-5 15:-5 16:-5 17:0 18:0 19:-7 20:0 21:0 22:-7 23:0 24:0 25:0 26:0 27:0 28:-13 29:-5 30:0 31:0 32:0 33:0 34:0 35:0 36:0 37:0 38:0 39:-3 40:0 41:5 42:5 43:5 44:13 45:0 46:0 47:0 48:0 49:0 50:0 51:5 52:0 53:0 54:5 55:5 56:5 57:2 58:0 59:0 60:0 61:11 62:3 63:7 64:2 
0.9748657852627959 1:-2 2:-7 3:0 4:0 5:0 6:-2 7:-11 8:0 9:-5 10:-5 11:-5 12:0 13:0 14:-5 15:-5 16:-5 17:0 18:0 19:0 20:0 21:0 22:-7 23:0 24:0 25:0 26:0 27:0 28:0 29:-5 30:0 31:0 32:0 33:0 34:0 35:0 36:0 37:0 38:0 39:0 40:0 41:5 42:5 43:5 44:5 45:0 46:7 47:0 48:-3 49:0 50:0 51:0 52:0 53:0 54:5 55:5 56:0 57:2 58:0 59:3 60:0 61:11 62:3 63:0 64:2 
0.07398580234768509 1:-2 2:-7 3:0 4:0 5:0 6:-2 7:-11 8:0 9:-5 10:-5 11:-5 12:0 13:0 14:-5 15:-5 16:-5 17:0 18:0 19:0 20:0 21:0 22:-7 23:0 24:0 25:0 26:0 27:0 28:-13 29:-5 30:0 31:0 32:0 33:0 34:0 35:0 36:0 37:0 38:0 39:0 40:0 41:5 42:5 43:5 44:13 45:0 46:7 47:0 48:-3 49:0 50:0 51:5 52:0 53:0 54:5 55:5 56:0 57:2 58:0 59:3 60:0 61:11 62:3 63:0 64:2 
0.4729427198001029 1:-2 2:-7 3:0 4:0 5:0 6:-2 7:-11 8:0 9:-5 10:-5 11:-5 12:-3 13:0 14:-5 15:-5 16:-5 17:0 18:0 19:0 20:0 21:0 22:-7 23:0 24:0 25:0 26:0 27:0 28:0 29:-5 30:0 31:0 32:0 33:0 34:0 35:0 36:0 37:0 38:0 39:0 40:0 41:5 42:-13 43:5 44:13 45:0 46:7 47:0 48:5 49:0 50:0 51:5 52:0 53:0 54:5 55:5 56:0 57:2 58:0 59:3 60:0 61:11 62:3 63:0 64:2 
0.2055994520966027 1:-2 2:-7 3:0 4:0 5:0 6:-2 7:-11 8:0 9:-5 10:-5 11:-5 12:-3 13:0 14:-5 15:-5 16:-5 17:0 18:0 19:0 20:0 21:0 22:0 23:0 24:0 25:0 26:0 27:0 28:0 29:-5 30:0 31:0 32:0 33:0 34:0 35:0 36:0 37:-7 38:0 39:0 40:0 41:5 42:5 43:5 44:0 45:0 46:7 47:0 48:5 49:0 50:0 51:5 52:0 53:0 54:5 55:5 56:0 57:2 58:0 59:3 60:0 61:11 62:3 63:0 64:2 
0.4003276690184046 1:-2 2:-7 3:0 4:0 5:0 6:-2 7:-11 8:0 9:-5 10:-5 11:-5 12:-3 13:0 14:-5 15:-5 16:-5 17:0 18:0 19:0 20:0 21:0 22:-7 23:0 24:0 25:0 26:0 27:0 28:-13 29:-5 30:0 31:0 32:0 33:0 34:0 35:0 36:0 37:13 38:0 39:0 40:0 41:5 42:5 43:5 44:0 45:0 46:0 47:0 48:5 49:0 50:0 51:5 52:0 53:0 54:5 55:5 56:0 57:2 58:0 59:3 60:0 61:11 62:3 63:7 64:2 
0.3744575764492415 1:-2 2:-7 3:0 4:0 5:0 6:-2 7:-11 8:0 9:-5 10:-5 11:-5 12:-3 13:0 14:-5 15:-5 16:-5 17:0 18:0 19:0 20:0 21:0 22:-7 23:0 24:0 25:0 26:13 27:0 28:-13 29:-5 30:0 31:0 32:0 33:0 34:0 35:0 36:0 37:0 38:0 39:0 40:0 41:5 42:5 43:5 44:0 45:0 46:0 47:0 48:5 49:0 50:0 51:5 52:0 53:0 54:5 55:5 56:0 57:2 58:0 59:3 60:0 61:11 62:3 63:7 64:2 
0.3106915520625949 1:-2 2:-7 3:0 4:0 5:0 6:-2 7:-11 8:0 9:-5 10:-5 11:-5 12:-3 13:0 14:-5 15:-5 16:-5 17:0 18:0 19:0 20:0 21:0 22:-7 23:13 24:0 25:0 26:0 27:0 28:-13 29:-5 30:0 31:0 32:0 33:0 34:0 35:0 36:0 37:0 38:0 39:0 40:0 41:5 42:5 43:5 44:0 45:0 46:0 47:0 48:5 49:0 50:0 51:5 52:0 53:0 54:5 55:5 56:0 57:2 58:0 59:3 60:0 61:11 62:3 63:7 64:2 
0.3700104526512676 1:-2 2:-7 3:0 4:0 5:0 6:-2 7:-11 8:0 9:-5 10:-5 11:-5 12:-3 13:0 14:-5 15:-5 16:-5 17:0 18:0 19:0 20:0 21:0 22:-7 23:0 24:0 25:0 26:0 27:0 28:-13 29:-5 30:0 31:0 32:0 33:0 34:0 35:0 36:0 37:0 38:0 39:0 40:0 41:5 42:5 43:5 44:13 45:0 46:0 47:0 48:5 49:0 50:0 51:5 52:0 53:0 54:5 55:5 56:0 57:2 58:0 59:3 60:11 61:0 62:3 63:7 64:2 
0.001844642350937016 1:-2 2:-7 3:0 4:0 5:0 6:-2 7:-11 8:0 9:-5 10:-5 11:-5 12:-3 13:0 14:-5 15:-5 16:-5 17:0 18:0 19:0 20:0 21:0 22:-7 23:0 24:0 25:0 26:0 27:0 28:-13 29:-5 30:0 31:0 32:0 33:0 34:0 35:0 36:0 37:0 38:5 39:0 40:0 41:5 42:5 43:5 44:13 45:0 46:0 47:0 48:5 49:0 50:0 51:5 52:0 53:0 54:0 55:5 56:0 57:2 58:0 59:3 60:0 61:11 62:3 63:7 64:2 
0.3017882373285217 1:-2 2:-7 3:0 4:0 5:0 6:-2 7:-11 8:0 9:-5 10:-5 11:-5 12:-3 13:0 14:-5 15:-5 16:-5 17:0 18:0 19:0 20:0 21:0 22:-7 23:0 24:0 25:0 26:0 27:0 28:-13 29:-5 30:0 31:0 32:0 33:0 34:0 35:0 36:0 37:0 38:0 39:0 40:0 41:5 42:5 43:5 44:13 45:0 46:0 47:0 48:5 49:0 50:0 51:5 52:11 53:0 54:5 55:5 56:0 57:2 58:0 59:3 60:0 61:0 62:3 63:7 64:2 
0.1293234822513432 1:-2 2:-7 3:0 4:0 5:0 6:-2 7:-11 8:0 9:-5 10:-5 11:-5 12:0 13:0 14:-5 15:-5 16:-5 17:0 18:0 19:0 20:0 21:0 22:-7 23:0 24:0 25:0 26:0 27:0 28:-13 29:-5 30:0 31:0 32:0 33:0 34:0 35:0 36:0 37:0 38:0 39:-3 40:0 41:5 42:5 43:5 44:13 45:0 46:0 47:0 48:0 49:0 50:0 51:5 52:0 53:7 54:5 55:5 56:5 57:2 58:0 59:3 60:0 61:11 62:3 63:0 64:2 
0.2257670380316905 1:-2 2:0 3:0 4:0 5:0 6:-2 7:-11 8:0 9:-5 10:-5 11:-5 12:0 13:0 14:-5 15:-5 16:-7 17:0 18:0 19:-7 20:0 21:0 22:0 23:0 24:0 25:0 26:0 27:0 28:-13 29:-5 30:0 31:0 32:0 33:0 34:0 35:0 36:0 37:0 38:0 39:-3 40:0 41:5 42:5 43:5 44:0 45:0 46:0 47:0 48:7 49:0 50:0 51:5 52:0 53:0 54:5 55:5 56:5 57:2 58:0 59:3 60:0 61:11 62:3 63:0 64:2 
0.7772706674919665 1:-2 2:-7 3:0 4:0 5:0 6:-2 7:-11 8:0 9:-5 10:-5 11:-5 12:0 13:0 14:-5 15:-5 16:-5 17:0 18:0 19:0 20:0 21:0 22:0 23:0 24:0 25:0 26:0 27:0 28:0 29:5 30:0 31:0 32:0 33:0 34:0 35:0 36:0 37:0 38:0 39:-3 40:0 41:5 42:5 43:-7 44:0 45:0 46:0 47:0 48:0 49:0 50:0 51:5 52:0 53:0 54:0 55:5 56:5 57:2 58:0 59:3 60:0 61:11 62:3 63:7 64:2 
0.06120776280420984 1:-2 2:-7 3:0 4:0 5:0 6:-2 7:-11 8:0 9:-5 10:-5 11:-5 12:0 13:0 14:-5 15:-5 16:-5 17:0 18:0 19:0 20:0 21:0 22:-7 23:0 24:0 25:0 26:0 27:0 28:-13 29:-5 30:0 31:0 32:0 33:0 34:5 35:0 36:0 37:0 38:0 39:-3 40:0 41:5 42:0 43:5 44:13 45:0 46:0 47:0 48:0 49:0 50:0 51:5 52:0 53:0 54:5 55:5 56:5 57:2 58:0 59:3 60:0 61:11 62:3 63:7 64:2 
0.07747449544001432 1:-2 2:-7 3:0 4:0 5:0 6:-2 7:-11 8:0 9:-5 10:-5 11:-5 12:0 13:0 14:-5 15:-5 16:-5 17:0 18:0 19:0 20:0 21:0 22:-7 23:0 24:0 25:0 26:0 27:0 28:-13 29:-5 30:0 31:0 32:0 33:5 34:0 35:0 36:0 37:0 38:0 39:-3 40:0 41:0 42:5 43:5 44:13 45:0 46:0 47:0 48:0 49:0 50:0 51:5 52:0 53:0 54:5 55:5 56:5 57:2 58:0 59:3 60:0 61:11 62:3 63:7 64:2 
0.2123447071441235 1:-2 2:0 3:0 4:0 5:0 6:-2 7:-11 8:0 9:-5 10:-5 11:-5 12:-3 13:0 14:-5 15:-5 16:-5 17:0 18:0 19:0 20:0 21:0 22:-7 23:0 24:0 25:0 26:0 27:0 28:0 29:-7 30:0 31:0 32:0 33:0 34:0 35:0 36:0 37:0 38:0 39:0 40:0 41:5 42:5 43:5 44:5 45:0 46:0 47:0 48:5 49:0 50:0 51:0 52:0 53:0 54:5 55:5 56:0 57:2 58:0 59:3 60:0 61:11 62:3 63:0 64:2 
0.8513367839398188 1:-2 2:0 3:0 4:0 5:0 6:-2 7:-11 8:0 9:-5 10:-5 11:-5 12:0 13:0 14:-5 15:-5 16:-5 17:0 18:0 19:-7 20:0 21:0 22:-7 23:0 24:0 25:0 26:0 27:0 28:0 29:0 30:0 31:0 32:0 33:0 34:0 35:0 36:0 37:0 38:0 39:0 40:0 41:5 42:5 43:5 44:7 45:0 46:0 47:0 48:-3 49:0 50:0 51:5 52:0 53:0 54:5 55:5 56:0 57:2 58:0 59:3 60:0 61:11 62:3 63:0 64:2 
0.00523345556170978 1:-2 2:0 3:0 4:0 5:0 6:-2 7:-11 8:0 9:-5 10:-5 11:-5 12:-3 13:0 14:-5 15:-5 16:-7 17:0 18:0 19:-7 20:0 21:0 22:0 23:0 24:0 25:0 26:0 27:0 28:-13 29:-5 30:0 31:0 32:0 33:0 34:0 35:0 36:0 37:0 38:0 39:0 40:0 41:5 42:5 43:5 44:0 45:0 46:7 47:0 48:5 49:0 50:0 51:5 52:0 53:0 54:5 55:5 56:0 57:2 58:0 59:3 60:0 61:11 62:3 63:0 64:2 
1 1:-2 2:0 3:0 4:0 5:0 6:-2 7:-11 8:0 9:-5 10:-5 11:-5 12:-3 13:0 14:-5 15:-5 16:-7 17:0 18:0 19:-7 20:0 21:0 22:0 23:0 24:0 25:0 26:0 27:0 28:-13 29:7 30:0 31:0 32:0 33:0 34:0 35:0 36:0 37:0 38:0 39:0 40:0 41:5 42:5 43:5 44:0 45:0 46:0 47:0 48:5 49:0 50:0 51:5 52:0 53:0 54:5 55:5 56:0 57:2 58:0 59:3 60:0 61:11 62:3 63:0 64:2 
0.3150072836874618 1:-2 2:-7 3:0 4:0 5:0 6:-2 7:-11 8:0 9:-5 10:-5 11:-5 12:-3 13:0 14:-5 15:-5 16:-5 17:0 18:0 19:0 20:0 21:0 22:-7 23:0 24:0 25:0 26:0 27:-13 28:0 29:-5 30:0 31:0 32:0 33:0 34:0 35:0 36:0 37:0 38:0 39:0 40:0 41:5 42:5 43:5 44:13 45:0 46:7 47:0 48:5 49:0 50:0 51:5 52:0 53:0 54:5 55:5 56:0 57:2 58:0 59:3 60:0 61:11 62:3 63:0 64:2 
0.09503663467610329 1:-2 2:-7 3:0 4:0 5:0 6:-2 7:-11 8:0 9:-5 10:-5 11:-5 12:-3 13:0 14:-5 15:-5 16:-5 17:0 18:0 19:0 20:0 21:0 22:-7 23:0 24:0 25:0 26:0 27:0 28:-13 29:0 30:0 31:0 32:0 33:0 34:0 35:0 36:0 37:-5 38:0 39:0 40:0 41:5 42:5 43:5 44:13 45:0 46:7 47:0 48:5 49:0 50:0 51:5 52:0 53:0 54:5 55:5 56:0 57:2 58:0 59:3 60:0 61:11 62:3 63:0 64:2 
0.2038303752025654 1:-2 2:-7 3:0 4:0 5:0 6:-2 7:-11 8:0 9:-5 10:-5 11:-5 12:-3 13:0 14:-5 15:-5 16:-5 17:0 18:0 19:0 20:0 21:0 22:0 23:0 24:0 25:0 26:0 27:0 28:-13 29:-5 30:0 31:0 32:0 33:0 34:0 35:0 36:0 37:0 38:0 39:-7 40:0 41:5 42:5 43:5 44:13 45:0 46:7 47:0 48:5 49:0 50:0 51:5 52:0 53:0 54:5 55:5 56:0 57:2 58:0 59:3 60:0 61:11 62:3 63:0 64:2 
0.4688047583403824 1:-2 2:-7 3:0 4:0 5:0 6:-2 7:-11 8:0 9:-5 10:-5 11:-5 12:-3 13:0 14:-5 15:-5 16:-5 17:0 18:0 19:0 20:0 21:0 22:-7 23:0 24:0 25:0 26:0 27:0 28:0 29:-5 30:0 31:0 32:0 33:0 34:0 35:-13 36:0 37:0 38:0 39:0 40:0 41:5 42:5 43:5 44:13 45:0 46:7 47:0 48:5 49:0 50:0 51:5 52:0 53:0 54:5 55:5 56:0 57:2 58:0 59:3 60:0 61:11 62:3 63:0 64:2 
0.5974228091518816 1:-2 2:-7 3:0 4:0 5:0 6:-2 7:-11 8:0 9:-5 10:-5 11:-5 12:-3 13:0 14:-5 15:-5 16:-5 17:0 18:0 19:0 20:0 21:0 22:-7 23:0 24:0 25:0 26:0 27:0 28:0 29:-5 30:0 31:0 32:0 33:0 34:0 35:0 36:-13 37:0 38:0 39:0 40:0 41:5 42:5 43:5 44:13 45:0 46:7 47:0 48:5 49:0 50:0 51:5 52:0 53:0 54:5 55:5 56:0 57:2 58:0 59:3 60:0 61:11 62:3 63:0 64:2 
0.5336500460852497 1:-2 2:-7 3:0 4:0 5:0 6:-2 7:-11 8:0 9:-5 10:-5 11:-5 12:-3 13:0 14:-5 15:-5 16:-5 17:0 18:0 19:0 20:0 21:0 22:-7 23:0 24:0 25:0 26:-13 27:0 28:0 29:-5 30:0 31:0 32:0 33:0 34:0 35:0 36:0 37:0 38:0 39:0 40:0 41:5 42:5 43:5 44:13 45:0 46:7 47:0 48:5 49:0 50:0 51:5 52:0 53:0 54:5 55:5 56:0 57:2 58:0 59:3 60:0 61:11 62:3 63:0 64:2 
0.5097057956085932 1:-2 2:-7 3:0 4:0 5:0 6:-2 7:-11 8:0 9:-5 10:-5 11:-5 12:-3 13:0 14:-5 15:-5 16:-5 17:0 18:0 19:0 20:-13 21:0 22:-7 23:0 24:0 25:0 26:0 27:0 28:0 29:-5 30:0 31:0 32:0 33:0 34:0 35:0 36:0 37:0 38:0 39:0 40:0 41:5 42:5 43:5 44:13 45:0 46:7 47:0 48:5 49:0 50:0 51:5 52:0 53:0 54:5 55:5 56:0 57:2 58:0 59:3 60:0 61:11 62:3 63:0 64:2 
0.2888954599648678 1:-2 2:-7 3:0 4:0 5:0 6:-2 7:-11 8:0 9:-5 10:-5 11:-5 12:-3 13:0 14:-5 15:-5 16:-5 17:0 18:0 19:0 20:0 21:0 22:-7 23:0 24:0 25:-13 26:0 27:0 28:0 29:-5 30:0 31:0 32:0 33:0 34:0 35:0 36:0 37:0 38:0 39:0 40:0 41:5 42:5 43:5 44:13 45:0 46:7 47:0 48:5 49:0 50:0 51:5 52:0 53:0 54:5 55:5 56:0 57:2 58:0 59:3 60:0 61:11 62:3 63:0 64:2 
0.729879208273153 1:-2 2:-7 3:0 4:0 5:0 6:-2 7:-11 8:0 9:-5 10:-5 11:-5 12:-3 13:0 14:-5 15:-5 16:-5 17:0 18:0 19:-13 20:0 21:0 22:-7 23:0 24:0 25:0 26:0 27:0 28:0 29:-5 30:0 31:0 32:0 33:0 34:0 35:0 36:0 37:0 38:0 39:0 40:0 41:5 42:5 43:5 44:13 45:0 46:7 47:0 48:5 49:0 50:0 51:5 52:0 53:0 54:5 55:5 56:0 57:2 58:0 59:3 60:0 61:11 62:3 63:0 64:2 
0.4467414160317456 1:-2 2:-7 3:0 4:0 5:0 6:-2 7:-11 8:0 9:-5 10:-5 11:-5 12:-3 13:0 14:-5 15:-5 16:-5 17:0 18:0 19:0 20:0 21:-13 22:-7 23:0 24:0 25:0 26:0 27:0 28:0 29:-5 30:0 31:0 32:0 33:0 34:0 35:0 36:0 37:0 38:0 39:0 40:0 41:5 42:5 43:5 44:13 45:0 46:7 47:0 48:5 49:0 50:0 51:5 52:0 53:0 54:5 55:5 56:0 57:2 58:0 59:3 60:0 61:11 62:3 63:0 64:2 
0.2262816070747672 1:-2 2:-7 3:0 4:0 5:0 6:-2 7:-11 8:0 9:-5 10:-5 11:-5 12:-3 13:0 14:-5 15:-5 16:-5 17:0 18:0 19:0 20:0 21:0 22:0 23:0 24:0 25:0 26:0 27:0 28:-13 29:-5 30:0 31:0 32:-7 33:0 34:0 35:0 36:0 37:0 38:0 39:0 40:0 41:5 42:5 43:5 44:13 45:0 46:7 47:0 48:5 49:0 50:0 51:5 52:0 53:0 54:5 55:5 56:0 57:2 58:0 59:3 60:0 61:11 62:3 63:0 64:2 
0.4654658986985535 1:-2 2:-7 3:0 4:0 5:0 6:-2 7:0 8:-11 9:-5 10:-5 11:-5 12:-3 13:0 14:-5 15:-5 16:-5 17:0 18:0 19:0 20:0 21:0 22:-7 23:0 24:0 25:0 26:0 27:0 28:-13 29:-5 30:0 31:0 32:0 33:0 34:0 35:0 36:0 37:0 38:0 39:0 40:0 41:5 42:5 43:5 44:13 45:0 46:7 47:0 48:5 49:0 50:0 51:5 52:0 53:0 54:5 55:5 56:0 57:2 58:0 59:3 60:0 61:11 62:3 63:0 64:2 
0.07866790945530082 1:-2 2:-7 3:0 4:0 5:0 6:-2 7:-11 8:0 9:-5 10:-5 11:-5 12:-3 13:0 14:-5 15:-5 16:0 17:0 18:0 19:0 20:0 21:0 22:-7 23:0 24:0 25:0 26:0 27:0 28:-13 29:-5 30:0 31:0 32:-5 33:0 34:0 35:0 36:0 37:0 38:0 39:0 40:0 41:5 42:5 43:5 44:13 45:0 46:7 47:0 48:5 49:0 50:0 51:5 52:0 53:0 54:5 55:5 56:0 57:2 58:0 59:3 60:0 61:11 62:3 63:0 64:2 
0.1093750336243293 1:-2 2:-7 3:0 4:0 5:0 6:-2 7:-11 8:0 9:-5 10:-5 11:-5 12:-3 13:0 14:-5 15:0 16:-5 17:0 18:0 19:0 20:0 21:0 22:-7 23:0 24:0 25:0 26:0 27:0 28:-13 29:-5 30:0 31:-5 32:0 33:0 34:0 35:0 36:0 37:0 38:0 39:0 40:0 41:5 42:5 43:5 44:13 45:0 46:7 47:0 48:5 49:0 50:0 51:5 52:0 53:0 54:5 55:5 56:0 57:2 58:0 59:3 60:0 61:11 62:3 63:0 64:2 
0.1155389239942695 1:-2 2:-7 3:0 4:0 5:0 6:-2 7:-11 8:0 9:-5 10:-5 11:0 12:-3 13:0 14:-5 15:-5 16:-5 17:0 18:0 19:0 20:0 21:0 22:-7 23:0 24:0 25:0 26:0 27:-5 28:-13 29:-5 30:0 31:0 32:0 33:0 34:0 35:0 36:0 37:0 38:0 39:0 40:0 41:5 42:5 43:5 44:13 45:0 46:7 47:0 48:5 49:0 50:0 51:5 52:0 53:0 54:5 55:5 56:0 57:2 58:0 59:3 60:0 61:11 62:3 63:0 64:2 
0.06664753429840159 1:-2 2:-7 3:0 4:0 5:0 6:-2 7:-11 8:0 9:0 10:-5 11:-5 12:-3 13:0 14:-5 15:-5 16:-5 17:0 18:0 19:0 20:0 21:0 22:-7 23:0 24:0 25:-5 26:0 27:0 28:-13 29:-5 30:0 31:0 32:0 33:0 34:0 35:0 36:0 37:0 38:0 39:0 40:0 41:5 42:5 43:5 44:13 45:0 46:7 47:0 48:5 49:0 50:0 51:5 52:0 53:0 54:5 55:5 56:0 57:2 58:0 59:3 60:0 61:11 62:3 63:0 64:2 
0.08586444686121958 1:-2 2:-7 3:0 4:0 5:0 6:-2 7:-11 8:0 9:-5 10:-5 11:-5 12:-3 13:0 14:-5 15:0 16:-5 17:0 18:0 19:0 20:0 21:0 22:-7 23:-5 24:0 25:0 26:0 27:0 28:-13 29:-5 30:0 31:0 32:0 33:0 34:0 35:0 36:0 37:0 38:0 39:0 40:0 41:5 42:5 43:5 44:13 45:0 46:7 47:0 48:5 49:0 50:0 51:5 52:0 53:0 54:5 55:5 56:0 57:2 58:0 59:3 60:0 61:11 62:3 63:0 64:2 
0.1297978565407865 1:-2 2:-7 3:0 4:0 5:0 6:-2 7:-11 8:0 9:-5 10:0 11:-5 12:-3 13:0 14:-5 15:-5 16:-5 17:0 18:-5 19:0 20:0 21:0 22:-7 23:0 24:0 25:0 26:0 27:0 28:-13 29:-5 30:0 31:0 32:0 33:0 34:0 35:0 36:0 37:0 38:0 39:0 40:0 41:5 42:5 43:5 44:13 45:0 46:7 47:0 48:5 49:0 50:0 51:5 52:0 53:0 54:5 55:5 56:0 57:2 58:0 59:3 60:0 61:11 62:3 63:0 64:2 
0.1021967300746244 1:-2 2:-7 3:0 4:0 5:0 6:-2 7:-11 8:0 9:0 10:-5 11:-5 12:-3 13:0 14:-5 15:-5 16:-5 17:-5 18:0 19:0 20:0 21:0 22:-7 23:0 24:0 25:0 26:0 27:0 28:-13 29:-5 30:0 31:0 32:0 33:0 34:0 35:0 36:0 37:0 38:0 39:0 40:0 41:5 42:5 43:5 44:13 45:0 46:7 47:0 48:5 49:0 50:0 51:5 52:0 53:0 54:5 55:5 56:0 57:2 58:0 59:3 60:0 61:11 62:3 63:0 64:2 
0.2378503046386686 1:-2 2:0 3:0 4:0 5:0 6:-2 7:-11 8:0 9:-5 10:-5 11:-5 12:-3 13:0 14:-5 15:-5 16:-5 17:0 18:0 19:-7 20:0 21:0 22:0 23:0 24:0 25:0 26:0 27:0 28:-7 29:-5 30:0 31:0 32:0 33:0 34:0 35:0 36:0 37:0 38:0 39:0 40:0 41:5 42:5 43:5 44:0 45:0 46:5 47:0 48:5 49:0 50:0 51:5 52:0 53:0 54:0 55:5 56:0 57:2 58:0 59:3 60:0 61:11 62:3 63:7 64:2 
0.1428465640028673 1:-2 2:0 3:0 4:0 5:0 6:-2 7:-11 8:0 9:-5 10:-5 11:-5 12:-3 13:0 14:-5 15:-5 16:-5 17:0 18:0 19:-7 20:0 21:0 22:0 23:0 24:0 25:0 26:0 27:0 28:-7 29:-5 30:0 31:0 32:0 33:0 34:0 35:0 36:0 37:0 38:0 39:0 40:0 41:5 42:5 43:5 44:0 45:3 46:0 47:0 48:5 49:0 50:0 51:5 52:0 53:0 54:5 55:5 56:0 57:2 58:0 59:0 60:0 61:11 62:3 63:7 64:2 
0.4825341491158681 1:-2 2:-7 3:0 4:0 5:0 6:-2 7:-11 8:0 9:-5 10:-5 11:-5 12:-3 13:0 14:-5 15:-5 16:-5 17:0 18:0 19:0 20:0 21:0 22:-7 23:0 24:0 25:0 26:0 27:0 28:0 29:-5 30:0 31:0 32:0 33:0 34:0 35:0 36:0 37:0 38:0 39:0 40:0 41:5 42:5 43:5 44:13 45:0 46:0 47:0 48:5 49:0 50:0 51:5 52:0 53:3 54:5 55:-13 56:0 57:2 58:0 59:3 60:0 61:11 62:0 63:7 64:2 
0.1134713456079874 1:-2 2:0 3:0 4:0 5:0 6:-2 7:-11 8:0 9:-5 10:-5 11:-5 12:-3 13:0 14:-5 15:-5 16:-5 17:0 18:0 19:-7 20:0 21:0 22:0 23:0 24:0 25:0 26:0 27:0 28:-7 29:-5 30:0 31:3 32:0 33:0 34:0 35:0 36:0 37:0 38:0 39:0 40:0 41:5 42:5 43:5 44:0 45:0 46:0 47:0 48:5 49:0 50:0 51:5 52:0 53:0 54:5 55:5 56:0 57:2 58:0 59:0 60:0 61:11 62:3 63:7 64:2 
0.03052814166797054 1:-2 2:-7 3:0 4:0 5:0 6:-2 7:-11 8:0 9:-5 10:-5 11:-5 12:-3 13:0 14:-5 15:-5 16:-5 17:0 18:0 19:0 20:0 21:0 22:-7 23:0 24:0 25:0 26:0 27:0 28:0 29:-5 30:0 31:0 32:0 33:0 34:0 35:5 36:0 37:0 38:0 39:0 40:0 41:5 42:5 43:0 44:-13 45:0 46:0 47:0 48:5 49:0 50:0 51:5 52:0 53:0 54:5 55:5 56:0 57:2 58:0 59:3 60:0 61:11 62:3 63:7 64:2 
0.26381504237424 1:-2 2:-7 3:0 4:0 5:0 6:-2 7:-11 8:0 9:-5 10:-5 11:-5 12:-3 13:0 14:-5 15:-5 16:-5 17:0 18:0 19:0 20:0 21:0 22:-7 23:0 24:0 25:0 26:0 27:0 28:0 29:-5 30:0 31:0 32:0 33:0 34:0 35:5 36:0 37:-13 38:0 39:0 40:0 41:5 42:5 43:0 44:13 45:0 46:0 47:0 48:5 49:0 50:0 51:5 52:11 53:0 54:5 55:5 56:0 57:2 58:0 59:3 60:0 61:0 62:3 63:7 64:2 
0.1244599288683326 1:-2 2:-7 3:0 4:0 5:0 6:-2 7:-11 8:0 9:-5 10:-5 11:-5 12:-3 13:0 14:-5 15:-5 16:-5 17:0 18:0 19:0 20:0 21:0 22:-7 23:0 24:0 25:0 26:0 27:0 28:0 29:-5 30:0 31:0 32:0 33:0 34:0 35:5 36:0 37:-13 38:0 39:0 40:0 41:5 42:5 43:0 44:13 45:0 46:0 47:0 48:5 49:0 50:0 51:5 52:0 53:7 54:5 55:5 56:0 57:2 58:0 59:3 60:0 61:11 62:3 63:0 64:2 
0.05872129104864751 1:-2 2:-7 3:0 4:0 5:0 6:-2 7:-11 8:0 9:-5 10:-5 11:-5 12:-3 13:0 14:-5 15:-5 16:-5 17:0 18:0 19:0 20:0 21:0 22:-7 23:0 24:0 25:0 26:0 27:0 28:0 29:-5 30:0 31:0 32:0 33:0 34:0 35:5 36:0 37:-13 38:0 39:0 40:0 41:5 42:5 43:0 44:13 45:0 46:0 47:0 48:5 49:0 50:0 51:5 52:0 53:3 54:5 55:5 56:0 57:2 58:0 59:3 60:0 61:11 62:0 63:7 64:2 
0.1705164454406008 1:-2 2:-7 3:0 4:0 5:0 6:-2 7:-11 8:0 9:-5 10:-5 11:-5 12:-3 13:0 14:-5 15:-5 16:-5 17:0 18:0 19:0 20:0 21:0 22:-7 23:0 24:0 25:0 26:0 27:0 28:0 29:-5 30:0 31:0 32:0 33:0 34:0 35:5 36:0 37:-13 38:0 39:0 40:0 41:5 42:5 43:0 44:0 45:0 46:0 47:0 48:5 49:0 50:0 51:5 52:0 53:13 54:5 55:5 56:0 57:2 58:0 59:3 60:0 61:11 62:3 63:7 64:2 
0.2489749013948718 1:-2 2:-7 3:0 4:0 5:0 6:-2 7:-11 8:0 9:-5 10:-5 11:-5 12:-3 13:0 14:-5 15:-5 16:-5 17:0 18:0 19:0 20:0 21:0 22:-7 23:0 24:0 25:0 26:0 27:0 28:0 29:-5 30:0 31:0 32:0 33:0 34:0 35:0 36:0 37:0 38:0 39:0 40:0 41:5 42:5 43:5 44:-13 45:0 46:0 47:0 48:5 49:0 50:0 51:5 52:0 53:7 54:5 55:5 56:0 57:2 58:0 59:3 60:0 61:11 62:3 63:0 64:2 
0.1626550158600286 1:-2 2:-7 3:0 4:0 5:0 6:-2 7:-11 8:0 9:-5 10:-5 11:-5 12:-3 13:0 14:-5 15:-5 16:-5 17:0 18:0 19:0 20:0 21:0 22:-7 23:0 24:0 25:0 26:0 27:0 28:0 29:-5 30:0 31:0 32:0 33:0 34:0 35:0 36:0 37:0 38:0 39:0 40:0 41:5 42:5 43:5 44:5 45:0 46:0 47:0 48:5 49:0 50:0 51:0 52:0 53:7 54:5 55:5 56:0 57:2 58:0 59:3 60:0 61:11 62:3 63:0 64:2 
0.1008445437752559 1:-2 2:-7 3:0 4:0 5:0 6:-2 7:-11 8:0 9:-5 10:-5 11:-5 12:-3 13:0 14:-5 15:-5 16:-5 17:0 18:0 19:0 20:0 21:0 22:0 23:0 24:0 25:0 26:0 27:0 28:0 29:-5 30:0 31:0 32:0 33:0 34:0 35:0 36:0 37:-7 38:0 39:0 40:0 41:5 42:5 43:5 44:0 45:0 46:0 47:0 48:5 49:0 50:0 51:5 52:0 53:7 54:5 55:5 56:0 57:2 58:0 59:3 60:0 61:11 62:3 63:0 64:2 
0.1087349477360753 1:-2 2:-7 3:0 4:0 5:0 6:-2 7:-11 8:0 9:-5 10:-5 11:-5 12:-3 13:0 14:-5 15:-5 16:-5 17:0 18:0 19:0 20:0 21:0 22:0 23:0 24:0 25:0 26:0 27:0 28:0 29:-5 30:0 31:0 32:0 33:0 34:0 35:0 36:0 37:-7 38:0 39:0 40:0 41:5 42:5 43:5 44:0 45:0 46:0 47:0 48:5 49:0 50:0 51:5 52:3 53:0 54:5 55:5 56:0 57:2 58:0 59:0 60:0 61:11 62:3 63:7 64:2 
0.03505787075679781 1:-2 2:-7 3:0 4:0 5:0 6:-2 7:-11 8:0 9:-5 10:-5 11:-5 12:-3 13:0 14:-5 15:-5 16:-5 17:0 18:0 19:0 20:0 21:0 22:-7 23:0 24:0 25:0 26:0 27:0 28:0 29:-5 30:0 31:0 32:0 33:0 34:0 35:0 36:0 37:-13 38:0 39:0 40:0 41:5 42:5 43:5 44:0 45:13 46:0 47:0 48:5 49:0 50:0 51:5 52:3 53:0 54:5 55:5 56:0 57:2 58:0 59:0 60:0 61:11 62:3 63:7 64:2 
0.1215382094516618 1:-2 2:-7 3:0 4:0 5:0 6:-2 7:-11 8:0 9:-5 10:-5 11:-5 12:-3 13:0 14:-5 15:-5 16:-5 17:0 18:0 19:0 20:0 21:0 22:-7 23:0 24:0 25:0 26:0 27:0 28:0 29:-5 30:0 31:0 32:0 33:0 34:0 35:0 36:0 37:-13 38:0 39:0 40:0 41:5 42:5 43:5 44:13 45:0 46:0 47:0 48:5 49:0 50:0 51:5 52:3 53:0 54:5 55:5 56:0 57:2 58:0 59:0 60:11 61:0 62:3 63:7 64:2 
0.03869915173099452 1:-2 2:-7 3:0 4:0 5:0 6:-2 7:-11 8:0 9:-5 10:-5 11:-5 12:-3 13:0 14:-5 15:-5 16:-5 17:0 18:0 19:0 20:0 21:0 22:-7 23:0 24:0 25:0 26:0 27:0 28:0 29:-5 30:0 31:0 32:0 33:0 34:0 35:0 36:0 37:0 38:0 39:5 40:0 41:5 42:5 43:5 44:-13 45:0 46:0 47:0 48:5 49:0 50:0 51:5 52:0 53:0 54:5 55:0 56:0 57:2 58:0 59:3 60:0 61:11 62:3 63:7 64:2 
1 1:-2 2:-7 3:0 4:0 5:0 6:-2 7:-11 8:0 9:-5 10:-5 11:-5 12:-3 13:0 14:-5 15:-5 16:-5 17:0 18:0 19:0 20:0 21:0 22:-7 23:0 24:0 25:0 26:0 27:0 28:0 29:-5 30:0 31:0 32:0 33:0 34:0 35:0 36:0 37:0 38:0 39:5 40:0 41:5 42:5 43:5 44:5 45:0 46:0 47:0 48:5 49:0 50:0 51:0 52:0 53:0 54:5 55:0 56:0 57:2 58:0 59:3 60:0 61:11 62:3 63:7 64:2 
0.293497529984917 1:-2 2:-7 3:0 4:0 5:0 6:-2 7:-11 8:0 9:-5 10:-5 11:-5 12:-3 13:0 14:-5 15:-5 16:-5 17:0 18:0 19:0 20:0 21:0 22:-7 23:0 24:0 25:0 26:0 27:0 28:0 29:-5 30:0 31:0 32:0 33:0 34:0 35:0 36:0 37:0 38:0 39:5 40:0 41:5 42:5 43:5 44:13 45:0 46:0 47:0 48:5 49:0 50:0 51:5 52:0 53:0 54:5 55:0 56:0 57:2 58:0 59:3 60:0 61:11 62:3 63:7 64:-13 
0.2009887031866404 1:-2 2:-7 3:0 4:0 5:0 6:-2 7:-11 8:0 9:-5 10:-5 11:-5 12:-3 13:0 14:-5 15:-5 16:-5 17:0 18:0 19:0 20:0 21:0 22:-7 23:0 24:0 25:0 26:0 27:0 28:0 29:-5 30:0 31:0 32:0 33:0 34:0 35:0 36:0 37:0 38:0 39:0 40:0 41:5 42:5 43:5 44:0 45:0 46:0 47:0 48:5 49:0 50:0 51:5 52:0 53:0 54:5 55:5 56:0 57:2 58:0 59:3 60:11 61:0 62:3 63:7 64:2 
0.371943664306552 1:-2 2:-7 3:0 4:0 5:0 6:-2 7:-11 8:0 9:-5 10:-5 11:-5 12:-3 13:0 14:-5 15:-5 16:-5 17:0 18:0 19:0 20:0 21:0 22:-7 23:0 24:0 25:0 26:0 27:0 28:0 29:-5 30:0 31:0 32:0 33:0 34:0 35:0 36:0 37:-13 38:0 39:0 40:0 41:5 42:5 43:5 44:0 45:0 46:0 47:13 48:5 49:0 50:0 51:5 52:0 53:7 54:5 55:5 56:0 57:2 58:0 59:3 60:0 61:11 62:3 63:0 64:2 
0.1740229313391701 1:-2 2:-7 3:0 4:0 5:0 6:-2 7:-11 8:0 9:-5 10:-5 11:-5 12:-3 13:0 14:-5 15:-5 16:-5 17:0 18:0 19:0 20:0 21:0 22:-7 23:0 24:0 25:0 26:0 27:0 28:0 29:-5 30:0 31:0 32:0 33:0 34:0 35:0 36:0 37:-13 38:0 39:0 40:0 41:5 42:5 43:5 44:0 45:0 46:0 47:13 48:5 49:0 50:0 51:5 52:0 53:3 54:5 55:5 56:0 57:2 58:0 59:3 60:0 61:11 62:0 63:7 64:2 
0.3170305580610751 1:-2 2:-7 3:0 4:0 5:0 6:-2 7:-11 8:0 9:-5 10:-5 11:-5 12:-3 13:0 14:-5 15:-5 16:-5 17:0 18:0 19:0 20:0 21:0 22:-7 23:0 24:0 25:0 26:0 27:0 28:0 29:-5 30:0 31:0 32:0 33:0 34:0 35:0 36:0 37:-13 38:0 39:0 40:0 41:5 42:5 43:5 44:0 45:3 46:0 47:13 48:5 49:0 50:0 51:5 52:0 53:0 54:5 55:5 56:0 57:2 58:0 59:0 60:0 61:11 62:3 63:7 64:2 
0.453153054913717 1:-2 2:-7 3:0 4:0 5:0 6:-2 7:-11 8:0 9:-5 10:-5 11:-5 12:-3 13:0 14:-5 15:-5 16:-5 17:0 18:0 19:0 20:0 21:0 22:-7 23:0 24:0 25:0 26:0 27:0 28:0 29:-5 30:0 31:0 32:0 33:0 34:0 35:13 36:0 37:-13 38:0 39:0 40:0 41:5 42:5 43:5 44:0 45:0 46:0 47:0 48:5 49:0 50:0 51:5 52:11 53:0 54:5 55:5 56:0 57:2 58:0 59:3 60:0 61:0 62:3 63:7 64:2 
0.3056965853820172 1:-2 2:-7 3:0 4:0 5:0 6:-2 7:-11 8:0 9:-5 10:-5 11:-5 12:-3 13:0 14:-5 15:-5 16:-5 17:0 18:0 19:0 20:0 21:0 22:-7 23:0 24:0 25:0 26:0 27:0 28:0 29:-5 30:0 31:0 32:0 33:0 34:0 35:13 36:0 37:-13 38:0 39:0 40:0 41:5 42:5 43:5 44:0 45:0 46:0 47:0 48:5 49:0 50:0 51:5 52:0 53:7 54:5 55:5 56:0 57:2 58:0 59:3 60:0 61:11 62:3 63:0 64:2 
0.1508200629384225 1:-2 2:-7 3:0 4:0 5:0 6:-2 7:-11 8:0 9:-5 10:-5 11:-5 12:-3 13:0 14:-5 15:-5 16:-5 17:0 18:0 19:0 20:0 21:0 22:-7 23:0 24:0 25:0 26:0 27:0 28:0 29:-5 30:0 31:0 32:0 33:0 34:0 35:13 36:0 37:-13 38:0 39:0 40:0 41:5 42:5 43:5 44:0 45:0 46:0 47:0 48:5 49:0 50:0 51:5 52:0 53:3 54:5 55:5 56:0 57:2 58:0 59:3 60:0 61:11 62:0 63:7 64:2 
0.2780513133091248 1:-2 2:-7 3:0 4:0 5:0 6:-2 7:-11 8:0 9:-5 10:-5 11:-5 12:-3 13:0 14:-5 15:-5 16:-5 17:0 18:0 19:0 20:0 21:0 22:-7 23:0 24:0 25:0 26:0 27:0 28:0 29:-5 30:0 31:0 32:0 33:0 34:0 35:13 36:0 37:-13 38:0 39:0 40:0 41:5 42:5 43:5 44:0 45:3 46:0 47:0 48:5 49:0 50:0 51:5 52:0 53:0 54:5 55:5 56:0 57:2 58:0 59:0 60:0 61:11 62:3 63:7 64:2 
0.4411861858743012 1:-2 2:-7 3:0 4:0 5:0 6:-2 7:-11 8:0 9:-5 10:-5 11:-5 12:-3 13:0 14:-5 15:-5 16:-5 17:0 18:0 19:0 20:0 21:0 22:-7 23:0 24:0 25:0 26:0 27:0 28:0 29:-5 30:0 31:0 32:0 33:0 34:0 35:13 36:0 37:-13 38:0 39:0 40:0 41:5 42:5 43:5 44:0 45:0 46:0 47:0 48:5 49:0 50:0 51:5 52:0 53:0 54:5 55:5 56:0 57:2 58:0 59:3 60:11 61:0 62:3 63:7 64:2 
0.1201692573250949 1:-2 2:-7 3:0 4:0 5:0 6:-2 7:-11 8:0 9:-5 10:-5 11:-5 12:-3 13:0 14:-5 15:-5 16:-5 17:0 18:0 19:0 20:0 21:0 22:0 23:0 24:0 25:0 26:0 27:0 28:-13 29:-5 30:0 31:0 32:0 33:0 34:0 35:0 36:0 37:-7 38:0 39:0 40:0 41:5 42:5 43:5 44:0 45:0 46:0 47:0 48:5 49:0 50:0 51:5 52:0 53:0 54:5 55:5 56:0 57:2 58:0 59:3 60:0 61:11 62:3 63:7 64:2 
0.09384916932703091 1:-2 2:-7 3:0 4:0 5:0 6:-2 7:-11 8:0 9:-5 10:-5 11:-5 12:-3 13:0 14:0 15:-5 16:-5 17:0 18:0 19:0 20:0 21:0 22:-7 23:-5 24:0 25:0 26:0 27:0 28:-13 29:-5 30:0 31:0 32:0 33:0 34:0 35:0 36:0 37:0 38:0 39:0 40:0 41:5 42:5 43:5 44:0 45:0 46:0 47:0 48:5 49:0 50:0 51:5 52:0 53:0 54:5 55:5 56:0 57:2 58:0 59:3 60:0 61:11 62:3 63:7 64:2 
0.3590096718018646 1:-2 2:-7 3:0 4:0 5:0 6:-2 7:-11 8:0 9:-5 10:-5 11:-5 12:-3 13:0 14:-5 15:-5 16:-5 17:0 18:0 19:0 20:0 21:0 22:-7 23:0 24:0 25:0 26:0 27:0 28:0 29:-5 30:0 31:0 32:0 33:0 34:0 35:0 36:0 37:0 38:0 39:0 40:0 41:5 42:5 43:5 44:5 45:0 46:0 47:0 48:5 49:0 50:0 51:0 52:0 53:0 54:5 55:5 56:0 57:2 58:0 59:3 60:11 61:0 62:3 63:7 64:2 
0.2083672573081822 1:-2 2:-7 3:0 4:0 5:0 6:-2 7:-11 8:0 9:-5 10:-5 11:-5 12:-3 13:0 14:-5 15:-5 16:-5 17:0 18:0 19:0 20:0 21:0 22:0 23:0 24:0 25:0 26:0 27:0 28:0 29:-5 30:0 31:0 32:0 33:0 34:0 35:0 36:0 37:-7 38:0 39:0 40:0 41:5 42:5 43:5 44:0 45:0 46:0 47:0 48:5 49:0 50:0 51:5 52:0 53:0 54:5 55:5 56:0 57:2 58:0 59:3 60:11 61:0 62:3 63:7 64:2 
0.3331029017922242 1:-2 2:-7 3:0 4:0 5:0 6:-2 7:-11 8:0 9:-5 10:-5 11:-5 12:-3 13:0 14:-5 15:-5 16:-5 17:0 18:0 19:0 20:0 21:0 22:-7 23:0 24:0 25:0 26:0 27:0 28:0 29:-5 30:0 31:0 32:0 33:0 34:0 35:0 36:0 37:-13 38:0 39:0 40:0 41:5 42:5 43:5 44:0 45:0 46:0 47:0 48:5 49:0 50:0 51:5 52:13 53:0 54:5 55:5 56:0 57:2 58:0 59:3 60:11 61:0 62:3 63:7 64:2 
0.3566575569569092 1:-2 2:-7 3:0 4:0 5:0 6:-2 7:-11 8:0 9:-5 10:-5 11:-5 12:-3 13:0 14:-5 15:-5 16:-5 17:0 18:0 19:0 20:0 21:0 22:-7 23:0 24:0 25:0 26:0 27:0 28:0 29:-5 30:0 31:0 32:0 33:0 34:0 35:0 36:0 37:-13 38:0 39:0 40:0 41:5 42:5 43:5 44:0 45:0 46:0 47:0 48:5 49:0 50:0 51:5 52:13 53:3 54:5 55:5 56:0 57:2 58:0 59:3 60:0 61:11 62:0 63:7 64:2 
0.2285389595615927 1:-2 2:-7 3:0 4:0 5:0 6:-2 7:-11 8:0 9:-5 10:-5 11:-5 12:-3 13:0 14:-5 15:-5 16:-5 17:0 18:0 19:0 20:0 21:0 22:-7 23:0 24:0 25:0 26:0 27:0 28:0 29:-5 30:0 31:0 32:0 33:0 34:0 35:0 36:0 37:0 38:0 39:0 40:0 41:5 42:5 43:5 44:0 45:0 46:-13 47:0 48:5 49:0 50:0 51:5 52:0 53:0 54:5 55:5 56:0 57:2 58:0 59:3 60:0 61:11 62:3 63:7 64:2 
0.9144585887872332 1:-2 2:-7 3:0 4:0 5:0 6:-2 7:-11 8:0 9:-5 10:-5 11:-5 12:-3 13:0 14:-5 15:-5 16:-5 17:0 18:0 19:0 20:0 21:0 22:-7 23:0 24:0 25:0 26:0 27:0 28:0 29:-5 30:0 31:0 32:0 33:0 34:0 35:0 36:0 37:0 38:0 39:0 40:0 41:5 42:5 43:5 44:0 45:0 46:5 47:0 48:5 49:0 50:0 51:5 52:0 53:0 54:5 55:0 56:0 57:2 58:0 59:3 60:0 61:11 62:3 63:7 64:2 
1 1:-2 2:-7 3:0 4:0 5:0 6:-2 7:-11 8:0 9:-5 10:-5 11:-5 12:-3 13:0 14:-5 15:-5 16:-5 17:0 18:0 19:0 20:0 21:0 22:-7 23:0 24:0 25:0 26:0 27:0 28:0 29:-5 30:0 31:0 32:0 33:0 34:0 35:0 36:0 37:0 38:0 39:0 40:0 41:5 42:5 43:5 44:0 45:0 46:7 47:0 48:5 49:0 50:0 51:5 52:0 53:0 54:5 55:5 56:0 57:2 58:0 59:3 60:0 61:11 62:3 63:0 64:2 
0.325233556024604 1:-2 2:-7 3:0 4:0 5:0 6:-2 7:-11 8:0 9:-5 10:-5 11:-5 12:-3 13:0 14:-5 15:-5 16:-5 17:0 18:0 19:0 20:0 21:0 22:-7 23:0 24:0 25:0 26:0 27:0 28:0 29:-5 30:0 31:0 32:0 33:0 34:0 35:0 36:0 37:-13 38:0 39:0 40:0 41:5 42:5 43:5 44:0 45:0 46:13 47:0 48:5 49:0 50:0 51:5 52:0 53:7 54:5 55:5 56:0 57:2 58:0 59:3 60:0 61:11 62:3 63:0 64:2 
0.1804504549576361 1:-2 2:-7 3:0 4:0 5:0 6:-2 7:-11 8:0 9:-5 10:-5 11:-5 12:-3 13:0 14:-5 15:-5 16:-5 17:0 18:0 19:0 20:0 21:0 22:-7 23:0 24:0 25:0 26:0 27:0 28:0 29:-5 30:0 31:0 32:0 33:0 34:0 35:0 36:0 37:-13 38:0 39:0 40:0 41:5 42:5 43:5 44:0 45:0 46:13 47:0 48:5 49:0 50:0 51:5 52:0 53:3 54:5 55:5 56:0 57:2 58:0 59:3 60:0 61:11 62:0 63:7 64:2 
0.2765423648458339 1:-2 2:-7 3:0 4:0 5:0 6:-2 7:-11 8:0 9:-5 10:-5 11:-5 12:-3 13:0 14:-5 15:-5 16:-5 17:0 18:0 19:0 20:0 21:0 22:-7 23:0 24:0 25:0 26:0 27:0 28:0 29:-5 30:0 31:0 32:0 33:0 34:0 35:0 36:0 37:-13 38:0 39:0 40:0 41:5 42:5 43:5 44:0 45:3 46:13 47:0 48:5 49:0 50:0 51:5 52:0 53:0 54:5 55:5 56:0 57:2 58:0 59:0 60:0 61:11 62:3 63:7 64:2 
0.4813297901685937 1:-2 2:-7 3:0 4:0 5:0 6:-2 7:-11 8:0 9:-5 10:-5 11:-5 12:-3 13:0 14:-5 15:-5 16:-5 17:0 18:0 19:0 20:0 21:0 22:-7 23:0 24:0 25:0 26:0 27:0 28:0 29:-5 30:0 31:0 32:0 33:0 34:0 35:0 36:0 37:-13 38:0 39:0 40:0 41:5 42:5 43:5 44:0 45:0 46:13 47:0 48:5 49:0 50:0 51:5 52:0 53:0 54:5 55:5 56:0 57:2 58:0 59:3 60:11 61:0 62:3 63:7 64:2 
0.06441377529692073 1:-2 2:-7 3:0 4:0 5:0 6:-2 7:-11 8:0 9:-5 10:-5 11:-5 12:-3 13:0 14:-5 15:-5 16:-5 17:0 18:0 19:0 20:0 21:0 22:-7 23:0 24:0 25:0 26:0 27:0 28:0 29:-5 30:0 31:0 32:0 33:0 34:0 35:0 36:0 37:0 38:5 39:0 40:0 41:5 42:5 43:5 44:-13 45:0 46:0 47:0 48:5 49:0 50:0 51:5 52:0 53:0 54:0 55:5 56:0 57:2 58:0 59:3 60:0 61:11 62:3 63:7 64:2 
0.07207971531783974 1:-2 2:-7 3:0 4:0 5:0 6:-2 7:-11 8:0 9:-5 10:-5 11:-5 12:-3 13:0 14:-5 15:-5 16:-5 17:0 18:0 19:0 20:0 21:0 22:-7 23:0 24:0 25:0 26:0 27:0 28:0 29:-5 30:0 31:0 32:0 33:0 34:0 35:0 36:0 37:0 38:0 39:0 40:5 41:5 42:5 43:5 44:5 45:0 46:0 47:0 48:0 49:0 50:0 51:0 52:0 53:0 54:5 55:5 56:0 57:2 58:0 59:3 60:0 61:11 62:3 63:7 64:2 
0.2451268907519648 1:-2 2:-7 3:0 4:0 5:0 6:-2 7:-11 8:0 9:-5 10:-5 11:-5 12:-3 13:0 14:-5 15:-5 16:-5 17:0 18:0 19:0 20:0 21:0 22:-7 23:0 24:0 25:0 26:0 27:0 28:0 29:-5 30:0 31:0 32:0 33:0 34:0 35:0 36:0 37:-13 38:0 39:0 40:5 41:5 42:5 43:5 44:13 45:0 46:0 47:0 48:0 49:0 50:0 51:5 52:11 53:0 54:5 55:5 56:0 57:2 58:0 59:3 60:0 61:0 62:3 63:7 64:2 
0.1646337730097419 1:-2 2:-7 3:0 4:0 5:0 6:-2 7:-11 8:0 9:-5 10:-5 11:-5 12:-3 13:0 14:-5 15:-5 16:-5 17:0 18:0 19:0 20:0 21:0 22:-7 23:0 24:0 25:0 26:0 27:0 28:0 29:-5 30:0 31:0 32:0 33:0 34:0 35:0 36:0 37:-13 38:0 39:0 40:5 41:5 42:5 43:5 44:13 45:0 46:0 47:0 48:0 49:0 50:0 51:5 52:0 53:7 54:5 55:5 56:0 57:2 58:0 59:3 60:0 61:11 62:3 63:0 64:2 
0.1902295580587001 1:-2 2:-7 3:0 4:0 5:0 6:-2 7:-11 8:0 9:-5 10:-5 11:-5 12:-3 13:0 14:-5 15:-5 16:-5 17:0 18:0 19:0 20:0 21:0 22:-7 23:0 24:0 25:0 26:0 27:0 28:0 29:-5 30:0 31:0 32:0 33:0 34:0 35:0 36:0 37:-13 38:0 39:0 40:5 41:5 42:5 43:5 44:13 45:0 46:0 47:0 48:0 49:0 50:0 51:5 52:0 53:3 54:5 55:5 56:0 57:2 58:0 59:3 60:0 61:11 62:0 63:7 64:2 
0.2057823627183388 1:-2 2:-7 3:0 4:0 5:0 6:-2 7:-11 8:0 9:-5 10:-5 11:-5 12:-3 13:0 14:-5 15:-5 16:-5 17:0 18:0 19:0 20:0 21:0 22:-7 23:0 24:0 25:0 26:0 27:0 28:0 29:-5 30:0 31:0 32:0 33:0 34:0 35:0 36:0 37:-13 38:0 39:0 40:5 41:5 42:5 43:5 44:0 45:0 46:0 47:0 48:0 49:0 50:0 51:5 52:0 53:13 54:5 55:5 56:0 57:2 58:0 59:3 60:0 61:11 62:3 63:7 64:2 
0.2188084230346306 1:-2 2:-7 3:0 4:0 5:0 6:-2 7:-11 8:0 9:-5 10:-5 11:-5 12:-3 13:0 14:-5 15:-5 16:-5 17:0 18:0 19:0 20:0 21:0 22:-7 23:0 24:0 25:0 26:0 27:0 28:0 29:-5 30:0 31:0 32:0 33:0 34:0 35:0 36:0 37:-13 38:0 39:0 40:5 41:5 42:5 43:5 44:0 45:13 46:0 47:0 48:0 49:0 50:0 51:5 52:0 53:0 54:5 55:5 56:0 57:2 58:0 59:3 60:0 61:11 62:3 63:7 64:2 
0.3018966605339918 1:-2 2:-7 3:0 4:0 5:0 6:-2 7:-11 8:0 9:-5 10:-5 11:-5 12:-3 13:0 14:-5 15:-5 16:-5 17:0 18:0 19:0 20:0 21:0 22:-7 23:0 24:0 25:0 26:0 27:0 28:0 29:-5 30:0 31:0 32:0 33:0 34:0 35:0 36:0 37:-13 38:0 39:0 40:5 41:5 42:5 43:5 44:13 45:0 46:0 47:0 48:0 49:0 50:0 51:5 52:0 53:0 54:5 55:5 56:0 57:2 58:0 59:3 60:11 61:0 62:3 63:7 64:2 
