svm_type c_svc
kernel_type rbf
gamma 0.015625
nr_class 2
total_sv 25
rho 0.88662
label 1 0
nr_sv 9 16
SV
1 1:-1 2:-1 3:-1 4:-1 5:-1 6:-1 7:-0.272727 8:-1 9:-1 10:-1 12:-1 13:-1 16:-1 17:1 22:1 24:1 27:1 29:-0.166667 36:0.166667 37:-1 39:1 43:-1 44:-1 45:-1 46:1 47:-1 49:1 50:1 51:1 52:0.384615 53:1 55:1 57:1 58:1 59:1 60:1 61:1 62:1 63:-1 64:1 
1 1:-1 2:1 3:-1 4:-1 5:-1 6:-1 7:-0.272727 8:-1 9:-1 10:-1 12:-1 13:1 16:-1 17:1 19:-1 22:1 24:1 27:1 29:-1 36:0.166667 37:-1 39:1 43:-1 44:-1 45:-1 46:1 47:1 49:1 50:1 51:1 52:0.384615 53:1 55:-1 57:1 58:1 59:1 60:1 61:1 62:1 63:-1 64:1 
1 1:-1 2:1 3:-1 4:-1 5:-1 6:-1 7:-0.272727 8:-1 9:-1 10:-1 12:-1 13:1 16:-1 17:1 19:-1 22:1 24:1 27:1 29:-1 36:0.166667 37:-1 39:1 43:-1 44:1 45:-1 46:1 47:1 49:1 50:1 51:1 53:1 55:-1 57:1 58:1 59:1 60:1 61:1 62:1 63:-1 64:1 
1 1:-1 2:1 3:-1 4:-1 5:-1 6:-1 7:1 8:-1 9:-1 10:-1 12:-1 13:1 16:-1 17:1 19:-1 22:-1 24:1 27:1 29:-1 36:0.166667 37:-1 39:1 43:-1 44:1 45:-1 46:1 47:1 49:1 50:1 51:1 53:1 55:-1 57:1 58:1 59:1 60:1 61:1 62:1 63:-1 64:1 
1 1:-1 2:1 3:-1 4:-1 5:-1 6:1 7:1 8:-1 9:1 10:-1 12:-1 13:1 16:-1 17:-1 19:-1 22:-1 24:1 27:-1 29:-1 36:1 37:-1 39:1 43:0.428571 44:-1 45:-1 46:1 47:1 49:1 50:1 51:-1 53:1 55:0.2 57:1 58:1 59:1 60:1 61:1 62:-1 63:-1 64:1 
1 1:-1 2:1 3:-1 4:-1 5:-1 6:1 7:1 8:-1 9:1 10:-1 12:-1 13:1 16:-1 17:-1 19:-1 22:-1 24:1 27:-1 29:-0.166667 36:-0.666667 37:-1 39:1 43:0.428571 44:-1 45:-1 46:1 47:1 49:1 50:1 51:-1 53:1 55:0.2 57:1 58:1 59:1 60:1 61:1 62:-1 63:-1 64:1 
1 1:-1 2:1 3:-1 4:-1 5:-1 6:1 7:1 8:-1 9:-0.2 10:-1 12:-1 13:1 16:-1 17:-1 19:-1 22:-1 24:1 27:1 29:-0.166667 36:1 37:-1 39:1 43:-1 44:-1 45:-1 46:1 47:1 49:1 50:1 51:-1 53:1 55:0.2 57:1 58:1 59:1 60:1 61:1 62:-1 63:-1 64:1 
1 1:-1 2:1 3:-1 4:-1 5:-1 6:1 7:1 8:-1 9:-0.2 10:-1 12:-1 13:1 16:-1 17:-1 19:-1 22:-1 24:1 27:1 29:-0.166667 36:1 37:-1 39:1 43:-1 44:-1 45:-1 46:1 47:1 49:1 50:1 51:-1 53:1 55:0.2 57:1 58:1 59:1 60:1 61:-1 62:0.333333 63:1 64:-1 
1 1:-1 2:1 3:-1 4:-1 5:-1 6:1 7:1 8:-1 9:-0.2 10:-1 12:1 13:1 16:-1 17:-1 19:-1 22:-1 24:1 27:1 28:-0.714286 29:-0.166667 36:1 37:-1 39:1 43:-1 44:-1 45:-1 46:1 47:1 49:1 50:1 51:-1 53:1 55:0.2 57:1 58:1 59:1 60:1 61:-1 62:0.333333 63:1 64:-1 
-1 1:-1 2:1 3:-1 4:-1 5:-1 6:-1 7:-0.272727 8:-1 9:-1 10:-1 12:-1 13:-1 16:-1 17:1 19:-1 22:1 24:1 27:1 29:-0.166667 36:0.166667 37:-1 39:1 43:-1 44:-1 45:-1 46:1 47:-1 49:1 50:1 51:1 52:0.384615 53:1 55:1 57:1 58:1 59:1 60:1 61:1 62:1 63:-1 64:1 
-1 1:-1 2:1 3:-1 4:-1 5:-1 6:-1 7:-0.272727 8:-1 9:-1 10:-1 12:-1 13:-1 16:-1 17:1 19:-1 22:1 24:1 27:1 29:-0.166667 36:0.166667 37:-1 39:1 43:-1 44:-1 45:-1 46:1 47:1 49:1 50:1 51:1 52:0.384615 53:1 55:-1 57:1 58:1 59:1 60:1 61:1 62:1 63:-1 64:1 
-1 1:-1 2:1 3:-1 4:-1 5:-1 6:-1 7:1 8:-1 9:-1 10:-1 12:-1 13:1 16:-1 17:1 19:-1 22:-1 24:1 27:1 29:-1 36:0.166667 37:-1 39:1 43:-1 44:1 45:-1 46:1 47:1 49:1 50:1 51:1 53:1 55:0.2 57:1 58:1 59:1 60:1 61:1 62:-1 63:-1 64:1 
-0.7907346078870443 1:-1 2:1 3:-1 4:-1 5:-1 6:1 7:1 8:-1 9:-1 10:-1 12:-1 13:1 16:-1 17:1 19:-1 22:-1 24:1 27:-1 29:-1 36:0.166667 37:-1 39:1 43:-1 44:1 45:-1 46:1 47:1 49:1 50:1 51:1 53:1 55:0.2 57:1 58:1 59:1 60:1 61:1 62:-1 63:-1 64:1 
-0.8180556490603307 1:-1 2:1 3:-1 4:-1 5:-1 6:1 7:1 8:-1 9:-1 10:-1 12:-1 13:1 16:-1 17:1 19:-1 22:-1 24:1 27:-1 29:-1 36:0.166667 37:-1 39:1 43:0.428571 44:1 45:-1 46:1 47:1 49:1 50:1 51:-1 53:1 55:0.2 57:1 58:1 59:1 60:1 61:1 62:-1 63:-1 64:1 
-1 1:-1 2:1 3:-1 4:-1 5:-1 6:1 7:1 8:-1 9:1 10:-1 12:-1 13:1 16:-1 17:-1 19:-1 22:-1 24:1 27:-1 29:-1 36:0.166667 37:-1 39:1 43:0.428571 44:1 45:-1 46:1 47:1 49:1 50:1 51:-1 53:1 55:0.2 57:1 58:1 59:1 60:1 61:1 62:-1 63:-1 64:1 
-1 1:-1 2:1 3:-1 4:-1 5:-1 6:1 7:1 8:-1 9:1 10:-1 12:-1 13:1 16:-1 17:-1 19:-1 22:-1 24:1 27:-1 29:-0.166667 36:1 37:-1 39:1 43:-1 44:-1 45:-1 46:1 47:1 49:1 50:1 51:-1 53:1 55:0.2 57:1 58:1 59:1 60:1 61:1 62:-1 63:-1 64:1 
-1 1:-1 2:1 3:-1 4:-1 5:-1 6:1 7:1 8:-1 9:-0.2 10:-1 12:1 13:1 16:-1 17:-1 19:-1 22:-1 24:1 27:1 28:-0.714286 29:1 36:1 37:-1 39:1 43:-1 44:-1 45:-1 46:-1 47:1 49:1 50:1 51:-1 53:1 55:0.2 57:1 58:1 59:1 60:1 61:-1 62:0.333333 63:1 64:-1 
-0.5426875174730739 1:-1 2:1 3:-1 4:-1 5:-1 6:1 7:1 8:-1 9:-0.2 10:-1 12:1 13:1 16:-1 17:-1 22:-1 24:1 27:1 28:-0.714286 29:1 36:-1 37:-1 39:1 43:-1 44:-1 45:-1 46:-1 47:1 49:1 50:1 51:-1 53:1 55:0.2 57:1 58:1 59:1 60:1 61:-1 62:0.333333 63:1 64:-1 
-0.3053105001112266 1:-1 2:1 3:-1 4:-1 5:-1 6:1 7:1 8:-1 9:-0.2 10:-1 12:1 13:1 16:-1 17:-1 19:1 22:-1 24:1 27:1 28:-0.714286 29:-0.166667 36:0.166667 37:-1 39:1 43:-1 44:-1 45:1 46:-1 47:1 49:1 50:1 51:-1 53:-0.428571 55:0.2 57:1 58:1 59:1 60:1 61:-1 62:0.333333 63:1 64:-1 
-0.1553753997889275 1:-1 2:1 3:-1 4:-1 5:-1 6:1 7:1 8:-1 9:-0.2 10:1 12:1 13:1 16:-1 17:-1 19:-0.714286 22:-1 24:1 27:1 28:-0.714286 29:-0.166667 36:0.166667 37:-1 39:1 43:-1 44:-1 45:1 46:-1 47:1 49:1 50:1 51:-1 53:-0.428571 55:0.2 57:1 58:1 59:1 60:1 61:-1 62:0.333333 63:1 64:-1 
-0.1016153788402312 1:-1 2:1 3:-1 4:-1 5:1 6:-0.333333 7:-1 8:1 9:-0.2 10:1 12:1 13:1 16:-1 17:-1 19:-0.714286 22:-1 24:1 27:1 28:-0.714286 29:-0.166667 36:0.166667 37:1 39:1 43:1 44:-1 45:-1 46:-1 47:1 49:1 50:1 51:-1 53:-0.428571 55:0.2 57:1 58:-1 59:1 60:1 61:-1 62:0.333333 63:1 64:-1 
-0.07334157938102487 1:-1 2:1 3:-1 4:-1 5:0.636364 6:1 7:-1 8:1 9:-0.2 10:1 12:1 13:1 16:-1 17:-1 19:-0.714286 22:-1 24:1 27:1 28:0.714286 29:-0.166667 36:0.166667 37:-1 39:1 43:1 44:-1 45:-1 46:-1 47:1 49:1 50:1 51:-1 53:-0.428571 55:0.2 57:1 58:-1 59:1 60:1 61:-1 62:0.333333 63:1 64:-1 
-0.06421024014488085 1:-1 2:1 3:1 4:-1 5:0.636364 6:1 7:-1 8:1 9:-0.2 10:1 12:1 13:1 16:-1 17:-1 22:1 24:1 27:1 28:0.428571 29:-0.166667 36:0.166667 37:-1 39:-1 43:-1 44:-1 45:-1 46:-1 47:1 49:1 50:1 51:-1 52:1 53:-0.428571 55:-1 57:1 58:-1 59:1 60:-1 61:-1 62:0.333333 63:1 64:-1 
-0.1154551571613597 1:1 2:0.428571 3:1 4:-1 5:0.636364 6:1 7:-1 8:1 9:-0.2 10:1 12:1 13:1 16:-1 17:-1 22:1 24:1 27:1 28:0.428571 29:-0.166667 36:0.166667 37:-1 39:-1 43:-1 44:-1 45:-1 46:-1 47:1 49:1 50:1 51:-1 52:1 53:-0.428571 55:-1 57:1 58:-1 59:1 60:-1 61:-1 62:0.333333 63:1 64:-1 
-0.03321397015190033 1:1 2:1 3:1 4:1 5:1 6:1 7:-1 8:1 9:-0.2 10:1 12:1 13:1 16:1 17:-1 19:0.428571 22:1 24:-1 27:1 29:-0.166667 36:0.166667 37:-1 39:-1 43:-0.142857 44:-1 45:-1 46:-1 47:1 49:-1 50:-0.428571 51:-1 53:-1 55:-1 57:-1 58:-1 59:-1 60:-0.692308 61:-1 62:0.333333 63:1 64:-1 
