svm_type c_svc
kernel_type rbf
gamma 0.015625
nr_class 2
total_sv 43
rho 0.697497
label 1 0
nr_sv 9 34
SV
1 1:-2 2:-7 3:-3 4:-13 5:-11 6:-3 7:-7 8:-2 9:-5 10:-5 11:-5 12:-5 13:-5 14:-5 15:-5 16:-5 17:0 18:0 19:0 20:0 21:0 22:0 23:0 24:0 25:0 26:0 27:0 28:0 29:0 30:0 31:0 32:0 33:0 34:0 35:0 36:0 37:0 38:0 39:0 40:0 41:0 42:0 43:0 44:0 45:0 46:7 47:0 48:0 49:5 50:5 51:5 52:5 53:5 54:5 55:5 56:5 57:2 58:7 59:3 60:13 61:11 62:3 63:0 64:2 
1 1:-2 2:0 3:-3 4:-13 5:-11 6:-3 7:-7 8:-2 9:-5 10:-5 11:-5 12:-5 13:0 14:-5 15:-5 16:-5 17:0 18:0 19:-7 20:0 21:0 22:0 23:0 24:0 25:0 26:0 27:0 28:0 29:-5 30:0 31:0 32:0 33:0 34:0 35:0 36:0 37:0 38:0 39:0 40:0 41:0 42:0 43:0 44:0 45:0 46:7 47:5 48:0 49:5 50:5 51:5 52:5 53:5 54:5 55:0 56:5 57:2 58:7 59:3 60:13 61:11 62:3 63:0 64:2 
1 1:-2 2:0 3:-3 4:-13 5:-11 6:-3 7:-7 8:-2 9:-5 10:-5 11:-5 12:-5 13:0 14:-5 15:-5 16:-5 17:0 18:0 19:-7 20:0 21:0 22:0 23:0 24:0 25:0 26:0 27:0 28:0 29:-5 30:0 31:0 32:0 33:0 34:0 35:0 36:0 37:0 38:0 39:0 40:0 41:0 42:0 43:0 44:5 45:0 46:7 47:5 48:0 49:5 50:5 51:5 52:0 53:5 54:5 55:0 56:5 57:2 58:7 59:3 60:13 61:11 62:3 63:0 64:2 
1 1:-2 2:0 3:-3 4:-13 5:-11 6:-3 7:0 8:-2 9:-5 10:-5 11:-5 12:-5 13:0 14:-5 15:-5 16:-5 17:0 18:0 19:-7 20:0 21:0 22:-7 23:0 24:0 25:0 26:0 27:0 28:0 29:-5 30:0 31:0 32:0 33:0 34:0 35:0 36:0 37:0 38:0 39:0 40:0 41:0 42:0 43:0 44:5 45:0 46:7 47:5 48:0 49:5 50:5 51:5 52:0 53:5 54:5 55:0 56:5 57:2 58:7 59:3 60:13 61:11 62:3 63:0 64:2 
1 1:-2 2:0 3:-3 4:-13 5:-11 6:0 7:0 8:-2 9:0 10:-5 11:-5 12:-5 13:0 14:-5 15:-5 16:-5 17:-5 18:0 19:-7 20:0 21:0 22:-7 23:0 24:0 25:0 26:0 27:-3 28:0 29:-5 30:0 31:0 32:0 33:0 34:0 35:0 36:5 37:0 38:0 39:0 40:0 41:0 42:0 43:5 44:0 45:0 46:7 47:5 48:0 49:5 50:5 51:0 52:0 53:5 54:5 55:3 56:5 57:2 58:7 59:3 60:13 61:11 62:0 63:0 64:2 
1 1:-2 2:0 3:-3 4:-13 5:-11 6:0 7:0 8:-2 9:0 10:-5 11:-5 12:-5 13:0 14:-5 15:-5 16:-5 17:-5 18:0 19:-7 20:0 21:0 22:-7 23:0 24:0 25:0 26:0 27:-3 28:0 29:0 30:0 31:0 32:0 33:0 34:0 35:0 36:-5 37:0 38:0 39:0 40:0 41:0 42:0 43:5 44:0 45:0 46:7 47:5 48:0 49:5 50:5 51:0 52:0 53:5 54:5 55:3 56:5 57:2 58:7 59:3 60:13 61:11 62:0 63:0 64:2 
1 1:-2 2:0 3:-3 4:-13 5:-11 6:0 7:0 8:-2 9:-3 10:-5 11:-5 12:-5 13:0 14:-5 15:-5 16:-5 17:-5 18:0 19:-7 20:0 21:0 22:-7 23:0 24:0 25:0 26:0 27:0 28:0 29:0 30:0 31:0 32:0 33:0 34:0 35:0 36:5 37:0 38:0 39:0 40:0 41:0 42:0 43:0 44:0 45:0 46:7 47:5 48:0 49:5 50:5 51:0 52:0 53:5 54:5 55:3 56:5 57:2 58:7 59:3 60:13 61:11 62:0 63:0 64:2 
1 1:-2 2:0 3:-3 4:-13 5:-11 6:0 7:0 8:-2 9:-3 10:-5 11:-5 12:-5 13:0 14:-5 15:-5 16:-5 17:-5 18:0 19:-7 20:0 21:0 22:-7 23:0 24:0 25:0 26:0 27:0 28:0 29:0 30:0 31:0 32:0 33:0 34:0 35:0 36:5 37:0 38:0 39:0 40:0 41:0 42:0 43:0 44:0 45:0 46:7 47:5 48:0 49:5 50:5 51:0 52:0 53:5 54:5 55:3 56:5 57:2 58:7 59:3 60:13 61:0 62:2 63:11 64:0 
1 1:-2 2:0 3:-3 4:-13 5:-11 6:0 7:0 8:-2 9:-3 10:-5 11:-5 12:0 13:0 14:-5 15:-5 16:-5 17:-5 18:0 19:-7 20:0 21:0 22:-7 23:0 24:0 25:0 26:0 27:0 28:-5 29:0 30:0 31:0 32:0 33:0 34:0 35:0 36:5 37:0 38:0 39:0 40:0 41:0 42:0 43:0 44:0 45:0 46:7 47:5 48:0 49:5 50:5 51:0 52:0 53:5 54:5 55:3 56:5 57:2 58:7 59:3 60:13 61:0 62:2 63:11 64:0 
-0.415060720368523 1:-2 2:0 3:-3 4:-13 5:-11 6:-3 7:-7 8:-2 9:-5 10:-5 11:-5 12:-5 13:-5 14:-5 15:-5 16:-5 17:0 18:0 19:-7 20:0 21:0 22:0 23:0 24:0 25:0 26:0 27:0 28:0 29:0 30:0 31:0 32:0 33:0 34:0 35:0 36:0 37:0 38:0 39:0 40:0 41:0 42:0 43:0 44:0 45:0 46:7 47:0 48:0 49:5 50:5 51:5 52:5 53:5 54:5 55:5 56:5 57:2 58:7 59:3 60:13 61:11 62:3 63:0 64:2 
-0.8991290584126217 1:-2 2:0 3:-3 4:-13 5:-11 6:-3 7:-7 8:-2 9:-5 10:-5 11:-5 12:-5 13:-5 14:-5 15:-5 16:-5 17:0 18:0 19:-7 20:0 21:0 22:0 23:0 24:0 25:0 26:0 27:0 28:0 29:0 30:0 31:0 32:0 33:0 34:0 35:0 36:0 37:0 38:0 39:0 40:0 41:0 42:0 43:0 44:0 45:0 46:7 47:5 48:0 49:5 50:5 51:5 52:5 53:5 54:5 55:0 56:5 57:2 58:7 59:3 60:13 61:11 62:3 63:0 64:2 
-1 1:-2 2:0 3:-3 4:-13 5:-11 6:-3 7:0 8:-2 9:-5 10:-5 11:-5 12:-5 13:0 14:-5 15:-5 16:-5 17:0 18:0 19:-7 20:0 21:0 22:-7 23:0 24:0 25:0 26:0 27:0 28:0 29:-5 30:0 31:0 32:0 33:0 34:0 35:0 36:0 37:0 38:0 39:0 40:0 41:0 42:0 43:0 44:5 45:0 46:7 47:5 48:0 49:5 50:5 51:5 52:0 53:5 54:5 55:3 56:5 57:2 58:7 59:3 60:13 61:11 62:0 63:0 64:2 
-0.1905753273168864 1:-2 2:0 3:-3 4:-13 5:-11 6:0 7:0 8:-2 9:-5 10:-5 11:-5 12:-5 13:0 14:-5 15:-5 16:-5 17:0 18:0 19:-7 20:0 21:0 22:-7 23:0 24:0 25:0 26:0 27:-3 28:0 29:-5 30:0 31:0 32:0 33:0 34:0 35:0 36:0 37:0 38:0 39:0 40:0 41:0 42:0 43:0 44:5 45:0 46:7 47:5 48:0 49:5 50:5 51:5 52:0 53:5 54:5 55:3 56:5 57:2 58:7 59:3 60:13 61:11 62:0 63:0 64:2 
-0.1617240933792573 1:-2 2:0 3:-3 4:-13 5:-11 6:0 7:0 8:-2 9:-5 10:-5 11:-5 12:-5 13:0 14:-5 15:-5 16:-5 17:0 18:0 19:-7 20:0 21:0 22:-7 23:0 24:0 25:0 26:0 27:-3 28:0 29:-5 30:0 31:0 32:0 33:0 34:0 35:0 36:0 37:0 38:0 39:0 40:0 41:0 42:0 43:5 44:5 45:0 46:7 47:5 48:0 49:5 50:5 51:0 52:0 53:5 54:5 55:3 56:5 57:2 58:7 59:3 60:13 61:11 62:0 63:0 64:2 
-0.9020044327620207 1:-2 2:0 3:-3 4:-13 5:-11 6:0 7:0 8:-2 9:0 10:-5 11:-5 12:-5 13:0 14:-5 15:-5 16:-5 17:-5 18:0 19:-7 20:0 21:0 22:-7 23:0 24:0 25:0 26:0 27:-3 28:0 29:-5 30:0 31:0 32:0 33:0 34:0 35:0 36:0 37:0 38:0 39:0 40:0 41:0 42:0 43:5 44:5 45:0 46:7 47:5 48:0 49:5 50:5 51:0 52:0 53:5 54:5 55:3 56:5 57:2 58:7 59:3 60:13 61:11 62:0 63:0 64:2 
-1 1:-2 2:0 3:-3 4:-13 5:-11 6:0 7:0 8:-2 9:0 10:-5 11:-5 12:-5 13:0 14:-5 15:-5 16:-5 17:-5 18:0 19:-7 20:0 21:0 22:-7 23:0 24:0 25:0 26:0 27:-3 28:0 29:0 30:0 31:0 32:0 33:0 34:0 35:0 36:5 37:0 38:0 39:0 40:0 41:0 42:0 43:0 44:0 45:0 46:7 47:5 48:0 49:5 50:5 51:0 52:0 53:5 54:5 55:3 56:5 57:2 58:7 59:3 60:13 61:11 62:0 63:0 64:2 
-0.5494640853106951 1:-2 2:0 3:-3 4:-13 5:-11 6:0 7:0 8:-2 9:-3 10:-5 11:-5 12:0 13:0 14:-5 15:-5 16:-5 17:-5 18:0 19:-7 20:0 21:0 22:-7 23:0 24:0 25:0 26:0 27:0 28:-5 29:7 30:0 31:0 32:0 33:0 34:0 35:0 36:5 37:0 38:0 39:0 40:0 41:0 42:0 43:0 44:0 45:0 46:0 47:5 48:0 49:5 50:5 51:0 52:0 53:5 54:5 55:3 56:5 57:2 58:7 59:3 60:13 61:0 62:2 63:11 64:0 
-0.1968784996350368 1:-2 2:0 3:-3 4:-13 5:-11 6:0 7:0 8:-2 9:-3 10:-5 11:-5 12:0 13:0 14:-5 15:-5 16:-5 17:-5 18:0 19:0 20:0 21:0 22:-7 23:0 24:0 25:0 26:0 27:0 28:-5 29:7 30:0 31:0 32:0 33:0 34:0 35:0 36:-7 37:0 38:0 39:0 40:0 41:0 42:0 43:0 44:0 45:0 46:0 47:5 48:0 49:5 50:5 51:0 52:0 53:5 54:5 55:3 56:5 57:2 58:7 59:3 60:13 61:0 62:2 63:11 64:0 
-0.131607232385725 1:-2 2:0 3:-3 4:-13 5:-11 6:0 7:0 8:-2 9:-3 10:-5 11:-5 12:0 13:0 14:-5 15:-5 16:-5 17:-5 18:0 19:0 20:0 21:0 22:-7 23:0 24:0 25:0 26:0 27:0 28:-5 29:7 30:0 31:0 32:0 33:0 34:0 35:0 36:-7 37:0 38:0 39:0 40:0 41:0 42:0 43:0 44:0 45:5 46:0 47:5 48:0 49:5 50:5 51:0 52:0 53:0 54:5 55:3 56:5 57:2 58:7 59:3 60:13 61:0 62:2 63:11 64:0 
-0.08161489631296839 1:-2 2:0 3:-3 4:-13 5:-11 6:0 7:0 8:-2 9:-3 10:-5 11:-5 12:0 13:0 14:-5 15:-5 16:-5 17:-5 18:0 19:-7 20:0 21:0 22:-7 23:0 24:0 25:0 26:0 27:0 28:-5 29:7 30:0 31:0 32:0 33:0 34:0 35:0 36:0 37:0 38:0 39:0 40:0 41:0 42:0 43:0 44:0 45:5 46:0 47:5 48:0 49:5 50:5 51:0 52:0 53:0 54:5 55:3 56:5 57:2 58:7 59:3 60:13 61:0 62:2 63:11 64:0 
-0.2616237702486247 1:-2 2:0 3:-3 4:-13 5:-11 6:0 7:0 8:-2 9:-3 10:-5 11:-5 12:0 13:0 14:-5 15:-5 16:-5 17:-5 18:0 19:7 20:0 21:0 22:-7 23:0 24:0 25:0 26:0 27:0 28:-5 29:0 30:0 31:0 32:0 33:0 34:0 35:0 36:0 37:0 38:0 39:0 40:0 41:0 42:0 43:0 44:0 45:5 46:0 47:5 48:0 49:5 50:5 51:0 52:0 53:0 54:5 55:3 56:5 57:2 58:7 59:3 60:13 61:0 62:2 63:11 64:0 
-0.2676818922147278 1:-2 2:0 3:-3 4:-13 5:-11 6:0 7:0 8:-2 9:-3 10:0 11:-5 12:0 13:0 14:-5 15:-5 16:-5 17:-5 18:0 19:-5 20:0 21:0 22:-7 23:0 24:0 25:0 26:0 27:0 28:-5 29:0 30:0 31:0 32:0 33:0 34:0 35:0 36:0 37:0 38:0 39:0 40:0 41:0 42:0 43:0 44:0 45:5 46:0 47:5 48:0 49:5 50:5 51:0 52:0 53:0 54:5 55:3 56:5 57:2 58:7 59:3 60:13 61:0 62:2 63:11 64:0 
-0.2411098231903948 1:-2 2:0 3:-3 4:-13 5:-11 6:0 7:0 8:-2 9:-3 10:0 11:-5 12:0 13:0 14:-5 15:-5 16:-5 17:-5 18:0 19:-5 20:0 21:0 22:-7 23:0 24:0 25:0 26:0 27:0 28:-5 29:0 30:0 31:0 32:0 33:0 34:0 35:0 36:0 37:0 38:0 39:0 40:0 41:0 42:0 43:7 44:0 45:5 46:0 47:5 48:0 49:5 50:5 51:0 52:0 53:0 54:5 55:3 56:5 57:2 58:0 59:3 60:13 61:0 62:2 63:11 64:0 
-0.1792686637040419 1:-2 2:0 3:-3 4:-13 5:0 6:-2 7:-11 8:0 9:-3 10:0 11:-5 12:0 13:0 14:-5 15:-5 16:-5 17:-5 18:0 19:-5 20:0 21:0 22:-7 23:0 24:0 25:0 26:0 27:0 28:-5 29:0 30:0 31:0 32:0 33:0 34:0 35:0 36:0 37:0 38:0 39:0 40:0 41:0 42:0 43:7 44:0 45:5 46:0 47:5 48:0 49:5 50:5 51:0 52:0 53:0 54:5 55:3 56:5 57:2 58:0 59:3 60:13 61:0 62:2 63:11 64:0 
-0.0898829697880436 1:-2 2:0 3:-3 4:-13 5:0 6:-2 7:-11 8:0 9:-3 10:0 11:-5 12:0 13:0 14:-5 15:-5 16:-5 17:-5 18:0 19:-5 20:0 21:0 22:-7 23:0 24:0 25:0 26:0 27:0 28:-5 29:0 30:0 31:0 32:0 33:0 34:0 35:0 36:0 37:5 38:0 39:0 40:0 41:0 42:0 43:7 44:0 45:0 46:0 47:5 48:0 49:5 50:5 51:0 52:0 53:0 54:5 55:3 56:5 57:2 58:0 59:3 60:13 61:0 62:2 63:11 64:0 
-0.1090934209286495 1:-2 2:0 3:-3 4:-13 5:-2 6:0 7:-11 8:0 9:-3 10:0 11:-5 12:0 13:0 14:-5 15:-5 16:-5 17:-5 18:0 19:-5 20:0 21:0 22:-7 23:0 24:0 25:0 26:0 27:0 28:-5 29:0 30:0 31:0 32:0 33:0 34:0 35:0 36:0 37:5 38:0 39:0 40:0 41:0 42:0 43:7 44:0 45:0 46:0 47:5 48:0 49:5 50:5 51:0 52:0 53:0 54:5 55:3 56:5 57:2 58:0 59:3 60:13 61:0 62:2 63:11 64:0 
-0.1238039062591918 1:-2 2:0 3:-3 4:-13 5:-2 6:0 7:-11 8:0 9:-3 10:0 11:-5 12:0 13:0 14:-5 15:-5 16:-5 17:-5 18:0 19:-5 20:0 21:0 22:-7 23:0 24:0 25:0 26:0 27:0 28:5 29:0 30:0 31:0 32:0 33:0 34:0 35:0 36:0 37:0 38:0 39:0 40:0 41:0 42:0 43:7 44:0 45:0 46:0 47:5 48:0 49:5 50:5 51:0 52:0 53:0 54:5 55:3 56:5 57:2 58:0 59:3 60:13 61:0 62:2 63:11 64:0 
-0.1690187485188119 1:-2 2:0 3:0 4:-13 5:-2 6:0 7:-11 8:0 9:-3 10:0 11:-5 12:0 13:0 14:-5 15:-5 16:-5 17:-5 18:0 19:-5 20:0 21:0 22:-7 23:0 24:0 25:0 26:0 27:0 28:5 29:0 30:0 31:0 32:0 33:0 34:0 35:0 36:0 37:0 38:0 39:-3 40:0 41:0 42:0 43:7 44:0 45:0 46:0 47:5 48:0 49:5 50:5 51:0 52:0 53:0 54:5 55:3 56:5 57:2 58:0 59:3 60:13 61:0 62:2 63:11 64:0 
-0.1955030164856353 1:-2 2:0 3:0 4:-13 5:-2 6:0 7:-11 8:0 9:-3 10:0 11:-5 12:0 13:0 14:-5 15:-5 16:-5 17:-5 18:0 19:-5 20:0 21:0 22:-7 23:0 24:0 25:0 26:0 27:0 28:5 29:0 30:0 31:0 32:0 33:0 34:0 35:0 36:0 37:0 38:0 39:-3 40:0 41:0 42:0 43:7 44:0 45:0 46:0 47:5 48:0 49:5 50:5 51:0 52:13 53:0 54:5 55:3 56:5 57:2 58:0 59:3 60:0 61:0 62:2 63:11 64:0 
-0.2081268488767705 1:-2 2:0 3:0 4:-13 5:-2 6:0 7:-11 8:0 9:-3 10:0 11:-5 12:0 13:0 14:-5 15:-5 16:-5 17:-5 18:0 19:0 20:0 21:0 22:-7 23:0 24:0 25:0 26:0 27:0 28:-5 29:0 30:0 31:0 32:0 33:0 34:0 35:0 36:0 37:0 38:0 39:-3 40:0 41:0 42:0 43:7 44:0 45:0 46:0 47:5 48:0 49:5 50:5 51:0 52:13 53:0 54:5 55:3 56:5 57:2 58:0 59:3 60:0 61:0 62:2 63:11 64:0 
-0.1760833707365352 1:-2 2:0 3:0 4:-13 5:-2 6:0 7:-11 8:0 9:-3 10:0 11:-5 12:0 13:0 14:-5 15:-5 16:-5 17:-5 18:0 19:0 20:0 21:0 22:-7 23:0 24:0 25:0 26:0 27:0 28:7 29:0 30:0 31:0 32:0 33:0 34:0 35:0 36:0 37:0 38:0 39:-3 40:0 41:0 42:0 43:0 44:0 45:0 46:0 47:5 48:0 49:5 50:5 51:0 52:13 53:0 54:5 55:3 56:5 57:2 58:0 59:3 60:0 61:0 62:2 63:11 64:0 
-0.2213507809981331 1:-2 2:0 3:0 4:-13 5:-2 6:0 7:-11 8:0 9:-3 10:0 11:-5 12:0 13:0 14:-5 15:-5 16:-5 17:-5 18:0 19:0 20:0 21:0 22:0 23:0 24:0 25:0 26:0 27:0 28:-7 29:0 30:0 31:0 32:0 33:0 34:0 35:0 36:0 37:0 38:0 39:-3 40:0 41:0 42:0 43:0 44:0 45:0 46:0 47:5 48:0 49:5 50:5 51:0 52:13 53:0 54:5 55:3 56:5 57:2 58:0 59:3 60:0 61:0 62:2 63:11 64:0 
-0.02652759161402743 1:-2 2:0 3:0 4:-13 5:-2 6:0 7:-11 8:0 9:-3 10:0 11:-5 12:0 13:0 14:-5 15:-5 16:-5 17:-5 18:0 19:0 20:0 21:0 22:0 23:0 24:0 25:0 26:0 27:0 28:3 29:0 30:0 31:0 32:0 33:0 34:0 35:0 36:0 37:0 38:0 39:-3 40:0 41:0 42:0 43:0 44:0 45:0 46:0 47:5 48:0 49:5 50:5 51:0 52:13 53:0 54:5 55:0 56:5 57:2 58:0 59:3 60:0 61:0 62:2 63:11 64:0 
-0.1589489625858873 1:0 2:-2 3:0 4:-13 5:-2 6:0 7:-11 8:0 9:-3 10:0 11:-5 12:0 13:0 14:-5 15:-5 16:-5 17:-5 18:0 19:0 20:0 21:0 22:0 23:0 24:0 25:0 26:0 27:0 28:3 29:0 30:0 31:0 32:0 33:0 34:0 35:0 36:0 37:0 38:0 39:-3 40:0 41:0 42:0 43:0 44:0 45:0 46:0 47:5 48:0 49:5 50:5 51:0 52:13 53:0 54:5 55:0 56:5 57:2 58:0 59:3 60:0 61:0 62:2 63:11 64:0 
-0.2951636695025184 1:0 2:-2 3:0 4:0 5:-2 6:0 7:-11 8:0 9:-3 10:0 11:-5 12:0 13:0 14:-5 15:-5 16:-5 17:-5 18:0 19:0 20:0 21:0 22:0 23:0 24:0 25:0 26:0 27:0 28:0 29:0 30:0 31:0 32:0 33:0 34:0 35:0 36:0 37:0 38:0 39:-3 40:0 41:0 42:0 43:0 44:0 45:0 46:0 47:5 48:0 49:5 50:5 51:0 52:-13 53:0 54:5 55:3 56:5 57:2 58:0 59:3 60:0 61:0 62:2 63:11 64:0 
-0.1887729059678064 1:0 2:-2 3:0 4:0 5:-2 6:0 7:-11 8:0 9:-3 10:0 11:-5 12:0 13:0 14:-5 15:-5 16:-5 17:-5 18:0 19:0 20:0 21:0 22:0 23:0 24:0 25:0 26:0 27:0 28:0 29:0 30:0 31:0 32:0 33:0 34:0 35:0 36:0 37:0 38:0 39:-3 40:0 41:0 42:0 43:0 44:0 45:0 46:0 47:5 48:0 49:5 50:5 51:0 52:3 53:0 54:5 55:3 56:5 57:2 58:0 59:0 60:0 61:0 62:2 63:11 64:0 
-0.0853975078825976 1:0 2:0 3:0 4:0 5:-2 6:0 7:-11 8:0 9:-3 10:0 11:-5 12:0 13:0 14:-5 15:-5 16:-5 17:-5 18:0 19:0 20:0 21:0 22:0 23:0 24:0 25:0 26:0 27:0 28:0 29:0 30:0 31:0 32:0 33:0 34:0 35:0 36:0 37:0 38:0 39:-3 40:0 41:0 42:0 43:0 44:0 45:0 46:0 47:5 48:0 49:5 50:-2 51:0 52:3 53:0 54:5 55:3 56:5 57:2 58:0 59:0 60:0 61:0 62:2 63:11 64:0 
-0.03033567288222793 1:0 2:0 3:0 4:0 5:-2 6:0 7:-11 8:0 9:-3 10:0 11:-5 12:0 13:0 14:-5 15:-5 16:-5 17:-5 18:0 19:3 20:0 21:0 22:0 23:0 24:0 25:0 26:0 27:0 28:0 29:0 30:0 31:0 32:0 33:0 34:0 35:0 36:0 37:0 38:0 39:-3 40:0 41:0 42:0 43:0 44:0 45:0 46:0 47:5 48:0 49:5 50:-2 51:0 52:3 53:0 54:5 55:0 56:5 57:2 58:0 59:0 60:0 61:0 62:2 63:11 64:0 
-0.03838931144279829 1:0 2:0 3:0 4:0 5:0 6:0 7:-11 8:0 9:-3 10:0 11:-5 12:0 13:0 14:-5 15:-5 16:-5 17:-5 18:0 19:3 20:0 21:0 22:0 23:0 24:0 25:0 26:0 27:0 28:0 29:0 30:0 31:0 32:0 33:0 34:0 35:0 36:0 37:0 38:0 39:-3 40:0 41:0 42:0 43:0 44:0 45:0 46:0 47:5 48:0 49:5 50:-2 51:0 52:3 53:-2 54:5 55:0 56:5 57:2 58:0 59:0 60:0 61:0 62:2 63:11 64:0 
-0.07732321189068568 1:0 2:0 3:0 4:0 5:0 6:0 7:-11 8:0 9:-3 10:0 11:-5 12:0 13:0 14:-5 15:-5 16:-5 17:-5 18:0 19:3 20:0 21:0 22:0 23:0 24:0 25:0 26:0 27:0 28:0 29:0 30:0 31:0 32:0 33:0 34:0 35:0 36:0 37:0 38:0 39:-3 40:0 41:0 42:0 43:3 44:0 45:0 46:0 47:5 48:0 49:5 50:-2 51:0 52:0 53:-2 54:5 55:0 56:5 57:2 58:0 59:0 60:0 61:0 62:2 63:11 64:0 
-0.05512721578644792 1:0 2:0 3:0 4:0 5:0 6:0 7:-11 8:0 9:-3 10:0 11:-5 12:0 13:0 14:-5 15:-5 16:-5 17:-5 18:0 19:3 20:0 21:0 22:0 23:0 24:0 25:0 26:0 27:0 28:0 29:0 30:0 31:0 32:0 33:0 34:0 35:0 36:0 37:0 38:0 39:-3 40:0 41:0 42:0 43:3 44:0 45:0 46:0 47:5 48:0 49:-2 50:0 51:0 52:0 53:-2 54:5 55:0 56:5 57:2 58:0 59:0 60:0 61:0 62:2 63:11 64:0 
-0.06536295087895547 1:0 2:0 3:0 4:0 5:0 6:0 7:-11 8:0 9:-3 10:0 11:-5 12:0 13:0 14:-5 15:-5 16:-5 17:-5 18:0 19:3 20:0 21:0 22:0 23:0 24:0 25:0 26:0 27:0 28:0 29:0 30:0 31:0 32:0 33:0 34:0 35:0 36:0 37:0 38:0 39:-3 40:0 41:0 42:0 43:3 44:0 45:0 46:0 47:5 48:0 49:-2 50:0 51:0 52:0 53:-2 54:5 55:0 56:5 57:0 58:0 59:0 60:2 61:0 62:2 63:11 64:0 
-0.2080454417327532 1:0 2:0 3:0 4:0 5:0 6:0 7:-11 8:0 9:-3 10:0 11:-5 12:0 13:0 14:-5 15:-5 16:0 17:-5 18:0 19:3 20:0 21:0 22:0 23:0 24:-5 25:0 26:0 27:0 28:0 29:0 30:0 31:0 32:0 33:0 34:0 35:0 36:0 37:0 38:0 39:-3 40:0 41:0 42:0 43:3 44:0 45:0 46:0 47:5 48:0 49:-2 50:0 51:0 52:0 53:-2 54:5 55:0 56:5 57:0 58:0 59:0 60:2 61:0 62:2 63:11 64:0 
